-0.0605021268129
0.161938264966
-0.0915328785777
-0.0417399890721
0.260041832924
-0.29887765646
0.0464862287045
0.0986455231905
0.289079368114
0.14822243154
-0.394973069429
-0.390821218491
-0.270478218794
-0.243773981929
0.196146920323
-0.0988698229194
-0.0917917340994
-0.172921508551
-0.249075055122
-0.219217687845
0.371030956507
0.180414915085
0.156473100185
-0.0933650583029
0.122297532856
0.420121371746
0.367551356554
-0.174526900053
-0.133419707417
-0.232423767447
0.273248374462
0.278201013803
0.0821703076363
-0.0388377532363
-0.356214523315
0.306329756975
0.371921688318
-0.115257285535
-0.0183276534081
0.104039058089
0.256443232298
0.301315814257
0.0339773669839
0.0998138189316
-0.111968375742
0.24409045279
-0.16041252017
-0.095842063427
-0.255101889372
0.125145196915
-0.25972110033
-0.369150608778
-0.224775493145
-0.0562545247376
0.402724832296
-0.22674793005
-0.423303097486
-0.0224564950913
0.279060423374
0.490200221539
-0.172443717718
-0.099366761744
0.344249427319
0.475627094507
0.351777672768
-0.0313829779625
0.143130004406
0.520529389381
0.16182205081
0.238668903708
-0.117004774511
0.414658695459
0.342351019382
0.16061706841
0.0311195068061
-0.291769683361
-0.309608131647
-0.0434159748256
0.0981338396668
-0.0998852625489
0.16021053493
0.360783904791
0.179866686463
0.288364648819
0.0602087080479
0.490417599678
0.479963779449
0.580328404903
0.511899352074
0.0501263700426
0.110312573612
0.241594955325
0.282629191875
0.343814283609
-0.000113609457912
-0.3402300179
-0.284543961287
-0.209765568376
0.13071860373
-0.142389565706
-0.294887453318
0.185629144311
-0.0719653889537
0.0941925793886
0.029412182048
-0.357549965382
-0.0626880154014
0.28516882658
0.292055279016
-0.21760456264
-0.0361347533762
0.245601326227
0.127866312861
0.182510241866
-0.0245709922165
-0.20548760891
-0.0294914655387
0.368851214647
-0.10644954443
0.00344947678968
-0.0318989902735
0.356600403786
-0.0802457407117
0.153977319598
-0.140502199531
0.263081371784
0.0927073061466
0.065237827599
-0.246077701449
-0.275857329369
0.0831529796124
0.228598311543
0.361293613911
0.121354825795
-0.300834327936
-0.152865350246
0.293651670218
0.190014913678
0.259751021862
-0.0337948091328
0.0606490001082
0.24646563828
0.0101744160056
0.0898705720901
0.223280772567
-0.304302722216
-0.143301859498
0.227094918489
0.264189124107
0.065823815763
0.0323661752045
0.170511990786
0.277778029442
-0.218367561698
-0.0231216140091
0.29560983181
-0.0283613167703
-0.0393451079726
0.259431779385
-0.244294539094
0.0903350561857
0.314925849438
0.129417911172
-0.110989816487
0.0198136530817
-0.218648433685
0.21828956902
0.251887828112
-0.0545583255589
-0.295364916325
-0.244895577431
0.177464261651
-0.136650338769
0.0544233955443
-0.0415594726801
-0.26350659132
-0.0393583923578
0.00224835565314
0.156262695789
0.19709046185
-0.0511160306633
-0.167059108615
0.299284905195
0.121152840555
-0.121003128588
0.102992258966
0.178972303867
-0.0823412910104
-0.185666546226
0.189469158649
0.100943639874
0.0421616844833
-0.0285447631031
0.150841400027
0.117279663682
0.107200272381
-0.0603898540139
-0.226179912686
-0.28989058733
-0.329162120819
0.253825694323
-0.220532119274
-0.323104530573
-0.162710815668
-0.359421819448
0.179338648915
0.225606918335
-0.127512663603
-0.239041909575
-0.18536350131
0.228831827641
0.279619395733
0.420977801085
0.0530211292207
-0.22814682126
0.222860589623
0.219706460834
0.401195913553
0.439045190811
0.277180254459
-0.271585136652
-0.239756301045
0.178288206458
0.053369436413
0.0794005617499
0.00169454806019
0.16895608604
-0.254511237144
0.0554116331041
-0.239375770092
0.162155106664
0.202136904001
-0.114346668124
-0.00983862113208
0.182372495532
-0.110266931355
0.246822506189
0.090605340898
0.148806169629
0.0156729929149
0.34165212512
0.29471346736
0.357396125793
0.368300914764
0.0501279495656
0.117807328701
0.401701450348
0.251042157412
0.239859759808
0.32831582427
0.179696828127
-0.204847201705
-0.203079625964
0.0160304028541
-0.0600196123123
0.273871779442
-0.11315266788
-0.0550728589296
0.130479380488
0.0880008861423
0.137368366122
0.145515084267
0.205256432295
-0.0598874762654
-0.151346251369
0.286127150059
0.0818807408214
0.139982268214
-0.0116082476452
0.187142148614
-0.250705748796
-0.186553940177
0.183252170682
-0.140888825059
0.0304721351713
0.113913536072
0.265775710344
0.0591291636229
-0.118116207421
-0.213965058327
-0.286753296852
-0.392497390509
-0.331198751926
-0.428477287292
-0.105532795191
-0.179825395346
-0.400689482689
-0.517146706581
-0.133103981614
0.11595723778
-0.248596593738
-0.16059525311
0.223964288831
0.32417139411
0.0156272910535
0.574829816818
0.672426998615
0.486053436995
0.411602020264
0.16569070518
-0.0391851849854
0.110518962145
0.271354824305
-0.0535655729473
-0.0399226807058
0.364120215178
0.275836676359
0.218116149306
-0.128046676517
0.031544636935
-0.0265417750925
0.11868275702
-0.205097362399
-0.207098513842
-0.105612538755
-0.0437766872346
-0.25482198596
-0.21530123055
-0.379794716835
-0.272921830416
-0.149672165513
-0.315837532282
-0.247601792216
-0.250971794128
-0.141435936093
-0.398391097784
-0.267772167921
0.026465728879
-0.142045080662
-0.0689576417208
-0.196430370212
0.105952493846
-0.198535889387
0.0355253480375
-0.0874412208796
0.104319304228
0.209361195564
-0.126764297485
0.289465785027
0.373636126518
0.0591299161315
-0.125607475638
-0.0801319330931
0.162464544177
0.427952855825
0.0572866983712
-0.242564111948
0.00661434512585
0.179588779807
0.317333698273
-0.26281145215
0.203176915646
0.246440321207
0.229618757963
-0.119336768985
0.222542285919
-0.180051892996
0.0281640402973
0.0151663599536
-0.166672095656
0.0531273931265
-0.0152831124142
-0.199518606067
0.253133296967
0.239427372813
0.076134391129
-0.339233785868
-0.142423659563
0.0597725696862
0.284395486116
0.23798802495
-0.296284139156
-0.0274269022048
-0.214109092951
-0.0798484012485
-0.0090045966208
-0.186210438609
-0.293826848269
-0.328272461891
0.0737724974751
0.18212582171
0.0375459939241
-0.109445035458
0.226091861725
-0.0600637234747
0.221173331141
-0.0829442515969
0.122447066009
0.104642383754
0.329919666052
0.349369764328
-0.0428857319057
-0.124779522419
0.256550639868
0.0739625394344
0.179484635592
-0.189546018839
0.244854658842
0.0617388561368
-0.104898095131
0.272997289896
0.205125331879
0.480027556419
0.314352363348
0.183340340853
0.341644078493
0.064820766449
0.216501533985
0.239784032106
0.286265343428
0.164276972413
-0.114402554929
-0.0686037540436
0.120539426804
-0.109566263855
-0.288885146379
-0.03089341335
-0.318295001984
-0.0542890764773
0.152783259749
-0.315876692533
-0.0118523966521
-0.0333315990865
0.0204212013632
0.128881886601
-0.079987488687
0.158897340298
0.288291096687
0.186965927482
-0.0528595410287
0.224864274263
0.134635433555
0.251156210899
-0.301732212305
0.0566047355533
0.244568705559
-0.127653390169
-0.0109540550038
-0.192398965359
-0.272560507059
-0.379996538162
-0.0547938123345
0.221888661385
0.107648275793
0.269203364849
-0.0688107609749
-0.195889100432
0.130038648844
0.278349220753
-0.110677585006
-0.252943903208
-0.0694063007832
-0.0531509667635
-0.36938482523
-0.19368571043
0.00460450025275
-0.312376827002
-0.25863173604
0.0940012037754
-0.257478147745
0.0702882707119
0.0716640427709
0.0953759625554
-0.134196773171
0.185733035207
0.189171999693
0.344594627619
0.436978459358
0.168921023607
0.337331980467
-0.228314548731
-0.128390282393
-0.195470035076
-0.0582119822502
-0.13330180943
0.362660497427
-0.102545984089
-0.0798784047365
-0.206480979919
0.194301873446
0.24799387157
-0.132334753871
0.169219657779
-0.27794650197
0.0142897339538
0.260457247496
0.0843972489238
-0.256347566843
0.119150415063
-0.0132947880775
-0.0773829743266
0.0457966737449
-0.0512684248388
-0.198863938451
-0.200795426965
0.0602019056678
-0.230870828032
0.0877073630691
-0.226079314947
-0.174389466643
