-0.0443762950599
0.053753811866
0.0273540001363
-0.00971367675811
0.0494361110032
-0.00850401353091
0.0423778109252
0.00280569493771
0.0505616553128
-0.00504219578579
-0.0235425066203
-0.00675282394513
0.0298521053046
-0.0677133575082
-0.0585279874504
0.0336389541626
-0.0224860403687
-0.00895646959543
0.0321589186788
0.0116555681452
-0.0154728805646
-0.0596384778619
0.0548155009747
-0.0182035882026
-0.0457772053778
-0.0279865264893
0.0397098213434
-0.0355330221355
0.00356988492422
-0.00565027538687
0.0175499003381
-0.0128858936951
-0.00325594726019
0.0648705810308
0.00471702963114
0.0192778017372
-0.0125295901671
0.00483116600662
0.0114806331694
-0.00601349584758
0.000245067640208
0.0133507689461
-0.0456892587245
-0.0219529699534
-0.064879797399
0.0637787431479
-0.024077789858
-0.0287687592208
-0.0729373469949
-0.00145194528159
-0.0723666772246
-0.00540166627616
-0.00408594124019
-0.0255347751081
-0.0532250218093
0.0356001593173
0.0441526100039
0.0345654040575
-0.00625479640439
-0.0177753567696
0.0501540824771
0.0597559139132
0.0304987709969
0.00513290241361
0.00613139756024
0.0326475761831
-0.0128472037613
0.0110963704064
-0.0816207006574
-0.0485246367753
0.033887822181
0.0259023215622
-0.0408958494663
-0.0925290435553
-0.0467958413064
0.0304273534566
-0.0302902795374
-0.0408397726715
-0.0262122247368
-0.0193297713995
-0.0480986647308
-0.0515150353312
0.0294476803392
-0.0200443994254
-0.0733031630516
0.0778671130538
0.0819248706102
0.0233734901994
0.0399143993855
0.0595780052245
0.0062805484049
-0.0373244658113
0.0195433162153
-0.020982593298
0.0342957153916
0.0637760311365
-0.0674666389823
-0.0218108147383
-0.0787819623947
-0.0854798331857
0.0120271854103
0.0308575090021
-0.019585641101
0.0431448929012
-0.0616514123976
-0.0289129707962
0.036346424371
0.0539858862758
-0.0438882000744
0.0262004435062
-0.00210577598773
0.0306782331318
0.0226896479726
0.00247923727147
-0.0383921191096
-0.0115223610774
-0.0149640413001
-0.0435199923813
-0.00817224662751
-0.0474728383124
0.00187043100595
-0.0377869457006
0.0281054135412
-0.0486556217074
-0.0359345003963
0.0359513275325
-0.0512350015342
-0.0276493672282
-0.0572260841727
-0.0344000421464
0.0485971868038
-0.0168691985309
0.00217509572394
-0.0365439355373
0.0175891537219
0.0319623202085
0.0330984741449
0.0452041812241
0.0301204044372
-0.064052388072
-0.0403095595539
0.0267741922289
-0.0057470225729
0.00730992900208
-0.00545895751566
-0.0224031116813
0.00671428488567
0.0234794020653
-0.0650521740317
-0.0154436100274
-0.00184014311526
-0.00275556789711
-0.0198165904731
-0.0212294366211
-0.0386589877307
-0.00963790249079
-0.00866814609617
-0.0567676387727
0.0447318181396
-0.0339246504009
0.0149214910343
0.0156051367521
0.0298542156816
-0.0214784219861
-0.0549017339945
-0.0385397262871
-0.0399604998529
0.0548128634691
0.0650181993842
0.0463933609426
-0.0218971911818
0.038355179131
-0.0103356903419
0.0323251448572
0.0111324703321
0.0142768369988
-0.0143695836887
0.0401005968451
0.0309259742498
0.0449456423521
-0.0587637200952
-0.0192074272782
-0.00801421701908
0.0318923890591
0.0348320752382
-0.0566148236394
0.0695108920336
0.0649051517248
0.0468070544302
-0.0398407056928
-0.0316220112145
-0.0383116826415
-0.0347891189158
0.0329650565982
0.0157604571432
0.0600914806128
0.0270040109754
-0.0397800132632
0.0412017479539
-0.000267782743322
0.00648416345939
-0.0346082448959
-0.0108011336997
-0.0254145320505
0.00775217683986
0.00135285966098
0.0191991310567
0.0185223277658
0.0346103347838
-0.0544077642262
0.0192976742983
0.0588462464511
0.0453487150371
-0.00647476362064
-0.0380581617355
-0.00776983750984
0.0405206605792
0.0127390474081
0.0305016841739
-0.0823095813394
-0.0331273898482
0.0303775835782
0.00818343833089
0.00778344692662
-0.0323233790696
-0.0693178623915
-0.0382694751024
-0.0367052294314
-0.0478319041431
-0.0607235841453
0.0476651638746
-0.0146961323917
-0.00834998488426
0.0493156090379
0.0284367129207
-0.00461261952296
0.0211231503636
0.0155341885984
-0.0131465950981
-0.0389434508979
-0.0110607258976
-0.0275473371148
0.0215628966689
-0.0543623156846
-0.108235359192
-0.0167266912758
-0.0110887680203
-0.0588679499924
0.0222304929048
0.015506147407
-0.00629231892526
0.000220623682253
-0.0211073569953
-0.0349706821144
-0.0148682054132
-0.0124843008816
-0.0109009323642
-0.0274094473571
0.0293364394456
-0.0280851460993
0.031598482281
0.0370175242424
0.0353911966085
-0.0232271961868
0.0418218001723
0.0332577116787
-0.0465354844928
0.000870617514011
-0.0479384250939
-0.0478803552687
-0.00829711649567
-0.0321335792542
-0.0359829999506
6.9938832894e-05
-0.00906653143466
0.00459348689765
0.00913233496249
-0.0475516244769
-0.0789964795113
-0.0686745196581
-0.000692305678967
0.00360144418664
0.0209304820746
0.0195475574583
-0.0102705862373
-0.0319759882987
-0.0269955769181
0.0183787774295
0.0646456778049
-0.0133261131123
0.0175968445837
-0.0527032352984
-0.0223762206733
-0.0324993543327
-0.0846507549286
0.00687389587983
-0.00454053003341
-0.0075042610988
0.0638041496277
-0.000149996601976
0.0214330498129
0.0407566614449
0.0360841937363
0.023635065183
-0.0180086307228
-0.00111024454236
-0.0506868027151
-0.060463193804
0.0128584494814
0.0121728451923
-0.0410216152668
-0.0455499775708
0.0173670928925
-0.0162169523537
0.0334275253117
-0.00334562268108
0.0708694681525
-0.00952175911516
0.0541165582836
0.0389254689217
0.0396176464856
0.0176415853202
-0.0503683313727
0.00936245638877
0.0173423122615
-0.0719054788351
-0.0110064856708
0.0401571728289
-0.0443387329578
-0.0325524397194
-0.0336291231215
0.0583943277597
0.0119099812582
-0.0575705729425
-0.0284890327603
-0.0322776772082
-0.0153259942308
0.0534183867276
-0.0293513666838
-0.027326375246
-0.0312014389783
-0.000444766425062
0.0415529869497
-0.0622933581471
0.00737614929676
-0.0345004424453
0.0289677809924
0.00315075134858
0.000853391247801
0.0136909680441
-0.0410133562982
-0.0214149970561
-0.0456246510148
0.00743598164991
-0.0275435913354
-0.0277385115623
0.0435328744352
0.0133301382884
0.00910126138479
-0.00579882506281
0.0343092083931
-0.0078387465328
0.0346635058522
0.0516007766128
0.0281332861632
-0.0526058860123
0.0216384381056
-0.0378842353821
0.0164092369378
-0.0514323115349
0.0336566381156
0.0194539166987
0.0187741853297
-0.0134395798668
-0.0224338658154
-0.0341957286
0.0412598624825
-0.00943964440376
-0.0332769006491
0.0110013103113
-0.0111060794443
-0.0439869277179
0.00680892728269
0.020220791921
0.0458818674088
0.0548808388412
0.0175465960056
-0.0520229674876
0.0352105014026
0.0524633266032
-0.0458099283278
-0.0344185903668
0.0128654111177
-0.0477643720806
-0.0399887189269
-0.0516179315746
-0.0451138801873
-0.0630799457431
0.0224157255143
-0.053906109184
0.000196892826352
-0.0683550536633
-0.0575462430716
-0.010654527694
0.00596265261993
-0.0592606961727
-0.0529232695699
-0.0247373003513
0.00244498671964
0.0467639788985
-0.0364521406591
-0.0369568504393
0.00605925032869
-0.0515079088509
0.00821983627975
-0.0310008805245
0.0785555616021
0.00496113253757
-0.0290202591568
-0.0277969390154
-0.0296471212059
0.0437944829464
0.00192296435125
-0.0421518236399
-0.0490089803934
-0.00604839529842
0.0353918150067
0.00600584503263
-0.0506008118391
-0.0458743348718
-0.0235001407564
-0.0559621118009
-0.0304403416812
0.0247939825058
0.000369412446162
0.0164289735258
0.0135688697919
0.00196478841826
0.0459248274565
-0.0644089877605
-0.0108831496909
0.0125549994409
0.00987358856946
0.0114810392261
-0.0336569175124
0.0523521117866
-0.0552494935691
-0.0270554106683
0.0268353335559
-0.0132196955383
-0.0126347756013
-0.0270952079445
0.015038899146
0.0113776084036
-0.0343914702535
0.0130085665733
-0.0176837816834
0.0218817293644
-0.00565730594099
0.0242602452636
0.030317761004
0.0590386837721
0.0462515354156
0.0548826381564
-0.00442636944354
0.0010558970971
-0.0622645206749
-0.0283989664167
0.0188411809504
0.0272837504745
0.0363167487085
0.00463957153261
-0.0141203794628
0.00471488572657
-0.0377334132791
-0.0091211553663
0.042660728097
-0.0526688434184
-0.0578734762967
-0.0176927223802
-0.0233671106398
-0.0491950213909
-0.0462083667517
-0.00368706509471
0.0125792482868
-0.0532012283802
0.0448651835322
-0.00852068327367
0.0204814169556
-0.0117402831092
0.0303299445659
0.0225121565163
0.0213410947472
-0.0337484925985
0.0573874525726
-0.0372120551765
0.0254591684788
-0.0052780425176
-0.0482443161309
0.0157494340092
0.0271934103221
-0.0333269611001
-0.0593493394554
-0.0762777402997
0.0235435776412
0.0483157075942
-0.0405234470963
-0.0425384156406
-0.0092757595703
-0.0507987327874
0.0410768128932
-0.00453689834103
-0.00134788255673
0.0157273840159
-0.0767490789294
0.0178385470062
0.0168517939746
-0.0296051520854
0.0341257713735
-0.0397946350276
-0.0361224487424
-0.0217579137534
-0.0215108990669
0.0385671854019
-0.00179025426041
0.00673853233457
-0.00502091133967
0.00414649071172
0.0273061301559
-0.015009787865
0.0229474846274
0.0233795084059
0.0563825815916
0.00301123270765
-0.0145916845649
-0.00778571423143
0.0279691088945
-0.00586332287639
-0.0126191144809
-0.00744490232319
0.052768997848
0.0512276887894
-0.0339302048087
-0.0877529233694
-0.00377853936516
-0.0117315361276
0.024697072804
-0.0374496206641
-0.0449578538537
-0.0207642763853
0.0087615204975
0.022547878325
0.0496095083654
0.00412803236395
0.0243125651032
0.0536933913827
0.038612447679
-0.0591877512634
0.0021305817645
-0.00434804661199
0.0464792735875
-0.0713817030191
-0.030397804454
-0.0241548083723
-0.00265778321773
-0.0339181534946
-0.0819576755166
-0.0633018612862
0.012070665136
-0.0455693379045
-0.0284468531609
-0.071079172194
-0.0576114952564
-0.0983642339706
-0.0896421819925
0.0327920801938
0.0408350341022
0.0778841227293
0.0186042096466
-0.0411652773619
-0.0392848849297
-0.00511150015518
0.00491514336318
0.0374162532389
0.0570040456951
0.039860252291
0.0357249341905
0.0194284170866
0.0050602145493
0.0848680958152
0.0196912363172
-0.0951224789023
-0.0695933178067
-0.0723451673985
-0.00354807008989
-0.0248422790319
-0.0257326420397
-0.0407510250807
-0.0668720453978
-0.0537143498659
0.0443844720721
0.0403830707073
0.0328656472266
-0.034128267318
-0.0194797944278
0.0327049978077
-0.0440620407462
-0.0452245809138
-0.0410577617586
0.0106829330325
-0.038667589426
-0.0519061088562
-0.0173322148621
-0.0661386474967
-0.0341958776116
-0.0373429842293
0.0224126875401
-0.0620810799301
-0.0500036664307
-0.0428608506918
-0.057592432946
-0.0129912765697
-0.0344956219196
-0.0498497821391
0.0198430884629
0.0422702208161
0.0412088222802
-0.00251880590804
0.0239090193063
-0.00494728190824
0.000286704715108
-6.47167253192e-05
0.0751821100712
0.0257494077086
-0.0115902153775
-0.0601056702435
-0.0185947865248
-0.0373681113124
0.0442563928664
0.0625480338931
-0.0468624532223
-0.0475219525397
-0.0283863563091
0.0012644570088
0.0541814751923
0.0080768018961
0.0550777167082
-0.0160455927253
-0.0640340223908
-0.0326282307506
-0.0318623408675
0.0129663376138
-0.0636933147907
0.0485537871718
-0.0405155494809
0.0126228351146
-0.0154970921576
-0.0317156277597
0.0241420529783
0.00587242934853
-0.0152798779309
-0.030328437686
-0.0491375513375
0.0398584641516
0.0438385903835
0.013075793162
-0.000410816748627
-0.00891776289791
-0.0618881992996
0.0512034632266
0.0167026463896
0.00902397185564
0.0156713426113
0.0363875478506
-0.000315511686495
0.0126414811239
-0.0174049865454
-0.004678202793
0.00529814232141
-0.0302176810801
-0.0484888255596
0.0236339922994
0.0332115218043
0.00137766823173
-0.0350277982652
-0.0168536864221
0.0245505012572
0.0177063215524
-0.0362766049802
0.00124963186681
-0.0413598120213
0.0396932028234
0.026499023661
0.0620834380388
0.0423055998981
0.00208585732616
0.0105605181307
0.0016533479793
-0.0374740883708
0.0269016437232
0.0261640008539
0.00884706992656
0.0429878756404
0.0343638956547
0.0202619768679
-0.0376837775111
-0.0289768986404
0.0480447113514
0.0806134343147
0.00769091257825
-0.0723525136709
-0.0177516136318
-0.0288950540125
0.0304464641958
0.045662175864
0.0219531934708
0.0123520037159
-0.0314638800919
-0.0788886547089
-0.0595990009606
-0.0334845297039
0.0479013696313
-0.0199828073382
-0.010455080308
-0.0807052478194
-0.0412295013666
0.0349796526134
0.0290079526603
0.0512382425368
-0.0231312494725
0.00937225483358
0.00922906957567
0.018541065976
-0.00835825223476
0.0754685550928
0.0257554333657
-0.0107684964314
-0.0715093389153
-0.030166843906
0.0472330339253
0.0294172093272
-0.0525556020439
-0.0198575574905
-0.0536403879523
0.0162375420332
-0.0362453572452
-0.0423193238676
-0.029942125082
-0.0433227159083
-0.0519541241229
0.0024675487075
0.00471327221021
0.0155305024236
0.0233136173338
-0.0487278103828
0.0179935581982
0.0492787174881
0.0267170704901
-0.0229504946619
-0.0329357609153
-0.0269477143884
-0.0401416644454
-0.0141205461696
-0.010402681306
0.00825721770525
-0.0525779314339
-0.00352267315611
0.00856191571802
0.0213225279003
0.0078526828438
-0.00186722062062
0.0301076602191
0.00468531576917
-0.0611766465008
-0.0046131121926
-0.0458666197956
-0.0504186674953
0.00806933362037
0.0212995987386
-0.0312579125166
0.0100008705631
-0.022054804489
-0.0111958850175
-0.0182625241578
0.0116932848468
0.00162627501413
-0.00271410238929
-0.0270232446492
-0.00461316620931
0.014551050961
-0.055224455893
-0.00711210863665
0.0352238900959
0.0147442352027
-0.0202155597508
0.0277167856693
0.00913736410439
-0.00626834202558
0.0276258196682
-0.00228370516561
-0.0135685717687
0.0113175129518
0.0331182777882
-0.0463694632053
-0.0398406237364
0.0181839056313
0.022452140227
-0.0219105035067
-0.0515916645527
0.0283844955266
-0.0209011621773
0.0427967347205
0.0597988478839
-0.00530724506825
-0.0204726587981
0.0369693227112
0.0407229103148
-0.0196062643081
0.0232574231923
-0.0031162998639
0.0448234044015
-0.036462970078
-0.00700836069882
0.0448786281049
0.0465977862477
0.0554518997669
-0.0201368387789
0.027654228732
-0.0175447463989
0.00271483906545
0.0122022833675
0.0354174375534
-0.047720067203
0.0478526949883
0.02645351924
-0.0564029030502
-0.00496633769944
-0.032450158149
0.0355044007301
0.0321729034185
-0.0483755879104
0.0148344030604
-0.0337834097445
-0.0438201166689
0.029677959159
-0.0569672249258
-0.061968434602
-0.0255933888257
-0.00730136455968
-0.0365788675845
-0.0168000329286
0.034404989332
-0.0204438716173
-0.00108091405127
-0.06935428828
-0.030878758058
-0.0229352489114
0.00448671681806
-0.0495359934866
0.0166869927198
0.00105406262446
0.0148732978851
0.0211024843156
0.0497794374824
0.0171267688274
-0.00842685066164
-0.00191011768766
-0.00986175145954
0.0165594983846
-0.0194056257606
-0.0335093773901
-0.0319710299373
-0.0465291589499
-0.0707573741674
0.0314193628728
0.0247512944043
0.0661974847317
-0.0275918971747
-0.0373491980135
-0.0170264840126
-0.0105539122596
0.0550691969693
-0.0560643151402
-0.0105697531253
0.0532214790583
-0.0522088371217
-0.015730233863
-0.0406202077866
0.0389952920377
-0.0495815947652
0.0269132759422
0.0220739785582
-0.0120785972103
-0.0614136978984
-0.0386301875114
-0.0405709482729
-0.00949313584715
-0.0144498478621
-0.0758805945516
-0.0557283014059
-0.0303311385214
0.0222537424415
-0.0249031949788
-0.00536997755989
-0.079867221415
-0.0376207381487
0.000822293804958
0.0103242248297
0.0856265947223
0.0417621321976
0.0216895975173
0.0145310936496
0.0178923774511
0.0891339927912
0.0233943909407
-0.029151270166
-0.0649771466851
-0.0115021280944
-0.0346632301807
0.051479190588
-0.00345106166787
0.0290716122836
-0.0503227673471
-0.0281500034034
0.0273751895875
-0.0203790031374
-0.0496134757996
-0.0373120196164
0.0439992807806
-0.025150867179
-0.0152884293348
-0.0748273730278
0.00421824632213
0.0596335567534
-0.0367936454713
0.00340178376064
0.0163383539766
-0.00180155900307
0.0347287729383
0.0472027659416
0.0274810865521
0.0406772755086
-0.0354389958084
-0.0251420401037
0.00235361047089
-0.0151715874672
-0.0457999370992
-0.0596971213818
0.00723412493244
-0.0347461476922
0.0301555842161
-0.0545316487551
0.0142801152542
-0.00836959481239
-0.0294826272875
-0.0283603351563
-0.00564069999382
0.0436988249421
-0.0401677824557
-0.0111484779045
-0.0411904975772
0.0203036628664
-0.0409346632659
-0.0533109158278
0.0132822245359
0.0062874481082
-0.01577620022
0.0344110988081
-0.0566959381104
-0.00418213102967
-0.0236881095916
0.0283084008843
-0.0191199015826
0.00704428367317
-0.06711024791
-0.00352229177952
-0.0414997674525
-0.0543758831918
-0.0370707958937
-0.00426717661321
0.00625405786559
0.047021701932
-0.00682249478996
-0.039031624794
0.0185308381915
0.0258894767612
-0.0380354709923
-0.0172132104635
0.0297063104808
0.0369411185384
0.00569569412619
-0.0188298039138
-0.00144379283302
0.0139424251392
0.0361171364784
-0.0359796211123
0.00160523492377
0.0316516831517
0.0262624081224
-0.0420447252691
-0.0527676977217
0.00129847426433
-0.0197798591107
0.049564242363
0.0564437545836
0.00348191009834
0.0239189751446
0.0331281833351
-0.0262043643743
0.024877069518
0.0439511612058
-0.0306662451476
0.00366943050176
0.0063472292386
0.0149586638436
-0.0506730340421
-0.00879038218409
-0.0338199771941
-0.0187504868954
-0.0317795537412
-0.0452298671007
-0.0234850626439
-0.017294915393
-0.00128174759448
0.0207644887269
-0.0146564878523
0.0383148752153
-0.023027498275
-0.0528876744211
-0.041330780834
0.00657754577696
0.0454135686159
-0.00946532189846
-0.00928111001849
-0.0489924773574
0.0351355299354
-0.00751887960359
0.0267623662949
-0.0869865715504
-0.0074154320173
0.00829579029232
0.0529213920236
-0.0410421788692
0.0244483537972
-0.0163631420583
0.0220390446484
0.0403477065265
-0.013312920928
-0.0396281294525
0.0389420837164
-0.0313366018236
-0.0180825665593
0.0562360472977
0.0517871640623
-0.0833938643336
-0.0330208577216
-0.005515483208
-0.0558558106422
-0.0460836440325
0.00914892554283
-0.00387310399674
-0.0544738173485
0.0184466857463
0.0153894405812
0.0875107124448
0.00706508057192
-0.059810757637
0.00686542550102
0.00186399556696
0.0709944665432
-0.0118130119517
-0.0529957897961
-0.0290407743305
0.0350535102189
-0.0217097066343
0.0393627472222
-0.00162709387951
0.0804664492607
0.0546169728041
-0.0147349853069
0.066414527595
-0.0329339504242
-0.0431938432157
-0.0381465665996
-0.0527644529939
-0.0297969765961
-0.0100928442553
-0.034360576421
-0.0673582330346
-0.00556510593742
-0.0306300260127
-0.057776723057
-0.0437084026635
0.0293494220823
0.0646177977324
0.0482534728944
0.028303578496
0.0158482249826
0.0532397888601
0.00902585685253
0.0383256562054
0.0444889962673
0.0161789972335
-0.0411410443485
-0.0492739975452
-0.0295363888144
0.0511884205043
0.0328649170697
-0.0272840876132
-0.0613007843494
0.03376660496
0.0262048877776
-0.0551003701985
-0.0144010884687
0.0258444268256
-0.0120590254664
-0.0578078664839
-0.034852411598
0.00459325360134
-0.0219161640853
-0.0186510216445
-0.0126880351454
-0.0435765683651
0.0449995286763
0.0350343063474
0.0627197027206
0.0271414220333
0.0390994623303
0.0198552478105
-0.00290514132939
-0.0165369268507
0.0131939752027
-0.0334512293339
0.00100517692044
0.0210070237517
0.0266498699784
0.0411874353886
-0.0102182654664
0.0260529704392
-0.0378631837666
0.0393936187029
0.0134042380378
-0.0161488484591
-0.0128578934819
-0.0214258078486
-0.0163019057363
0.054666403681
-0.0272865332663
-0.0378521308303
-0.0243972502649
-0.0526351109147
-0.0205809529871
-0.0192951150239
-0.0220212992281
0.0516084358096
-0.0133115015924
-0.0323383957148
-0.0440144240856
0.0418001674116
-0.0100566316396
-0.0184721071273
-0.0414337180555
-0.0336131304502
-0.0632114931941
-0.0599812529981
-0.0126509172842
-0.0338160246611
0.00467935018241
0.0212028678507
-0.00787465460598
0.0482629425824
0.0421262308955
-0.045724067837
0.0124526880682
-0.0246560890228
-0.0202199276537
-0.0137807354331
0.0390647575259
0.0101885823533
0.0141462367028
-0.00197898293845
0.0213040336967
0.057132743299
-0.055085580796
0.0337032824755
-0.0280949715525
-0.00768183264881
-0.0236759763211
-0.0343438349664
-0.0289470721036
-0.0587953664362
-0.00996444933116
-0.0268334429711
0.00454483693466
-0.0372490957379
-0.0356761328876
0.0159055106342
0.0189251992851
-0.0428040996194
-0.0223790444434
0.0434578433633
0.0155287766829
-0.00178974855226
-0.0274828355759
-0.0625874921679
0.0321788154542
-0.0504920147359
-0.0236421171576
-0.0182690955698
0.0508846603334
0.0334269888699
0.0101887816563
0.0150718912482
-0.0133955841884
-0.0128580331802
0.0025150324218
0.012014948763
0.0139521993697
0.00722786458209
-0.00616442319006
0.0559478849173
0.0300547890365
-0.0213544089347
0.0124794961885
-0.0422060601413
0.0141477836296
0.000545979826711
-0.0128705101088
-0.0687087103724
-0.0394830293953
0.0483696796
-0.0408262200654
-0.0852862969041
0.0178506784141
-0.0305206291378
-0.0329092778265
-0.000265213049715
-0.0736354663968
-0.0372635908425
0.0747580081224
0.0543548092246
0.0105140842497
-0.0195223744959
-0.0245259702206
0.0684826150537
0.00150722218677
0.0500984862447
0.0153731843457
-0.0163639951497
-0.0306564606726
-0.0448727831244
0.028519211337
0.0279549937695
0.0427080020308
-0.051694046706
-0.0355497673154
-0.0267805438489
-0.0406557396054
0.0111385881901
-0.00219707400538
-0.0379983857274
0.00829360168427
0.0462285876274
0.0257730092853
-0.0551109202206
-0.0168148204684
0.0617937482893
-0.00427516177297
-0.031349863857
-0.00998542830348
-0.000531403638888
0.0120401605964
0.0253648087382
0.0463102981448
-0.0467444807291
0.0650357231498
0.0691558122635
-0.00674208672717
-0.0851441994309
-0.0165550578386
-0.00233776541427
0.0175036098808
-0.00581629062071
0.0469720996916
0.0638971626759
0.0401786155999
0.0537344068289
0.0547690428793
-0.00418272987008
0.0869797468185
-0.0255143288523
-0.00126952282153
0.0373716726899
0.0302277188748
-0.0252966266125
-0.0651807934046
-0.0346268266439
-0.011288035661
0.0346790887415
-0.0513290502131
0.0102655142546
-0.0132876262069
0.00626568356529
0.0416820906103
0.0896546840668
0.0214723739773
0.0723288729787
-0.00478920340538
-0.02378086932
0.0020401889924
0.00520908925682
0.0278105605394
0.00702203065157
0.0299337208271
-0.00669622235
-0.00354396901093
0.0348089449108
-0.0033490457572
-0.0272731948644
0.026265097782
-0.0197589173913
0.0343485996127
0.0164300184697
0.0131645379588
0.0275850109756
0.00827293563634
-0.0366583913565
0.0158753264695
0.0260622724891
0.0290536917746
-0.00269938213751
-0.0721845254302
-0.00180995487608
0.0181505847722
0.0583121180534
-0.0224708300084
0.0276029407978
0.0069576879032
0.0823057964444
0.0766719952226
-0.014733129181
0.0393303744495
-0.0159350987524
0.0568915754557
0.0454069040716
0.00704766670242
0.00763395614922
0.0177115574479
-0.0220547094941
-0.0391235500574
-0.0433460697532
0.0301153007895
-0.00594873772934
-0.0197687894106
0.0224876906723
-0.0345077253878
0.0519342049956
0.000598227081355
-0.0319119952619
0.03798090294
0.0327836237848
0.0182963442057
-0.0477563142776
0.0498504191637
-0.00632550148293
-0.0165517944843
0.00442698923871
-0.032562661916
0.00291419704445
-0.0371277555823
-0.044652543962
-0.0261644646525
-0.0623680092394
-0.0154075380415
0.0505350008607
0.047433655709
-0.0103145604953
0.0150694362819
-0.0256902463734
-0.0144433993846
0.000192011430045
0.0146471979097
-0.0370566621423
-0.0652109161019
-0.03336956352
-0.00413774512708
-0.0285780187696
-0.0172615032643
0.0363490954041
0.0499780364335
0.0387050397694
0.0470093563199
0.0385180339217
-0.0126672806218
-0.0464924685657
-0.0128278667107
-0.0297629963607
0.0521371513605
0.0540972240269
0.0202173367143
-0.0305737536401
-0.00887100677937
0.0301538929343
0.00540984841064
0.0247189104557
-0.0408307537436
0.0232470761985
0.0174370352179
0.0568694137037
0.0312801524997
0.000342984829331
-0.0172063596547
-0.0678409412503
-0.0691821426153
-0.0142505951226
-0.0355832092464
-0.0474391058087
-0.0040609552525
-0.0558460056782
-0.0468032136559
0.0735945701599
-0.0217163097113
0.0230388902128
0.0406629145145
-0.00214437674731
-0.0321869254112
0.0337703414261
0.0467331148684
-0.0363040156662
-0.00470737973228
0.0242741350085
0.0481964834034
-0.00622408697382
0.00394256785512
-0.0290593728423
0.0324085988104
0.034893989563
-0.04513361305
-0.00463729724288
-0.029158461839
0.0024014224764
-0.0371113717556
0.0193056482822
-0.014919411391
-0.00214839167893
-0.0433130301535
0.0188036095351
-0.0205429345369
0.0183393731713
0.062722325325
-0.0178231690079
-0.0354770235717
0.0182626359165
-0.0229464545846
-0.031320951879
0.0337768904865
0.016756195575
-0.0408334247768
0.0326122008264
0.0394544154406
0.00126892887056
0.0579100437462
-0.00770448008552
0.0628766193986
0.0456555522978
-0.000598520273343
-0.0149847138673
0.0542455203831
-0.0281650014222
-0.0413414165378
-0.0223166234791
0.0575423762202
-0.01148479525
-0.0264954715967
0.0417494699359
-0.0501350685954
0.0133259566501
0.0185700003058
-0.0069532673806
-0.0125810112804
0.026113608852
-0.0383892506361
-0.00677863508463
0.0319099836051
-0.0489598698914
0.0242416001856
0.0568747781217
-0.0242536887527
0.00631608488038
-0.0257609002292
-0.0058703487739
0.03039531596
0.0159336794168
-0.0300778709352
0.00899166055024
-0.0575942881405
0.0481226108968
-0.0159460809082
-0.00455942004919
0.00932842306793
0.00761145306751
0.0459798388183
0.0233543924987
-0.0477122589946
-0.0368546359241
-0.0065648634918
0.012182536535
0.0261558480561
-0.0194049086422
-0.0520682707429
-0.0189453996718
-0.0174625813961
0.085675612092
0.0882723554969
0.0765766650438
0.000459200324258
0.0128992255777
0.0430754087865
-0.0444458387792
0.010751305148
-0.0177399795502
0.0661982819438
0.0592274777591
0.0012265550904
-0.0379574075341
0.0606961995363
0.00870007742196
0.0501349568367
0.0541196726263
0.0144420228899
0.0300365872681
0.0072662346065
-0.00745781324804
-0.0281449966133
-0.00711867352948
0.0180297736079
-0.0142427496612
-0.0509886778891
-0.0125875798985
-0.113165289164
-0.00879263784736
-0.0549763329327
-0.0405702665448
0.0208086315542
-0.0434760451317
-0.0176572222263
-0.0987174361944
-0.0297656878829
0.0232974737883
-0.00183900038246
-0.0433926098049
0.0693188235164
0.0166696663946
0.0394659116864
0.0797160491347
-0.0501988604665
0.0144576672465
-9.15456621442e-05
-0.0183754786849
-0.0439322032034
-0.0375186316669
-0.097982801497
-0.0517472177744
-0.099805675447
-0.102236479521
-0.0676509216428
-0.0523855574429
-0.0429573021829
-0.0705200731754
-0.0161774475127
0.0131923304871
0.0505273453891
-0.0100701963529
0.0508256144822
-0.0360481105745
-0.000968830252532
0.0574946701527
0.0126536441967
0.0468048490584
0.129747360945
0.00148640887346
0.0517032705247
0.0783781185746
0.0687116160989
0.0332686938345
0.0199939310551
0.0094027929008
-0.103221811354
-0.118111610413
-0.11324878037
-0.0257688369602
-0.0477933995426
0.0156412161887
0.0310340877622
-0.07736133039
-0.0232125986367
-0.000481271563331
-0.0367072336376
0.0121250171214
0.0264509543777
0.0418389104307
0.00376979308203
-0.036636672914
-0.0164543502033
0.0446316897869
0.0013845236972
0.0516370199621
0.00416195997968
-0.0386022552848
-0.015225478448
0.0077251624316
-0.00926870945841
0.00806102063507
-0.023498300463
-0.0061894566752
-0.00528696412221
0.00879632402211
-0.0114581882954
-0.0481795705855
-0.0400783978403
-0.0118464883417
0.0142882745713
0.00839980132878
0.0503689087927
-0.0546027906239
0.00954518280923
-0.0426394119859
0.0576857626438
0.0453765504062
0.0390470214188
-0.0169843938202
-0.00134098052513
-0.00531974248588
-0.0174728240818
-0.00217566476204
-0.00114081043284
-0.0233829412609
-0.0428026206791
-0.0840199068189
-0.0890229120851
-0.0272849872708
0.0148913022131
-0.00511490460485
-0.0232038274407
-0.0686789900064
-0.0293521508574
-0.0670014843345
-0.0646650642157
-0.0172710511833
0.0191411431879
-0.00271897320636
0.0236313957721
-0.0346744954586
-0.0311724506319
0.00847126822919
0.0415246412158
-0.0194572601467
0.00122416997328
-0.00613370817155
-0.0160050652921
-0.0386346057057
-0.0364759936929
0.0328696593642
-0.00927848741412
0.00355776376091
-0.0154118519276
0.0327684544027
-0.0564590655267
-0.0353420302272
0.00763733917847
-0.0632084682584
0.0403067357838
0.0398303084075
0.0482696332037
0.0291007105261
-0.0217206515372
0.0465334244072
0.010841502808
-0.0211046114564
0.0249545797706
-0.0484493263066
0.00928286742419
0.0158632267267
0.0801184922457
0.0548994913697
0.000910806062166
0.042680170387
0.0203129611909
-0.000682211189996
0.00673322938383
-0.0478379763663
-0.0380377396941
-0.0238074399531
-0.05575985834
0.00446366285905
0.0306366309524
0.0322705172002
-0.0201240703464
-0.0276473239064
-0.0429616123438
0.042972125113
0.0350063443184
0.0689379349351
0.00802513770759
0.074046894908
-0.023529112339
-0.0150629803538
-0.00180110975634
-0.0206444691867
0.0558142997324
0.0204687360674
0.0278223250061
0.0128253744915
-0.067653387785
-0.0768187940121
0.0157253164798
0.0497094430029
0.0804141238332
0.0898162126541
-0.0180480889976
-0.0038763647899
-0.0392235964537
0.0137617168948
0.0364272035658
0.0201401412487
0.0209483802319
-0.0340741425753
0.0941806137562
0.0953100398183
0.0708940327168
0.0276692416519
0.0130414431915
-0.0426319427788
-0.0402738749981
-0.0380492024124
-0.074949927628
-0.0603489391506
-0.0529730767012
-0.0909555703402
-0.118872821331
-0.0188290923834
-0.0712343081832
-0.0442458726466
0.0253888014704
-0.0202759522945
0.0169944446534
0.0370640270412
-0.0383091792464
0.00926541537046
0.022010486573
0.0164199788123
0.0605631321669
0.0609705708921
0.042104139924
0.0389304831624
0.0169115085155
-0.0401775501668
0.00628982204944
0.0477833375335
0.0159077942371
0.0452762171626
0.0417260304093
-0.0486651286483
-0.0546445921063
-0.029516428709
-0.0507721975446
-0.0270688552409
0.007438628003
-0.0348014123738
0.0312629081309
0.0179294329137
-0.02591878362
0.00425285845995
0.014569898136
0.0465707704425
0.0199973154813
0.00525369122624
0.038745418191
0.0810140445828
0.0159556809813
-0.0510751195252
-0.00952381268144
-0.0795188844204
-0.0640312284231
-0.098306722939
0.00317265512422
0.0230923853815
0.115343265235
0.0699728503823
0.0672929063439
-0.0305147636682
0.103048466146
0.0330490320921
0.00450115185231
0.047838062048
0.0530591830611
0.0745663419366
0.0603292584419
0.0538246370852
-0.0578432641923
-0.0424535274506
-0.0490377992392
-0.0491384156048
0.0100326519459
-0.0141893606633
0.0192822460085
0.0380314365029
0.0620027109981
0.0925544500351
0.069517582655
-0.0271043591201
0.013152548112
-0.014480650425
0.0370749533176
0.051348272711
0.0551206320524
0.0460531711578
0.0366411171854
-0.0531446151435
-0.0446005389094
-0.0466818735003
0.00953368097544
0.00922281108797
-0.0389393083751
-0.0098297027871
0.00597921479493
0.0634222999215
-0.0435145385563
0.0533594191074
0.0773467347026
0.0118846334517
-0.0700645893812
0.0193917863071
-0.0044051525183
0.00348058156669
0.0177639015019
0.0238314010203
-0.0414112880826
-0.0409250892699
-0.0373513698578
0.045048315078
0.041210282594
0.0544227547944
0.0487272031605
-0.0232162773609
0.023076498881
-0.00690811313689
0.0399558879435
-0.0168778821826
-0.0288440641016
0.0173908099532
-0.0429270081222
0.033276475966
0.00670012459159
-0.0277125891298
0.0315055698156
-0.0604051761329
0.045258231461
-0.0332230553031
0.0736562684178
-0.00395745690912
-0.0266370140016
-0.0659551098943
-0.0693253576756
0.0482041276991
0.00078063015826
-0.0240031871945
-0.0325038023293
-0.00510707078502
-0.0406322479248
-0.00189136981498
-0.00297238607891
0.0447866655886
-0.0271841194481
-0.0377459451556
0.0304209329188
0.0210811160505
-0.00731036020443
0.0713236033916
-0.0157516226172
-0.0466982387006
-0.0522211901844
0.0333083719015
-0.0164308138192
-0.0451397970319
0.0477215945721
0.00934687722474
-0.0713688060641
-0.0529118105769
-0.0114792296663
0.0283519327641
0.0118858097121
-0.0132933799177
0.0022320325952
-0.0575264468789
0.000198621550226
-0.0406787805259
-0.0298923123628
-0.0174506846815
0.0546552315354
0.0348870493472
0.031886164099
-0.0178598482162
0.0558674000204
0.0552048608661
0.0180657189339
0.0447037220001
-0.0229988731444
0.0890312120318
0.0836740657687
0.0389906428754
-0.0535380914807
-0.0327800996602
-0.0317506082356
0.0135017028078
0.00880862399936
-0.0276902019978
-0.00204760581255
-0.061274074018
-0.131526321173
-0.0219254568219
0.0145460627973
0.055550634861
0.0127641996369
-0.0324226766825
-0.00920845102519
-0.0445189289749
-0.00443380279467
-0.0095639359206
0.0524435043335
0.0523165129125
-0.0342128947377
0.00471525685862
0.0398970171809
0.0546467788517
-0.0294941607863
-0.00350195239298
0.0645357519388
-0.0120665933937
0.0228638313711
0.0260232128203
0.0306416302919
-0.0272293463349
-0.00539540685713
-0.0110938996077
0.0391538888216
0.0352916643023
-0.0519914478064
-0.0267553590238
-0.070721745491
-0.0298364162445
0.0645471066236
0.0554592236876
0.077977232635
0.0716674700379
0.0016020963667
-0.0331779420376
0.0311498306692
0.0557421594858
-0.00659863324836
-0.0395360849798
0.0590774081647
0.0185030475259
-0.0468421317637
0.00919949822128
0.000126708036987
0.0691494122148
0.0314562693238
0.0167741905898
0.000437323091319
0.0507217757404
0.0469927191734
0.0375365465879
-0.00633943360299
0.0355251356959
0.045956466347
-0.0360143259168
0.0379264168441
0.0287732593715
-0.0462935566902
-0.0377092473209
0.0121189365163
0.0302833747119
0.0255489591509
-0.0384178236127
2.24268897e-05
-0.0131697934121
0.0107276653871
0.00697039766237
-0.0141018573195
-0.0298201851547
-0.0398117676377
-0.056470695883
-0.0745182409883
-0.0352943502367
0.0183613263071
-0.0483512319624
-0.0534279383719
-0.066574037075
-0.0337396673858
0.0234834253788
-0.0436090230942
-0.0352310352027
0.0470076911151
-0.0166991427541
-0.0324134863913
-0.0185446552932
-0.0157104954123
-0.0491513572633
0.0326775424182
-0.0288503859192
0.00889445189387
-0.0461972244084
-0.00781476125121
0.0911476388574
-0.0227017235011
0.0186510756612
0.018094887957
0.00996835716069
0.0807244852185
0.0475945100188
0.0108559271321
-0.0500748492777
0.0316665656865
0.0300151593983
0.0163135826588
0.025299526751
-0.0206711608917
-0.040058221668
-0.0920481383801
0.0546723715961
-0.0388095639646
-0.00253307796083
-0.02482772246
-0.0835996419191
0.0271822623909
0.00342709966935
0.0646153539419
0.0471772886813
-0.0552399903536
0.0161607209593
0.029131565243
0.104178912938
0.0140147060156
-0.0241655763239
0.0189047735184
-0.0150185720995
-0.00939446408302
0.0381449684501
-0.0193014908582
0.000753520464059
-0.0035453136079
-0.0986180752516
-0.0607384219766
0.0639881640673
-0.00760354613885
0.00442866701633
-0.0628608763218
-0.0140519822016
0.0192235931754
-0.0419059433043
0.0624908618629
-0.059096198529
-0.00915970746428
0.124183692038
0.0203144047409
0.0550121515989
-0.0562438853085
0.0618131048977
0.0953107252717
0.0318716242909
-0.0285894889385
-0.00789735838771
0.00459336489439
0.0346395932138
-0.0334145464003
0.0635634511709
-0.0168991554528
-0.132480114698
0.0392264872789
-0.0267898626626
0.0776042565703
-0.0381092280149
-0.069492906332
-0.0183534156531
-0.0443282499909
0.0596571676433
-0.0274029523134
-0.0991473868489
0.0318971909583
0.0162639897317
0.0424339026213
0.0335985869169
0.0295733902603
0.0484605394304
0.0620793960989
0.0779072120786
0.0564006827772
0.0966726616025
0.0892839878798
0.000462133204564
0.0448145456612
0.0305982138962
-0.0528631880879
0.0368498973548
0.0111012374982
0.0527940131724
-0.00869009085
-0.0765060558915
0.0763182714581
0.00178764888551
0.0242062229663
0.0374439433217
-0.0161143243313
0.00127770053223
-0.0210742428899
0.0170448385179
-0.022265445441
-0.0010086921975
0.0243021994829
-0.00874093640596
0.0309986807406
-0.012328337878
0.00652254186571
-0.0249040257186
-0.0456043593585
-0.012241457589
-0.0440365374088
-0.0490181855857
0.0192643590271
0.0458942912519
0.0688777863979
0.0574095286429
-0.00501662027091
-0.0544306337833
0.00853465031832
0.0114470021799
0.0672833696008
0.0204838756472
0.0397050045431
0.0521314032376
-0.0105691831559
0.00682480679825
-0.0200726669282
-0.0444414317608
0.0305852685124
0.00220040534623
0.0207323543727
-0.0142873860896
-0.0156921371818
0.0203799363226
-0.0514515787363
-0.0376632213593
-0.00798955652863
0.00874735880643
-0.0608793497086
-0.0186397563666
0.0557374432683
-0.0129103763029
-0.078043602407
-0.0586546957493
-0.046418171376
0.0355732366443
-0.063699953258
-0.0698313191533
-0.043305106461
0.022587813437
0.0287251416594
-0.0793049558997
-0.0214988682419
0.0237392690033
0.0249835662544
0.00110349804163
-0.016371274367
-0.0404231846333
-0.0253658592701
0.00254510412924
0.0148379178718
-0.0447425246239
-0.00507203536108
0.0332396067679
-0.0215876903385
-0.0589663274586
0.0333394370973
-0.0386924929917
-0.0434152781963
-0.0564237535
-0.00449654413387
0.031845305115
-0.0315321274102
0.0227796714753
-0.0294372458011
-0.0327406898141
-0.0583878308535
-0.0326555483043
0.0729407519102
0.0555722080171
0.032375767827
-0.0413003638387
0.0181533545256
-0.0400278866291
-0.0347714945674
0.0407530143857
0.0115514276549
0.00992905814201
-0.0371555238962
0.030196364969
0.060510635376
-0.0468010902405
-0.0422354377806
-0.0239365398884
-0.0289021804929
-0.0469598323107
0.0354255028069
-0.0408928208053
0.00903322640806
-0.0138354683295
0.0826377719641
0.061483155936
-0.0445713475347
-0.0576503761113
0.019022392109
0.00593873485923
-0.00657093012705
0.0144833633676
-0.0391972623765
0.0106607107446
0.0309112798423
-0.0788436532021
0.00242720986716
0.0359209738672
0.0423204936087
0.0287882089615
-0.0840810015798
0.00718344887719
-0.0401563569903
0.0324899591506
-0.0101459268481
-0.0138541674241
-0.0424977205694
0.0305043701082
0.0920329317451
0.082888841629
-0.0095894234255
0.051689658314
-0.00383349135518
-0.0543949902058
-0.0210775788873
-0.0128029165789
0.011720427312
0.0152597734705
0.0483764708042
0.0166930705309
-0.0193835105747
-0.00835794955492
-0.0492935441434
-0.0313185825944
-0.0399767011404
0.0322115123272
-0.00875229388475
0.0302640497684
-0.0105666378513
0.00306927412748
-0.0038199974224
-0.00263838237152
-0.00698875589296
0.0226506013423
-0.0211306866258
0.040365435183
-0.0285925399512
0.0539282299578
-9.39189121709e-05
0.0476324670017
0.0462923981249
0.0500060282648
-0.0310945492238
0.00110134645365
-0.0502069294453
-0.0774632021785
0.0147763937712
0.0110797258094
-0.0299532506615
-0.0800477340817
-0.0884428918362
-0.0601116754115
-0.0479562953115
-0.0343671180308
-0.100569449365
-0.0345931835473
-0.0298080090433
0.0693573951721
0.0577557869256
0.0142879420891
0.0222048722208
0.0289497412741
-0.0684614479542
-0.0314387157559
0.0125707788393
-0.0650672391057
-0.0560074485838
0.0112932724878
-0.0449371486902
-0.0126673011109
0.0553376674652
-0.0261032693088
-0.0536200776696
-0.0521846488118
0.00426223454997
0.0484703220427
-0.0798750594258
0.0114547340199
-0.010802895762
0.0731492042542
-0.0306535623968
-0.0132821183652
-0.0254380684346
0.0316670723259
0.0560918785632
0.00134568056092
0.0156346932054
0.0430928170681
0.0599922835827
0.0669586360455
0.0737940073013
0.0846646279097
0.0499419309199
-0.0102707771584
0.00205833511427
0.0618968829513
0.0883129313588
-0.0181925036013
0.0774656757712
-0.0630155652761
-0.00485173380002
0.029133092612
0.00477469339967
0.0159461516887
-0.0212280601263
-0.0336176455021
0.0652059987187
-0.0287643931806
-0.00922571588308
-0.0100998161361
-0.035844553262
-0.0287198275328
-0.0178099572659
0.0447846725583
-0.0563288219273
0.0123740835115
0.0588678009808
0.0238639898598
0.0302476324141
-0.0237571094185
0.0623073205352
0.0331677570939
0.0337910801172
-0.0170795693994
-0.0355032794178
-0.0145615078509
-0.0237295776606
-0.0203438196331
0.034889485687
0.0424630120397
-0.00348720094189
-0.00235124141909
-0.0374891683459
0.0105917342007
0.0158692095429
-0.0443538837135
-0.0406749136746
-0.0550192669034
0.0539483241737
0.0203740466386
0.0174826607108
0.00856124889106
0.00270262616687
0.0292498394847
-0.00281845941208
-0.048200558871
-0.0275145433843
-0.04986782372
0.00886800419539
-0.029952654615
0.0254230108112
0.0439427495003
0.0178174953908
-0.0378160737455
-0.0345732346177
0.02938949503
-0.0479429736733
0.043575823307
-0.0506724566221
0.00861773267388
0.0208465401083
-0.00366717227735
0.0256140902638
0.0135591989383
-0.00107831903733
-0.0100858835503
-0.00205805618316
0.0222743917257
-0.0307794064283
-0.111929401755
-0.066650390625
0.0304828714579
0.048175316304
-0.00442562717944
-0.0765293166041
-0.0950789302588
-0.0587531030178
0.0709253251553
0.00456435419619
-0.0190386231989
-0.0448783300817
-0.055496558547
-0.0232848990709
0.054759491235
-0.0407770983875
-0.0560074858367
-0.00129086838569
-0.0334711559117
0.0214802622795
0.065705254674
0.0358012728393
-0.00319893052801
-0.00893585383892
0.0474675744772
0.00986269395798
-0.0654378086329
0.0281045250595
0.012635354884
-0.0333182550967
0.0335696339607
-0.0350057259202
0.00289770239033
0.0619633831084
0.0565544404089
-0.0170571487397
-0.0336860045791
0.0352300107479
0.0624183788896
0.036529827863
0.0386617705226
-0.0312157738954
0.0290921684355
-0.0109950061888
0.0740686878562
0.049077950418
-0.0546249300241
-0.0290729179978
0.0445443950593
-0.000718800176401
0.0185323730111
0.00635714503005
0.0296126175672
-0.0313076376915
-0.0162092335522
0.00355558679439
-0.0160759873688
0.0136002525687
-0.0237766653299
-0.0507887452841
-0.010794444941
0.00292318454012
0.0207564998418
-0.0397714450955
-0.0597987733781
0.0377972759306
-0.0124500375241
0.0375256426632
0.0459063462913
-0.00511966878548
0.0730758979917
0.0633347034454
-0.0271336566657
0.0267019309103
0.011008316651
0.0326474830508
-0.0232591647655
0.0218763221055
0.0335676148534
0.0207417458296
-0.00227203033864
0.0273448098451
-0.0113023603335
-0.0408226773143
-0.0276246760041
0.027753284201
0.0726028010249
-0.000906211440451
0.0153810428455
-0.058721601963
-0.0174264069647
0.0426512546837
-0.0101570570841
-0.00643645087257
-0.00181121565402
0.0558643639088
0.0535293631256
-0.0429328419268
0.0663892924786
-0.0227752253413
-0.02911012806
-0.0349984169006
-0.0808860659599
0.0703507959843
0.119302332401
0.111537896097
0.0288162790239
-0.0167934503406
-0.0132637340575
-0.0286629013717
-0.055096950382
0.0705014839768
0.0718279257417
0.0192612707615
-0.0336860567331
-0.00382212898694
-0.0278203524649
-0.0112199578434
0.057182431221
0.0223114844412
-0.0266260299832
-0.0263334047049
-0.0437132492661
-0.055391445756
-0.0673874169588
0.0243935827166
0.036089014262
0.00123738171533
-0.00287132221274
-0.0918350815773
-0.0743205472827
-0.063059873879
-0.034831315279
0.0340854637325
0.00719588715583
-0.0275130476803
-0.0602594390512
-0.0864839553833
0.0633681043983
0.0597746446729
-0.0465561673045
0.0409602075815
-0.046762894839
-0.0117876026779
0.0221193972975
9.60578108788e-05
0.0313745252788
-0.0225854124874
-0.0433079265058
-0.0870607048273
-0.0292650107294
0.0256909281015
-0.0466648675501
-0.0340660251677
-0.0578755401075
-0.0916246324778
-0.0425490401685
-0.00246346043423
0.0323043316603
-0.0494660511613
0.00623516412452
-0.019749160856
0.00925336871296
0.0426090061665
-0.0297463741153
-0.0465189442039
-0.0124609032646
-0.0111937234178
-0.0445681847632
-0.0436836183071
-0.0264043435454
0.039709597826
0.0100764641538
-0.0242489967495
0.00849923118949
0.0443135090172
0.0310163032264
0.0492471903563
-0.0163009241223
-0.124373458326
-0.0457041375339
-0.0566462129354
0.058930400759
0.125755831599
0.0303720608354
0.0612151138484
0.0224230755121
0.022640010342
0.0486280024052
0.0220780577511
0.0356643199921
0.0781249776483
-0.022189553827
0.0241016410291
0.0134972538799
0.0139771457762
0.032682582736
0.0387376733124
-0.0596882142127
-0.0306418333203
-0.0509249381721
-0.0115069067106
0.00396253168583
0.0172878243029
-0.0565259605646
-0.0280616022646
-0.0440332442522
-0.0110054472461
-0.0367829874158
0.00159063120373
0.0174988452345
-0.0611876733601
-0.0815626457334
-0.0296079497784
-0.014223488979
-0.0610864460468
-0.0673317983747
-0.0133517701179
-0.0524922907352
-0.0692544803023
-0.0651898384094
-0.0652585625648
-0.00595493335277
-0.0648575350642
0.0293887276202
0.0130257150158
-0.027429882437
0.0509061515331
-0.0347035415471
-0.0756614655256
-0.060858309269
0.0203976463526
0.0215877313167
0.0078396666795
0.0425178408623
-0.00576510792598
-0.0132436417043
-0.0289749577641
0.0282111503184
0.0452122651041
0.0599248670042
-0.00853014271706
-0.037818942219
-0.0638730674982
-0.0103572448716
-0.0169850252569
0.0500938594341
0.00197732122615
-0.0342954359949
-0.034854605794
0.031739756465
0.00889502465725
0.0386863835156
0.00168361666147
-0.0428479649127
-0.0929620712996
-0.0439225807786
-0.0557379610837
-0.009785072878
-0.0288168545812
-0.0641860216856
-0.0189991742373
-0.0291804391891
-0.0301577299833
-0.0102104330435
-0.0454122908413
-0.0128480475396
0.00544802891091
-0.00840377341956
-0.0248430650681
0.0424917414784
-0.0291611347347
0.0170048996806
0.0634744986892
0.0437633171678
0.0369609594345
0.0284077264369
-0.0438103303313
-0.00164688017685
0.0376804322004
-0.0419119484723
0.00967891700566
-0.0467839948833
0.023684527725
0.00119854975492
0.0549092516303
-0.0400113165379
0.0415745414793
0.0276101604104
0.0333026126027
0.0504795834422
0.0167381372303
0.0413648188114
-0.0357551425695
0.00392070226371
0.00171247194521
-0.0376991778612
-0.0197872817516
-0.00120611372404
0.00335942395031
-0.0420579724014
0.0366521030664
-0.020159792155
-0.041865684092
-0.0527940914035
-0.00576436147094
-0.0254758391529
-0.0322253480554
0.113330066204
0.0663680136204
0.0943769216537
0.0328508391976
-0.0571187101305
0.0648773610592
0.0716150328517
0.0884628146887
0.0290017817169
0.0498466379941
-0.0401867590845
-0.0437609627843
0.0579709894955
-0.0135464202613
-0.0444090552628
-0.0692508518696
-0.0940033495426
-0.0641991719604
-0.0253634359688
0.0594855211675
0.0835056826472
-0.0283076278865
-0.04563164711
0.00719486922026
-0.0139128193259
0.06431940943
0.114545576274
0.0708279907703
0.0300103481859
-0.0452343486249
0.0869052112103
0.103516474366
0.0797906517982
0.0572040565312
0.00860951840878
-0.0485722273588
0.0154199292883
-0.0360956564546
0.0348464176059
0.0245617702603
-0.0626506209373
-0.0358576439321
0.0443055331707
0.0513788759708
-0.0188500899822
0.00964657124132
0.0266212578863
0.00384998414665
0.00361314509064
0.0104140387848
0.0332958884537
0.0379101149738
-0.00652194209397
-0.00312640168704
-0.0143564399332
0.021987343207
0.0427006073296
0.00675951316953
0.00217660772614
-0.0483560971916
-0.0316296219826
-0.0319138020277
-0.0461680479348
0.0507166236639
-0.0258644875139
-0.0625421479344
-0.114769265056
-0.104485079646
-0.00489928154275
-0.0383565723896
0.0638101994991
0.0996738374233
0.0904397889972
-0.00164979847614
0.00103478308301
-0.0287920236588
0.0599135644734
0.0112081551924
0.0389944389462
-0.0367387272418
0.00381110352464
-0.0401778370142
-0.00134410557803
-0.0474431924522
0.0508351586759
-0.0456493012607
-0.00262920861132
-0.0533311516047
-0.0125024840236
-0.0340855270624
0.063263438642
0.00320331240073
-0.00976710673422
0.0500382184982
-0.0396861359477
-0.00890535116196
0.00954138301313
0.0540546998382
0.018488779664
0.0393247231841
-0.0271484293044
-0.0314489230514
-0.0403895378113
-0.00113689829595
-0.0210534539074
-7.66836092225e-05
-0.0172844808549
-0.0361419320107
0.0372839532793
0.0306778680533
0.0317292325199
0.0154142873362
-0.0410389304161
0.020836468786
-0.0345430225134
-0.0813977047801
-0.0693302080035
-0.0132296541706
-0.0347456000745
0.00989799760282
-0.0134486639872
-0.104403220117
-0.0640660449862
-0.0455460511148
-0.0456977374852
0.0789894014597
0.0251409132034
0.0104568079114
0.00658489763737
-0.0714339837432
-0.0428279787302
-0.0295519381762
-0.0519516281784
-0.03363808617
0.000393178110244
-0.0255399551243
-0.0121956849471
0.0027467883192
0.00946202781051
-0.0534252040088
-0.0292879007757
-0.0506655722857
0.00296019739471
0.0130549520254
-0.0594823136926
-0.0622078664601
-0.0681829601526
0.0193030368537
0.0296590272337
0.0428243167698
-0.0486634261906
-0.0649393722415
-0.0337662994862
-0.0743251740932
-0.0822432115674
-0.00665240222588
-0.0152088869363
0.0383511558175
0.0128343282267
-0.0594620034099
-0.0263407304883
-0.0657569393516
-0.0646670684218
0.0318446718156
-0.0535005368292
-0.0678853914142
-0.0715116932988
0.0222658459097
-0.0368764624
-0.020553637296
0.00928188301623
-0.000195084910956
-0.0232813451439
-0.0410757437348
0.0416665636003
0.0246408544481
0.0254398081452
0.00998957827687
-0.0550262443721
-0.0346695184708
-0.0417422391474
0.0532752498984
0.071326173842
0.0587904565036
-0.0101245734841
-0.0346711836755
-0.0494059845805
0.0221048891544
-0.0293131563812
-0.0485100261867
-0.00155320961494
0.0313359312713
0.0739718526602
0.0312465820462
-0.0160821191967
0.0235300734639
-0.00134611281101
0.0499422587454
-0.00563028594479
0.0533043444157
-0.0335408262908
0.00238412502222
4.6092478442e-05
0.00971439387649
0.00377785647288
0.0897380709648
0.0147108417004
0.0465338304639
-0.0189509335905
-0.0419380776584
0.0546078644693
0.0508207641542
0.00552366580814
0.0645472109318
0.0351881757379
-0.00204170984216
0.0227549523115
-0.0251430608332
0.0329571403563
0.0170291513205
-0.0490696541965
-0.0424108542502
0.0268228463829
0.0164340101182
-0.00147199712228
-0.0549616105855
-0.0254533141851
-0.0223581697792
-0.0493742488325
-0.0694594606757
0.057717576623
0.0057506384328
-0.0452679544687
0.0105793997645
-0.00197136076167
0.0188719350845
0.0201395023614
0.0227239411324
0.0588007122278
0.0144648235291
0.0355960205197
0.0360701680183
0.0422143340111
-0.038128208369
0.0304249096662
0.0156112015247
0.0258565172553
-0.0517140887678
-0.0179191697389
-0.0575936846435
0.0783663392067
0.00689978664741
0.0858918726444
0.0111392689869
-0.0397539883852
0.00843828357756
0.047189515084
0.0321294032037
-0.000987631734461
0.0131702041253
0.014318854548
0.00329863536172
-0.0517592206597
-0.0516258105636
0.0114408172667
0.0187283214182
0.000234955441556
-0.00844006240368
0.00418957369402
0.0301185753196
-0.0139607191086
-0.0286266505718
0.0105323344469
-0.0346973910928
-0.0276276804507
-0.024735385552
-0.0502650178969
0.0196170881391
0.0140500366688
-0.0253130570054
-0.00572232669219
-0.0648369044065
0.0287555381656
-0.0229057166725
0.0246161669493
-0.0164897013456
-0.0579762160778
0.00626254081726
-0.0428585298359
0.0318194068968
0.0236069429666
-0.0288735888898
-0.043513789773
0.0106096351519
0.0537358857691
-0.00542242825031
-0.0570233576
-0.0134965376928
-0.0342329405248
-0.010798657313
0.0241422895342
-0.00784125272185
0.0326472781599
0.0380715280771
-0.0538105629385
-0.0697764307261
-0.0263664200902
0.0854875594378
0.0423199310899
-0.0325639545918
-0.021049592644
0.0301855858415
0.0137931946665
-0.0294254869223
-0.0182866547257
0.0629875957966
0.0250583961606
-0.0219121705741
-0.0662944763899
0.0306486282498
0.0661576092243
0.0381875224411
0.0138731654733
-0.0606012754142
0.0526417829096
0.111773125827
-0.0442976467311
-0.0566469207406
-0.067757435143
-0.0133010204881
0.0561042837799
-0.0267205629498
-0.0171836707741
-0.0523092187941
0.0739846453071
0.0285145174712
0.0593533217907
-0.0307772811502
0.0290543958545
0.00916236266494
-0.0617122426629
-0.0417409539223
-0.0558757185936
-0.00961306784302
0.012887455523
-0.0384092256427
-0.0754759907722
-0.0111550111324
0.0826177448034
0.0129501139745
-0.0577682964504
-0.0617607012391
0.0429599136114
0.0281598027796
-0.0149277215824
0.00377084757201
-0.0618988275528
0.00802942272276
0.0440966151655
-0.0422741137445
-0.0646072849631
0.0192625299096
0.0381532534957
0.0513470135629
0.0225954856724
0.0158112961799
-0.103728957474
-0.0667279288173
-0.0295891463757
-0.0542345009744
-0.040910333395
0.00493838172406
-0.0717269778252
0.0285828206688
0.0359102524817
0.0487784147263
0.034761313349
0.00969574134797
0.0345016643405
0.00645714160055
-0.0302379131317
-0.0489867031574
0.00672441301867
-0.0428283810616
-0.0289693847299
-0.0132992388681
-0.0126936398447
-0.0562935695052
0.00628250604495
0.0198988392949
-0.0157952811569
-0.0480697154999
-0.0544509664178
-0.0299757663161
-0.00106159551069
-0.0377523638308
-0.0304641257972
0.0356758572161
0.0111232809722
-0.0273644644767
-0.0481379665434
0.00609075790271
-0.00919583439827
0.0522138364613
0.0440853610635
0.0120921954513
-0.00783856213093
-0.0068021719344
0.0624089501798
0.0348134674132
-0.0549137666821
-0.038390353322
0.00852963607758
-0.00517331715673
-0.0143923535943
0.00843271892518
-0.0622271932662
0.00249893334694
0.011338731274
0.00999746657908
0.0284646134824
-0.0169074255973
0.00252083339728
-0.0447356514633
-0.0423839055002
-0.0280737914145
-0.0491336844862
-0.0106995627284
-0.0122895855457
-0.0157680734992
0.0343890935183
-0.0338029451668
-0.050609819591
0.0405815094709
0.0112174181268
-0.00532052433118
0.0188135262579
0.0303583014756
0.00842370279133
-0.0299494285136
-0.0369583182037
0.0231374856085
-0.0552426464856
-0.0135422283784
0.00568621512502
2.6596258067e-06
0.00302402605303
-0.00175759382546
0.0348367616534
-0.00150046404451
0.0459300503135
0.0525520667434
-0.0652271211147
-0.035241317004
0.0291124247015
0.0420948378742
-0.0252220369875
-0.0411633774638
-0.00953547563404
0.0562659651041
0.0504064373672
-0.0106839239597
-0.0456577539444
0.0333644077182
0.0105580538511
-0.0128528308123
-0.0649203136563
-0.0239908974618
-0.014417248778
0.0268697142601
0.0226824209094
-0.0459489822388
-0.0354842431843
-0.00912345107645
-0.0433150753379
0.0319744944572
0.0220519583672
0.00343203777447
-0.030498623848
-0.0323057696223
0.0153401857242
0.0256305485964
0.0169306881726
0.00141016498674
0.0159299746156
0.00294992909767
0.0359635092318
-0.0277189016342
-0.0457706451416
0.00513600511476
-0.0126399891451
-0.0172619819641
0.0118746021762
0.00366089050658
-0.0710921958089
-0.00370705174282
-0.00465417839587
0.0277632288635
0.00322720012628
0.0207425132394
0.0370215699077
-0.0512388423085
-0.00287505029701
0.0075112762861
0.00468915747479
0.0448464006186
0.041193600744
-0.0426700264215
-0.0608497969806
0.0506706945598
0.0841551944613
0.00543168373406
0.0223525837064
-0.0276474058628
-0.00386767764576
0.0377481989563
-0.0780793502927
-0.0682360231876
-0.0455006994307
-0.0525997951627
0.00537748308852
-0.0662590935826
-0.0358998551965
0.0423743613064
0.0138408578932
0.0742584764957
-0.0906193256378
-0.0829005092382
-0.0525926500559
-0.0166021808982
0.0591905452311
0.0183654874563
-0.0571277178824
-0.0422288700938
-0.000456752430182
0.0627051815391
-0.0362042225897
0.0140267461538
0.000577957602218
0.00146011530887
0.0086289010942
0.00385453877971
0.0153128402308
-0.0252653807402
-0.0538044124842
0.0173855070025
-0.00918673165143
0.023728100583
0.00117920746561
-0.0172563884407
0.0592371039093
-0.0361750014126
-0.0351032540202
0.00781290233135
0.00997975841165
0.0632841661572
-0.0551090240479
0.0166288167238
0.0189154222608
0.0029412037693
0.0471739731729
-0.0305895023048
-0.0156169570982
-0.0579230338335
0.0167776476592
-0.0257467869669
-0.0515717826784
0.0432452447712
0.0298246685416
0.044374614954
0.0424601174891
0.0132705615833
-0.014966674149
-0.0278817247599
0.0662561580539
-0.0572640188038
-0.0242657121271
-0.051361668855
0.0133838290349
-0.0641876012087
-0.0502804517746
-0.021790234372
0.00624078745022
-0.0343093834817
0.00459569646046
0.0174747277051
0.0322906412184
0.0374991111457
-0.0389268733561
0.0164822302759
-0.0428639128804
-0.0117459120229
0.0308775212616
0.0369698628783
0.0114870239049
-0.00334678310901
0.0125665422529
0.0101875159889
-0.00580634037033
-0.00840104930103
-0.0164557956159
0.0654555484653
0.0188894551247
0.0113502359018
-0.028054067865
0.0206979513168
0.0451068431139
-0.00594764761627
-0.0108638303354
-0.0138579662889
-0.0251468773931
0.019619461149
-0.0675714164972
-0.0187184102833
-0.0337272323668
-0.0284985583276
-0.0585963465273
-0.0166126079857
-0.0565395355225
-0.0599226467311
0.0181262549013
-0.0659712553024
0.0852094814181
0.00774402497336
0.0503564029932
0.0450199469924
-0.0647770687938
0.00488791568205
-0.00691360421479
-0.00138987018727
0.014618832618
0.0183614436537
0.00571090029553
4.3660744268e-05
0.00500550633296
-0.0516557469964
-0.0300307311118
0.0394515134394
-0.0165517106652
0.0189248528332
-0.045409373939
-0.0207972880453
-0.0339193977416
0.0238527134061
0.00717046065256
-0.0229741483927
-0.0517467521131
0.00658370368183
0.0153966639191
-0.0408872924745
-0.0269153211266
0.00818243529648
-0.0125576825812
-0.0342032425106
-0.0311259161681
0.00514148641378
0.030785439536
-0.0167084485292
-0.0216425992548
-0.0505784153938
0.0435737371445
-0.0512865334749
-0.000533041777089
-0.0396153144538
-0.00754689145833
-0.00702035333961
0.0171038657427
-0.0218188110739
-0.0549794472754
-0.0326979644597
0.0249043796211
0.0353561043739
0.0279410947114
-0.0275834891945
-0.0448312982917
0.0208811536431
-0.0144673781469
0.00122826686129
-0.00586162507534
0.0101276440546
-0.0289330016822
-0.0194197650999
-0.0609675869346
-0.0016338666901
-0.0185108780861
-0.0248701199889
0.0227172952145
0.0646129995584
-0.0528341680765
0.028350032866
0.0468548797071
0.030926592648
-0.0132252909243
-0.000684860860929
-0.0428332947195
0.0150573346764
-0.0765573531389
-0.0330110602081
-0.0716962590814
-0.083225928247
0.0242980197072
-0.0342652350664
-0.0409291572869
0.0466506108642
-0.0508319474757
-0.0145582091063
-0.0561880208552
-0.0495941452682
-0.0536379106343
-0.0573687255383
0.0387383922935
-0.0260752439499
-0.0175272338092
-0.041064593941
0.0374613702297
0.0462102554739
-0.0572589784861
0.0163851398975
-0.00146734970622
-0.0543413870037
-0.0648833960295
0.00611476646736
0.0098825301975
-0.0402765907347
-0.0700455605984
0.00717762997374
0.0091943051666
0.0338719636202
0.0369836948812
-0.0493824146688
0.0351680293679
-0.023255739361
-0.00938628055155
0.00845557730645
-0.0674340352416
0.0552523136139
0.00470824306831
-0.0853312388062
-0.0481709651649
-0.0220896992832
-0.0215540453792
0.0183777492493
-0.0575024299324
0.0310182068497
0.0405465103686
-0.0373449809849
0.0175776872784
0.00263236742467
0.0599237456918
-0.032323345542
0.0527575090528
0.0309165641665
0.0337112247944
-0.0077173630707
0.0203140117228
-0.0437156260014
0.00606037629768
0.0208925809711
-0.0440899133682
-0.00234984280542
-0.033405162394
-0.00631934637204
-0.0228551104665
-0.052431922406
0.00245549925603
0.0468415990472
-0.0143373655155
0.00112580927089
-0.0458679050207
-0.0375990979373
0.0663413181901
-0.013763781637
-0.0451708957553
0.0190662518144
0.00803838297725
0.0378581248224
0.0117297852412
-0.0256831143051
-0.0677956193686
-0.0184137821198
0.0740912780166
-0.0194240249693
-0.0266250632703
-0.0273643247783
0.00699235452339
0.00159052899107
-0.0101087242365
0.00364690343849
-0.0609027519822
0.00770206889138
0.0270198695362
-0.0258672498167
-0.0315599553287
0.0104253860191
0.0142097054049
0.0198247339576
0.0465072467923
-0.0399425253272
-0.0207424219698
-0.019737964496
0.00940295122564
0.03653100878
0.0087318867445
0.0360505916178
-0.015669323504
-0.0155066009611
0.00821043178439
0.0105450283736
0.000155801055371
0.0137162785977
-0.0117301112041
-0.0455801337957
-0.00784628186375
0.0270578060299
0.00954592227936
0.0261522829533
0.0135803334415
-0.00217908108607
-0.00463912449777
-0.0658166781068
-0.0538091510534
-0.0375293418765
-0.0250520501286
-0.0696091353893
0.0195822231472
-0.0204180106521
-0.0506497621536
-0.00812670588493
0.00714378478006
-0.0435278117657
-0.0742418691516
-0.0536084845662
-0.0368914455175
0.0213026590645
-0.0605416223407
-0.058944683522
-0.035100094974
0.00926253385842
0.0139267826453
-0.0102001382038
-0.0153353083879
0.0106796799228
-0.0727468281984
-0.0744248405099
0.0161983687431
-0.0262635741383
-0.0487463288009
-0.0271145924926
0.0708187818527
-0.00638984423131
-0.0126926433295
0.0561391338706
0.0570286475122
0.0534799210727
-0.00621687155217
-0.00593780074269
0.057821765542
0.0373045057058
0.0290138237178
0.0362491831183
-0.00538130104542
0.0643911212683
0.077637322247
-0.0298644285649
0.0288164652884
-0.0277599748224
0.00575363496318
-0.0365886539221
-0.0600131750107
-0.081560343504
-0.0889497026801
-0.12588943541
-0.0836343094707
-0.00202827807516
-0.0286851096898
-0.0292441155761
-0.00779471546412
0.0493262447417
0.02540124394
-0.0159048307687
-0.0257025230676
-0.0334082618356
0.0189179740846
0.0407438129187
-0.0349612496793
0.0370058231056
0.0457551628351
-0.00685298070312
-0.0290192291141
-0.0273732319474
-0.0470295622945
-0.037050537765
-0.00124549679458
-0.0566841550171
-0.0207210481167
0.00560206919909
-0.0507025048137
-0.062635242939
-0.00345131871291
-0.0229248851538
0.030678043142
-0.0339831449091
0.0554013215005
-0.0207840688527
0.0143803376704
0.00254556746222
-0.00920843333006
0.00340165197849
-0.026339571923
-0.000913159106858
-0.0170306749642
-0.0276401285082
0.047914404422
-0.0305635016412
0.0228559598327
0.0146841816604
0.0395627431571
0.0104144737124
-0.0249268934131
-0.0762602612376
0.0192917957902
0.0193886980414
-0.00981672946364
-0.0776316896081
0.0167666859925
0.00775279756635
0.00399846630171
-0.0195600595325
-0.0672955736518
0.00353981344961
-0.0500097312033
-0.0236446540803
-0.0341858640313
-0.0137785514817
0.0255796574056
-0.0148128177971
0.0448661185801
0.0456483587623
0.0282760541886
0.0131808379665
0.0235880296677
0.0373267419636
-0.0183901712298
-0.0418855398893
-0.0203324966133
-0.0357686579227
-0.0202217791229
-0.0840577185154
-0.00163970876019
-0.0466645695269
0.0208613835275
0.0040346593596
-0.00515735289082
-0.0596859902143
-0.051835346967
0.013266203925
0.0171066857874
0.00167730916291
-0.0131912203506
-0.0108408080414
-0.00916922744364
-0.0323364771903
0.0242598764598
0.00259880675003
0.027431724593
0.0405057072639
0.0405390970409
-0.00330518535338
-0.0533146187663
-0.00151343771722
-0.00183990097139
-0.0483884438872
-0.0430873222649
0.0483795292675
0.0359346009791
-0.00137210881803
0.0182414893061
0.04419946298
-0.032666567713
-0.0476211570203
0.00626035965979
-0.065509930253
-0.0130169084296
0.0304679963738
-0.0186043679714
0.0268926713616
0.00825520697981
0.000985132763162
-0.0602417364717
-0.0286674257368
-0.0542548112571
-0.0545028597116
-0.0466735698283
-0.00613475963473
-0.0483990870416
0.0249971393496
-0.0418927446008
-0.0244103651494
-0.0451870113611
0.0350886881351
-0.0175056308508
0.00688266195357
-0.0167081356049
-0.0276269819587
-0.0230256207287
-0.0182280354202
-0.0568116083741
-0.0475061610341
0.0251245014369
-3.18013844662e-05
-0.0407145097852
-0.0357615835965
-0.0162474364042
-0.00620775762945
0.0277022272348
-0.0482462793589
-0.0672535896301
-0.116017371416
-0.0563185401261
-0.0727548673749
-0.053132943809
-0.0505282282829
-0.0492714717984
-0.0124799776822
0.0488269291818
-0.0784645304084
-0.028248200193
0.00229205447249
0.0453783683479
0.0185377951711
-0.0152179617435
-0.0397508591413
0.0242058411241
-0.0060776588507
0.0625674501061
0.0156120108441
0.0520428493619
0.0718491896987
0.000176878049388
0.0419028028846
-0.0279803536832
0.011087751016
0.0300830602646
-0.0456778332591
0.019770309329
0.00821853987873
-0.0309669747949
-0.0387496799231
-0.0398917160928
-0.0179342720658
-0.0457351505756
-0.00898077711463
0.0317930988967
-0.0203894898295
0.0384804941714
0.00437040906399
0.0308570694178
0.0109457522631
0.0117587493733
-0.0142916534096
-0.0195250660181
-0.0289695542306
0.0141922775656
0.013120636344
0.0195251554251
-0.0667080357671
0.0116126295179
-0.0534183159471
0.0468817874789
0.0189382396638
-0.0260427836329
0.0611980333924
0.128593429923
0.0668719187379
0.0740299299359
0.047348421067
0.0830523297191
0.034681353718
-0.00792065542191
0.0429651141167
0.0357608012855
0.0249450337142
-0.081045076251
0.0183468982577
-0.000992019777186
-0.0429821573198
-0.0508170239627
-0.0394573323429
-0.0521520674229
-0.0484411641955
0.0485548973083
0.0162293687463
0.0452739819884
0.000573195982724
0.0608206540346
0.062532953918
0.0829828679562
0.0201430022717
0.0256397984922
0.00950733292848
0.0454106107354
-0.0497330129147
-0.083197183907
-0.0215597916394
0.0263061728328
0.024391464889
-0.0251941289753
0.00378720881417
0.0117400977761
-0.0750023201108
-0.0843556299806
-0.0374994315207
-0.0868248865008
-0.0353182554245
-0.0611764863133
-0.063079059124
-0.0527248047292
-0.0786430165172
-0.022458139807
-0.00395750952885
0.00397782726213
-0.0682417973876
0.0428058728576
-0.0150253484026
-0.0356441363692
0.0357641838491
0.0350407920778
0.0450854972005
0.051947068423
0.072233915329
0.0344680808485
0.00212264806032
0.0284939538687
0.00230358517729
0.0120592284948
0.0358723849058
0.0251535996795
-0.0169699136168
0.0112804798409
0.0366423018277
-0.0196101013571
-0.0295612793416
-0.050783097744
0.00456231785938
-0.0282309837639
-0.0480364114046
-0.0279776528478
0.00705632707104
-0.0489437617362
-0.0542924180627
0.0227842535824
-0.0163740441203
-0.0473922900856
-0.0417300015688
-0.0398918762803
-0.0289068315178
-0.0123849669471
0.0291608534753
0.0464030429721
-0.00270963809453
0.00595300365239
-0.00086624501273
0.0428110212088
-0.00617964100093
-0.0302127674222
-0.0298524238169
-0.0106966914609
-0.0661664679646
0.000342815939803
-0.0450582392514
0.000395111739635
-0.0632633790374
-0.0399477928877
-0.0265585295856
-0.0146432025358
0.00329985097051
0.0061424956657
0.00356693379581
-0.0263811610639
0.0408397093415
0.00341933127493
-0.0300050545484
-0.0525435172021
0.0310991797596
0.0419716984034
0.035224840045
0.045786563307
-0.0141231212765
0.00208066147752
0.0453545562923
0.0206654686481
0.0493844747543
0.0120125152171
-0.00476977229118
-0.0701875090599
-0.00937174540013
-0.0261941514909
-0.0631803050637
-0.108196020126
-0.00994515512139
-0.00125482759904
-0.0941389575601
-0.0504480116069
0.0315327420831
-0.0403616763651
-0.0693241581321
0.0126916989684
-0.0313207320869
-0.0191721357405
0.014798829332
0.0225774031132
0.0263495165855
0.0188319887966
0.0461490340531
0.0351532064378
-0.0104680908844
0.0190716590732
0.0187514703721
0.022585298866
-0.00650689424947
0.0148190297186
-0.000222736722208
0.019680229947
-0.0438201315701
-0.0440788455307
-0.0305719748139
-0.045614503324
-0.0731547996402
-0.0680255368352
0.040934279561
-0.0644749104977
-0.0341901145875
0.0110843572766
-0.0338756926358
-0.0296851564199
0.0343049168587
-0.0358256213367
-0.00854396633804
0.0260972697288
-0.0172202568501
-0.0797616839409
-0.0478239245713
-0.0107832122594
-0.0594300627708
-0.066738076508
-0.0209140591323
0.0400173701346
0.0347977876663
0.0371681153774
0.0607801936567
0.0206957738847
0.0543656796217
0.0536607019603
0.00596231222153
-0.0245599430054
-0.00151174596976
-0.0400913320482
-0.00738760828972
0.000344198662788
0.0379976294935
-0.00701756495982
-0.0335471853614
-0.0729057639837
0.0184588488191
-0.0724116042256
-0.02465707995
-0.0115852085873
0.0242782849818
0.0377294160426
-0.0277685634792
0.0592762753367
0.027037134394
-0.0546525530517
-0.0376529097557
-0.0173397175968
0.00607604440302
-0.0750060379505
-0.00967451464385
-0.057007137686
-0.0175592899323
0.00268087838776
-0.0468718223274
-0.030779549852
0.0306094642729
-0.0237631462514
0.00749688781798
-0.0871988385916
-0.00256339740008
0.0264434162527
-0.0367488190532
-0.0449850857258
-0.00986245647073
-0.014685745351
-0.0140954907984
0.0483469888568
0.050424695015
0.051340714097
-0.042806122452
-0.0346437729895
0.0108979037032
0.00715736905113
0.0656188875437
0.0206422619522
0.0318998210132
0.0373656786978
-0.0181860607117
0.0127266589552
0.0632685646415
0.0468439124525
-0.0514321103692
0.0465856045485
0.0258384477347
0.0314669013023
-0.0298655424267
0.0057937358506
-0.0402131304145
-0.0401298254728
0.00202055647969
-0.067508764565
0.00597295351326
0.0389267764986
-0.00957851391286
0.0573118850589
-0.0310529004782
-0.0394572690129
0.02468864806
-0.0809163972735
0.0366100668907
0.0075268400833
-0.0134640093893
0.00958963297307
0.00963746197522
-0.0641310587525
0.0321308895946
-0.0308603011072
-0.0406766906381
-0.0270785316825
0.0297272615135
-0.00309551740065
0.00165089592338
-0.0115892365575
-0.046405736357
-0.00687281833962
0.00575012294576
-0.0831536874175
-0.00268372264691
-0.00981583166867
-0.0481772236526
-0.0163117349148
0.0178576037288
-0.0456599108875
-0.0119366245344
-0.0267872847617
-0.0481963269413
0.0588725879788
0.00888446811587
0.0195673871785
0.00694996677339
-0.041011929512
-0.000233126847888
0.0344514586031
-0.0405246987939
0.0351991355419
0.00878162309527
-0.0811470225453
0.00350101548247
0.070846401155
-0.00744071276858
-0.0204396136105
0.00411409465596
-0.0688637197018
0.0446313396096
0.0192797388881
0.0409116894007
0.0128940921277
-0.0540035292506
-0.0642773509026
-0.000757054018322
0.0055443062447
-0.0218489523977
0.00537836318836
-0.0496489740908
0.0468466430902
-0.0190775431693
-0.0113441664726
-0.0277439132333
0.00281025399454
-0.0067984922789
-0.0280490219593
-0.0203699413687
-0.0137257762253
0.0367626659572
-0.035794954747
-0.0391789637506
-0.0202246233821
-0.0187333934009
0.0324608236551
0.0197142250836
-0.0407745726407
0.0405123904347
0.00350861437619
0.0216322559863
-0.0380647368729
-0.00767599325627
-0.0106347939
-0.0355061516166
-0.0445521660149
0.0355054847896
0.0214571524411
-0.0386097840965
-0.0510614216328
-0.0557872354984
0.0228054523468
0.021311590448
0.0119984531775
0.00489015178755
0.0615067258477
0.0267768930644
-0.0608459301293
0.00899996329099
0.0130630154163
0.07667966187
0.0663577392697
0.0370212644339
0.0428961664438
0.0101216025651
-0.00808030832559
0.0746084973216
0.0137960733846
-0.00403207354248
0.0613754056394
-0.032181955874
-0.00446813181043
0.00566680310294
0.000405958475312
-0.0049670948647
-0.0587107241154
-0.0344522707164
-0.0249639023095
-0.00721853040159
-0.0600123219192
0.0477503985167
0.0323739647865
0.0101515548304
-0.0217748526484
0.0288884472102
-0.0117126088589
0.0797238945961
-0.00751880835742
-0.0276767686009
0.0147093720734
0.00747740454972
-0.0215065646917
0.035837046802
-0.0412495695055
0.0285050235689
0.00885700061917
-0.0421889647841
0.00183842785191
0.0128467092291
0.0153073593974
0.0262619815767
-0.0293046999723
0.0329303704202
0.0215862393379
-0.0184994488955
-0.0537190921605
-0.0348029695451
0.0731308609247
-0.0309230256826
-0.0236095711589
-0.00340319937095
-0.0587446987629
0.0546154566109
0.0417603179812
0.00805400498211
0.0484727136791
0.00435901852325
0.0405050255358
0.0554913617671
-0.0264566242695
0.00782122183591
0.0172757524997
0.0216953158379
-0.0259379781783
-0.0190805979073
-0.042568795383
0.0163328424096
-0.0188492778689
0.00234424392693
-0.032232478261
0.0226772781461
0.0302224457264
-0.0498684830964
-0.0197019521147
-0.0398359373212
0.0705970972776
0.117058068514
-0.0257907863706
-0.0769661515951
0.0642686709762
-0.0263574626297
0.00340527528897
0.00934286322445
-0.0341276563704
0.0174805596471
-0.0387425981462
-0.0187203790992
0.0143437609076
-0.0271828528494
-0.0203391704708
0.0376413613558
-0.0597791858017
-0.0149636669084
0.0241735223681
0.0474998950958
-0.0138598131016
0.0139022627845
-0.0122517719865
0.0094643170014
-0.0856074467301
-0.0126193789765
0.0545669309795
-0.00590230198577
0.0147962113842
-0.057918060571
0.024139303714
-0.0260253418237
0.0646282956004
0.0477911010385
0.0230862107128
0.0239758379757
0.0311093069613
0.0143635971472
-0.0400097928941
0.0222695730627
-0.019032118842
0.0046673878096
-0.0266852937639
0.0225377883762
0.039046600461
0.0647841766477
0.0297792442143
-0.0399993807077
-0.0257319714874
0.0128050483763
-0.0475118942559
-0.0138513278216
0.0318834558129
-0.045725017786
0.00145645311568
-0.0569054707885
-0.0377549380064
0.0692355632782
-0.0356860198081
0.0338094197214
-0.0170061811805
0.0246726814657
-0.00408489443362
0.00279551697895
-0.0270790606737
-0.0288416370749
0.0512949489057
-0.0286327898502
-0.0431718379259
-0.0269498471171
0.0486598908901
0.0171966254711
0.0607246123254
-0.031505741179
0.0229865834117
-0.00827957503498
0.0446754731238
-0.00655661569908
0.018888771534
-0.0121458927169
-0.0262317508459
-0.0545699335635
-0.0139996027574
-0.0237874314189
-0.0424351505935
-0.0385749004781
0.063273049891
0.0301559809595
-0.020090136677
-0.0420524440706
0.0751196891069
-0.0210935752839
-0.0510059669614
-0.0192760080099
0.0583163760602
0.0129553852603
0.0234353840351
0.00599178299308
0.0614750161767
0.0381830632687
-0.0497648566961
-0.0510478764772
-0.0471744351089
-0.0362271480262
-0.0104969954118
-0.0536252856255
0.0608695298433
0.0163660217077
-0.0408003553748
-0.0429082773626
0.00926608685404
-0.0172751490027
0.060269638896
-0.0242738109082
-0.0245885867625
0.043155554682
0.0338216349483
0.0778093710542
0.0150846680626
0.000340775062796
-0.00615636864677
-0.00824437104166
-0.0187621023506
0.0168432872742
-0.0481149666011
0.0430812053382
-0.0255087800324
0.0209441892803
-0.0292106252164
-0.0454213656485
-0.0355602651834
0.0488059483469
0.0036639214959
-0.0509734228253
-0.00609363103285
0.0305548347533
0.0424464531243
-0.0133178615943
0.0513260997832
0.0269313473254
0.0089225769043
0.00722257746384
0.0130193196237
0.00547353411093
0.0100322850049
-0.0168291404843
-0.0208331700414
0.0819953456521
0.00070877710823
-0.0323621854186
0.0290390830487
0.0121166808531
-0.0143357897177
-0.0434995554388
-0.0411623977125
0.0602899901569
0.0583939217031
-0.056388437748
-0.00404193811119
0.0236760228872
0.0429144836962
0.0299757383764
-0.00841114483774
-0.0239572748542
0.0250328015536
-0.0360196493566
0.0163032449782
0.0353624783456
-0.00519335502759
0.0180788282305
0.015363923274
-0.0419597774744
-0.0113938199356
-0.0113679273054
-0.0352196581662
-0.0378706865013
-0.0243864767253
0.00541208218783
-0.0522456914186
0.00538577418774
-0.0406720563769
0.0249789729714
0.0533929392695
-0.0479063652456
-0.0233132056892
0.0222354270518
-0.0204011984169
-0.0525482222438
0.0298441946507
0.0314358472824
0.0202155057341
-0.01847377792
0.0116545436904
-0.0208878666162
-0.0101088583469
-0.0318176709116
0.0491676442325
0.0244068372995
0.0282939244062
-0.0387538559735
0.0229047629982
0.0194035861641
-0.0167262833565
0.0208337754011
0.0245899986476
0.0552297271788
-0.0176449734718
0.0471045225859
0.0116231953725
0.0113872298971
-0.0382402986288
0.0113598387688
-0.0116245904937
-0.0386444926262
-0.00778245320544
0.0148495240137
-0.011052692309
-0.0451874993742
0.0371762774885
0.00532451318577
0.0420867204666
0.0569340884686
-0.0412540063262
0.0500918589532
-0.0217126272619
0.0656291991472
0.0869023650885
-0.0158510152251
-0.012084431015
0.00506592635065
0.0323333665729
-0.0288606006652
0.0480442903936
0.0364897660911
0.00527998525649
-0.0348291248083
0.0446570292115
0.00942292902619
-0.0125629547983
0.0563767924905
0.0423534549773
-0.0257100630552
0.0052773845382
-0.0140543803573
-0.000772302213591
0.045009560883
-0.0170936975628
-0.042628351599
0.0170638430864
-0.0297600477934
-0.0246667861938
0.055648650974
0.0166259799153
0.0191254932433
0.0150515567511
-0.00237373239361
-0.0326612740755
0.0401603095233
-0.0154925100505
-0.00962039269507
-0.00698607880622
-0.00559087796137
0.00937132164836
-0.0200550612062
0.0227994136512
0.0221692882478
0.0610449276865
-0.00242573465221
0.0276789646596
-0.04560290277
-0.012415478006
0.041115604341
0.0310365799814
0.0277914777398
0.0519103147089
-0.0211435649544
0.0607824660838
0.061934556812
0.00907407421619
0.028820572421
-0.054333280772
0.0381730273366
0.0658916905522
-0.048768080771
0.0479689203203
0.0145185403526
-0.0262089781463
-0.0225530061871
0.0456293560565
0.00707629416138
-0.0167011823505
0.0246620811522
0.0603896416724
-0.0296747367829
0.0130797857419
-0.0293967220932
0.0246123448014
-0.0536302179098
0.0332306548953
0.00322296679951
0.0327381826937
0.0302201043814
0.0135701084509
0.0788682699203
-0.0219061952084
-0.00652353744954
0.00174655567389
0.0639632865787
0.0670944228768
0.0512472577393
-0.0160662345588
-0.0458014942706
-0.0283610858023
-0.00873044133186
-0.00324559630826
-0.0188618972898
0.00747799593955
0.0130583122373
0.0129710091278
-0.0130655011162
0.00734667526558
0.00981776509434
-0.0201954226941
0.00185729784425
-0.0271702166647
-0.0617211200297
-0.0107890423387
-0.025905482471
0.0181800276041
-0.072627402842
-0.0715441852808
0.00608667451888
-0.0235312376171
-0.0779807567596
-0.0217999648303
-0.0434947051108
0.0361463390291
-0.00108016724698
-0.0501691997051
0.00491861067712
-0.0274540614337
0.0319428779185
-0.00409348495305
0.0753084644675
-0.0911138951778
-0.00758306123316
0.0823192149401
0.0568714514375
0.0288139358163
0.0122229922563
0.0466007292271
-0.00873636920005
-0.0356605164707
-0.000728077837266
0.0627243742347
0.0312291570008
-0.0868767723441
-0.0687205046415
0.00261275656521
0.050058376044
0.014638165012
-0.0783321559429
-0.0229760650545
-0.00672952784225
-0.00681315455586
0.0343880131841
0.0186486653984
0.0283649731427
0.00232654623687
-0.0585502423346
-0.0514014102519
0.0235898178071
0.0629462748766
0.0551079623401
-0.0863187760115
0.0459627360106
-0.00238769757561
-0.00447752699256
-0.0606526173651
-0.0141825601459
0.0131367342547
-0.0324872620404
-0.10144982487
-0.0650287047029
-0.0315543375909
0.00593953905627
0.0314193181694
0.031351801008
0.0424842946231
0.0170132722706
0.00106321263593
-0.0296680163592
-0.00682956306264
0.00110556010623
-0.00545803038403
-0.0283369999379
-0.0218669418246
0.0642997249961
-0.0348153412342
0.0127305053174
0.0614473745227
-0.0291644949466
0.0338949859142
-0.0328999757767
0.0165582168847
-0.0142245749012
0.0513974316418
0.0251959171146
-0.00482121761888
0.0144511302933
0.0268686041236
0.0297540389001
-0.0530561767519
-0.035952731967
-0.0204255506396
0.00420011673123
0.0354968458414
-0.0377035290003
-0.0425853803754
0.00716036511585
-0.0603947900236
-0.0124951349571
-0.0300810914487
-0.0390901342034
0.00329666514881
0.0242773294449
0.00463617546484
-0.0520161427557
-0.0585827082396
-0.0366472676396
0.0388133041561
0.042172588408
-0.0224057883024
-0.0601727552712
-0.0177608057857
0.0993437469006
0.118620879948
0.0555837601423
0.0176761895418
0.0329488739371
0.0451008491218
0.0730928704143
0.0865669995546
0.0159884542227
0.00600182591006
-0.0515708066523
-0.0644951760769
-0.0432506129146
0.0261212531477
-0.0226278882474
-0.0456499047577
-0.00055895280093
0.0274438802153
0.0496395602822
-0.0648875907063
0.0276323836297
0.0552611909807
0.00641124788672
0.00738831562921
-0.0146562568843
-0.0480685792863
0.0483349487185
-0.0483003072441
0.028091872111
0.0201228745282
-0.0389078296721
0.00980763323605
-0.00943824276328
-0.00519720930606
0.0096498709172
-0.0175456572324
0.00813136808574
0.0719990879297
-0.00526602379978
-0.0324806943536
-0.055355258286
0.0357379578054
0.0368510335684
0.0354569740593
0.0193700194359
0.0152895264328
0.0184950232506
-0.0200999956578
0.0385819412768
0.0143302828074
0.0349508523941
0.0303575545549
0.011965945363
0.0433625727892
0.0131475180387
-0.0447776652873
-0.0466488823295
-0.0207547321916
-0.0534673929214
0.0182054340839
-0.0126850493252
-0.0332282707095
-0.0507705658674
0.000174983899342
0.0400172322989
0.0156702399254
-0.0576319918036
-0.000378487689886
0.00912899617106
0.0326604060829
0.078133277595
0.0581710115075
-0.0251279883087
-0.0765491351485
-0.0695731565356
-0.00289246067405
0.0621278956532
0.0710344463587
-0.0309268068522
0.0159346479923
-0.0108502078801
-0.0280242878944
0.0948298946023
0.0200801715255
-0.0250023193657
-0.0892447978258
-0.0315076485276
-0.0716517791152
-0.0290867164731
-0.0281616281718
0.0132084544748
-0.0440286770463
-0.101528957486
-0.118294879794
0.0389214232564
0.0693664997816
-0.0333898030221
-0.0340127497911
-0.100298516452
0.0287091415375
0.0538163483143
0.0136808957905
0.0644254386425
-0.0520113483071
-0.0339758917689
0.0336602516472
0.0820061042905
0.0602568760514
0.0096582993865
-0.0518129244447
0.00624726852402
0.031890090555
-0.0431081727147
-0.0245125107467
0.00727745098993
-0.0349274873734
0.0328601077199
-0.019308058545
-0.0598517991602
-0.00877057109028
-0.0267353262752
-0.0413199812174
-0.0154550727457
-0.0295173339546
-0.0393608435988
-0.054616369307
0.0371560379863
-0.0224822312593
0.0287813395262
0.0309580527246
-0.0214041750878
0.0361572951078
0.00819412525743
0.054576665163
-0.0304562449455
0.0194271281362
0.0108352107927
-0.0466507226229
0.0118037378415
-0.025620598346
0.0453536361456
0.0190228614956
-0.0632629692554
-0.0102794803679
0.0456807613373
-0.0284924544394
0.0183442402631
0.025617197156
0.0266130119562
-0.0145804006606
-0.0474006049335
-0.00798583216965
-0.00313556939363
0.0250873975456
-0.0641150400043
0.0157963205129
-0.0340783633292
0.00326615781523
-0.0507855974138
0.0447130762041
0.0596747286618
0.0183320343494
0.0265294387937
0.00688772462308
-0.0404235757887
0.0555764138699
0.0571817606688
0.0991987213492
0.0699291601777
0.0308620650321
-0.00486072711647
-0.0365399196744
-0.0164161231369
0.0130176730454
0.0147600416094
0.0273823142052
-0.0673750117421
-0.0119510320947
-0.0408812984824
-0.0314754396677
-0.0463900119066
-0.0688564181328
0.0146924629807
-0.0259507019073
-0.0278813093901
0.0012822530698
0.0807049125433
0.016060622409
0.0204389058053
0.020539117977
0.0558034405112
-0.0662623420358
-0.0109015218914
-0.0370779633522
0.0210240371525
-0.0248931981623
-0.0434187427163
-0.0399750955403
-0.0088508836925
0.0394656471908
0.0601372011006
0.00913254637271
-0.0300319809467
-0.0196785368025
0.0289077293128
0.060850802809
-0.0590103790164
-0.0274419914931
-0.0235717818141
-0.00393728306517
-0.0623130984604
-0.00733296107501
-0.0165737103671
-0.00759841548279
0.0167858116329
0.044504635036
0.0533543452621
-0.0257663894445
0.0292351748794
0.0234495569021
-0.0350314415991
0.0598256923258
0.0208514723927
-0.0587153993547
0.0278028212488
0.0705412402749
-0.0206624809653
-0.0638278350234
0.00130560412072
-0.0201210267842
0.0317356213927
-0.0217900760472
0.0408022329211
0.034288790077
-0.0672129392624
0.0368940457702
0.040076687932
-0.0334206782281
-0.0132952779531
-0.0250191353261
0.00351749034598
0.0180537421256
-0.0338075309992
-0.0484199151397
-0.0379809476435
0.0411273315549
-0.0167438946664
-0.00279620359652
-0.0184005983174
0.0131022026762
0.04760600999
-0.0187309645116
0.0711325407028
0.0388427339494
-0.019916927442
0.0174629408866
0.0328588075936
-0.00900742504746
0.0672830939293
-0.0488752052188
-0.0792394131422
0.0014855354093
-0.0821225345135
-0.017564740032
-0.0175268333405
-0.0234203785658
-0.0496636666358
-0.00847334973514
-0.0321329422295
0.0144119327888
-0.0499864146113
-0.0576814264059
-0.0263639464974
-0.0303650610149
0.0201643928885
-0.0135466977954
0.0498729348183
-0.0274787228554
-0.0607060007751
0.0140987047926
-0.00590075971559
0.083403095603
0.012390833348
0.0184409599751
0.0334622524679
0.0374894849956
-0.0144647490233
0.0309493243694
0.0275354478508
-0.015619404614
0.025003189221
-0.0377586185932
0.0512475483119
-0.0161304231733
0.0133083164692
0.0516414456069
-0.0124859195203
-0.0526825785637
-0.0286286193877
-0.0314745828509
0.0390229262412
-0.0177550408989
0.0433748811483
-3.32173985953e-05
0.0577290020883
0.0710988491774
-0.0143580874428
0.0487223863602
0.0237950794399
0.0299218781292
-0.0208156201988
0.0251302588731
-0.0354699864984
0.0379513353109
0.0544192939997
0.00459663616493
-0.0127075333148
-0.0260568428785
0.00991062819958
0.0179777611047
0.023992555216
0.0215741526335
-0.0103003820404
0.00799110066146
-0.044873252511
0.0231984257698
-0.0268183592707
-0.000800251436885
-0.0231565516442
0.021935461089
-0.0397828482091
0.0278182402253
-0.0361827686429
0.0548129491508
-0.00534978229553
-0.0313555896282
-0.00664580333978
0.0145672345534
0.0459889397025
0.0196961592883
0.00576732493937
0.0336654484272
0.0512250810862
-0.0182514619082
-0.00518123898655
-0.0486896894872
0.0212595947087
0.0244453232735
-0.00678679486737
-0.0151173584163
-0.0494771450758
-0.0426414050162
0.00940453540534
-0.0471276566386
0.010348290205
-0.0310001336038
-0.0392547473311
0.0477637387812
0.0445931442082
-0.0319348908961
-0.0117991408333
-0.0389503873885
0.0356062203646
0.0229029729962
-0.0464512035251
-0.0557018220425
-0.0387850478292
-0.0124565409496
0.0224079377949
0.0294078812003
-0.0011605223408
-0.0203965920955
-0.00313122314401
-0.0301883611828
-0.0465632788837
-0.0427926070988
-0.0475640557706
-0.0169945694506
-0.00168251700234
-0.0375904403627
-0.0120248831809
-0.0346177704632
0.0487567484379
-0.0143296634778
-0.0291085802019
0.0315239578485
0.0621608532965
0.0580190457404
-0.0349273085594
0.0418201610446
-0.033312369138
0.0503444708884
0.0285101588815
0.0328703671694
0.037161577493
0.0356753990054
-0.019334634766
-0.0393707342446
-0.0443985126913
-0.0455548726022
-0.018141143024
-0.0640967041254
-0.0446692891419
-0.076331526041
0.0322845391929
-0.0318567566574
-0.0506752505898
-0.0772077515721
-0.0758509710431
0.00870485045016
0.0699082538486
0.0123297926039
-0.0402307994664
-0.0442198030651
-0.0143007813022
-0.00921871885657
0.0696724876761
0.0331807471812
0.00513497972861
-0.0778870657086
0.00915159564465
-0.014823093079
-0.0376593470573
-0.0877464264631
-0.020183917135
-0.0361741520464
-0.0632672011852
-0.0158689171076
0.00626396294683
0.00225111469626
-0.073002025485
-0.0394002757967
0.00676621543244
0.071239463985
0.0365487076342
0.00546557735652
-0.0159923862666
0.0331962518394
-0.0307844318449
-0.0169019885361
0.000412288820371
0.0906013846397
0.0175399184227
-0.0193868651986
-0.00467950804159
-0.020689342171
0.0674615576863
0.0304235294461
-0.0802135095
-0.00529616791755
-0.069143794477
-0.116664126515
-0.0890454500914
-0.0139103736728
-0.0884757116437
-0.0224402714521
-0.0461287274957
0.00246120686643
0.0746677145362
-0.0386893600225
0.00233446853235
0.0455896146595
0.0173655748367
-0.0373794399202
-0.0454729609191
-0.00890355650336
-0.0463009625673
0.0387688353658
0.0271483231336
-0.0605835802853
-0.0486866608262
0.0104857441038
-0.0652004033327
-0.0657564178109
0.00907410588115
0.0223073214293
0.0233662799001
0.0153273884207
0.0150131285191
-0.0320440456271
0.0270796436816
0.0110621890053
-0.0159637406468
-0.0118930768222
0.0313499830663
0.0536739341915
0.038228970021
0.0347153693438
-0.0219274125993
0.0243987962604
0.0446067936718
0.0211090259254
0.0343620218337
-0.0329737998545
0.0236120205373
-0.0373143404722
0.0459825992584
-0.0120981838554
-0.0381539687514
-0.0195328108966
0.0214964002371
-0.0486257746816
0.0132335564122
-0.0353936627507
-0.0252073388547
-0.0643038824201
0.0104525489733
0.0156088657677
-0.0568857714534
-0.0558554083109
-0.0202782601118
-0.0284140389413
0.0354046411812
0.0396257825196
-0.0505707189441
0.0404269136488
-0.0331996902823
0.00754784606397
-0.0386424511671
-0.0464551970363
0.00202020467259
-0.0301668588072
0.0408717989922
0.00291912513785
-0.0418597273529
-0.0322599485517
0.0154594816267
-0.00372657738626
-0.00648639677092
0.0358601659536
-0.0453704483807
-0.0302251335233
-0.0501721799374
0.00310868048109
0.00552190793678
0.0317739211023
0.0266661401838
-0.0151688782498
0.0314008966088
-0.0317413024604
0.0222725234926
0.0309371445328
0.00197941111401
0.0309735480696
0.00773870944977
0.00702887400985
0.0657982975245
-0.0349146351218
-0.0295033175498
-0.0157832838595
0.0248786769807
0.00861737690866
-0.0241961218417
-0.0194068327546
-0.0209957137704
-0.0204043667763
0.00675259483978
0.0518093705177
-0.00335376360454
0.00641638319939
0.0290500614792
-0.0229625813663
0.018616123125
-0.000152280612383
-0.00249735475518
0.0763113424182
0.0218946523964
0.0090126991272
0.0163287762552
-0.0298227481544
-0.0298882070929
-0.0532723367214
-0.0854435786605
-0.067836239934
0.0094041582197
-0.00950310006738
-0.056356664747
0.0110069876537
0.0277532804757
0.00485875597224
0.0145182339475
-0.0162752717733
0.0291309729218
-0.00582445040345
0.0667660459876
-0.00170210644137
0.0763943940401
0.0434198379517
-0.0113761015236
0.0287331733853
0.027154892683
0.0189994815737
0.0620344989002
0.0129580823705
0.00681433826685
-0.0521036870778
-0.0199650544673
-0.10711992532
-0.0318108871579
-0.0129187330604
-0.0965213030577
-0.0664700642228
-0.0443212017417
-0.0324294492602
-0.0629563331604
-0.0591307841241
0.0382430963218
-0.0337484106421
0.0331522449851
-0.0528515726328
0.0354982838035
0.0425479151309
-0.0519595630467
0.0277377106249
-0.00319996173494
-0.0197855979204
-0.0382467769086
0.0293519124389
0.000626861175988
0.0263380426913
-0.0519608929753
0.0372370667756
-0.0207899697125
0.0306975785643
-0.00279707298614
-0.032536663115
-0.0378773771226
-0.0297449696809
0.0126285655424
-0.015186120756
0.021649826318
-0.0317866764963
0.0278431177139
-0.00168785499409
-0.0376803055406
-0.058093726635
0.00660580862314
0.0451614335179
0.0324481613934
-0.00635502301157
-0.0665798857808
0.0149029884487
-0.046498734504
-0.0333234854043
-0.0474853143096
-0.0491155162454
-0.00716667529196
-0.00820388551801
0.0188990235329
-0.046896327287
0.0307328291237
0.0102727850899
0.0455120578408
0.0887426957488
-0.0168192833662
0.0133196609095
0.00624290527776
0.087747246027
-0.0518140010536
0.00633835420012
0.0253180190921
0.0149798355997
-0.0313462428749
0.00346427061595
0.0194606650621
0.0121929123998
0.0363817587495
-0.0274672321975
0.0633377805352
0.033917773515
0.0619516000152
0.0761045068502
0.0597745925188
0.0039952523075
0.041095353663
-0.00524047622457
0.0820680260658
0.00248525547795
-0.0639649927616
0.0565392784774
-0.0261787381023
-0.0211435034871
-0.0307785198092
-0.0185208246112
0.0463130921125
0.0305183362216
-0.0213223211467
0.00911784544587
0.0259805247188
0.0469032935798
-0.0106261111796
-0.0575319752097
-0.000810174329672
-0.0306208245456
0.0031914440915
-0.00826263334602
-0.056789137423
0.00721608987078
-0.0440317578614
-0.0616976805031
0.00110642099753
-0.00872443709522
-0.0266093537211
0.0762152671814
-0.0135544016957
0.0455960147083
0.0117397839203
0.0936744585633
0.0297892224044
-0.0526347160339
0.0460078082979
0.0410514697433
-0.0153384665027
0.0358364060521
0.00519055128098
0.0321445651352
0.0468786545098
-0.0324285551906
-0.0819150805473
-0.0325300060213
0.0437583737075
-0.0649132281542
0.0530979894102
-0.041292194277
-0.00371212745085
0.0307637266815
-0.0506323389709
-0.0497082434595
-0.0370437465608
-0.0409468710423
-0.0547982230783
0.0104292333126
-0.00209994590841
0.00457165343687
0.024490468204
-0.0267237015069
0.00305839022622
-0.0182112585753
0.0111916409805
-0.0177906770259
-0.011971748434
-0.0388467311859
0.0567029863596
-0.0571599006653
0.00451526464894
-0.0219513233751
0.0167568903416
-0.0261943116784
-0.0270418860018
-0.0106637189165
-0.0636392608285
-0.0195179916918
-0.0516853407025
-0.0302444063127
-0.0149716613814
0.0299367364496
0.0358967669308
0.0140362596139
0.0439459942281
0.0133522804826
0.00302740535699
0.0522513650358
-0.0112249404192
-0.0164352487773
-0.000891946721822
-0.00626577343792
0.0346544347703
0.00326899578795
0.041939754039
0.0562191531062
-0.0166687592864
-0.00161003321409
0.0644674748182
0.026904495433
0.0287275873125
0.0341922454536
-0.00355490064248
-0.010932459496
-0.0546304434538
-0.0593519844115
-0.0713053271174
-0.0433561094105
-0.0582613199949
-0.00550957582891
-0.0515509322286
-0.00215309718624
0.0273699369282
0.0200201515108
-0.000143936340464
-0.046869084239
-0.0296468511224
-0.0505370050669
-0.00366088724695
-0.0359873734415
-0.010769393295
0.00566588854417
-0.0259133465588
-0.0215968079865
-0.00546815944836
0.000638908473775
-0.0114751905203
0.0181576590985
-0.0516676530242
-0.0232075881213
-0.0618800371885
-0.0503340400755
0.00591510720551
0.0106690516695
-0.0137409484014
-0.0507655106485
0.027707207948
0.0303472131491
-0.011425212957
-0.0532897002995
-0.0313616208732
0.00836017075926
-0.000922992941923
0.00916497223079
-0.0291585382074
-0.0608608722687
-0.0278086140752
0.0314644724131
-0.0557839125395
-0.02384025231
-0.0103289466351
0.019614059478
-0.0205438658595
0.0200973935425
-0.0269034076482
0.0289055667818
0.0291818194091
0.0626170486212
0.0447488799691
-0.0295534394681
-0.0132423257455
0.0304981246591
-0.046780180186
0.0511380806565
0.00360637716949
-0.00166000623722
0.0356964506209
-0.000128750398289
0.0447497181594
-0.0257229227573
-0.0183292385191
0.0350498706102
-0.00329779274762
0.069158770144
0.0278013385832
0.0656033232808
-0.0137640554458
0.0469736531377
0.00529560819268
-0.054963413626
0.0556086264551
-0.042240973562
-0.0377718769014
-0.0479714423418
-0.0242060255259
0.0346277244389
0.0401112027466
-0.0213827677071
0.0399914830923
-0.0142843127251
0.0315658971667
-0.0037691409234
-0.0244364570826
0.00465118605644
0.022702774033
-0.029023649171
0.0305266808718
-0.0128639005125
-0.00657341768965
0.00409590825438
-0.00729041593149
0.00576242664829
0.0278696324676
-0.0543351620436
-0.0168961174786
0.0302877258509
0.0705796256661
-0.0104351928458
0.0874801054597
0.0311567168683
0.0360047705472
-0.0283388197422
-0.0181775502861
-0.0760150253773
-0.0800915062428
0.0162219852209
0.0331293269992
0.0356696024537
-0.0330204106867
0.00356387835927
-0.0602010041475
-0.00815143994987
0.0153269646689
-0.0366532728076
0.0489848703146
-0.0161070339382
-0.00496746785939
-0.0244215875864
0.0375671610236
0.00549296941608
-0.0279725529253
-0.0936633273959
-0.0733428820968
-0.00765565596521
-0.00880033802241
-0.072629891336
-0.00416914001107
0.0345794148743
-0.0515821538866
-0.0314612984657
0.0448487624526
0.0128148151562
-0.0553883090615
0.0100989015773
-0.0219340659678
0.0530306585133
0.00124846911058
0.000962855527177
-0.0295757465065
-0.0485460087657
-0.0335228480399
-0.0348420143127
-0.041401412338
-0.0239686314017
-0.0126191722229
0.00141875410918
-0.0510599985719
-0.0765481516719
-0.0422426387668
-0.102870881557
-0.0142903691158
0.0382739529014
-0.0375234857202
-0.00334359216504
-0.0983384400606
0.0357837714255
0.0350458063185
-0.0300204511732
-0.00248713232577
-0.0148159805685
-0.0142655223608
0.0539919249713
0.0318829379976
0.0771026611328
-0.0276733525097
-0.055166170001
-0.0155765870586
0.0477449037135
0.0762137174606
-0.0012355139479
-0.0130419200286
-0.0494429022074
-0.0380022265017
0.0106765916571
0.0565541572869
0.0189611446112
-0.00884293299168
-0.03040651232
-0.0496384762228
-0.0441968664527
0.0391489900649
0.043470300734
0.040232334286
0.00980506371707
-0.0591358542442
0.0441522039473
0.0157590359449
0.0018650497077
-0.0455185249448
0.0280469618738
0.035434063524
-0.057367797941
-0.00612669438124
0.0223056059331
0.0392971895635
-0.0671037659049
0.0138632860035
0.0157736428082
-0.0344557911158
0.025273244828
0.00123127747793
-0.0143251130357
0.00729141896591
-0.0814550593495
-0.0821227654815
0.0351073928177
0.0639943927526
0.079145245254
0.0518977567554
0.0180311817676
-0.0466823652387
-0.00200514402241
0.0473130010068
0.0644591748714
0.0300277303904
-0.0200595874339
-0.0460805743933
-0.00324574136175
0.10176423192
0.106481686234
0.011875689961
0.00206338567659
0.0252083912492
0.043255019933
0.0740720331669
0.00456400355324
-0.046797528863
-0.0369133241475
0.0224649775773
-0.0396168865263
-0.063038289547
0.000317487138091
0.00864496733993
0.0194370225072
-0.0555804818869
-0.0026237370912
-0.0384394712746
0.00554041145369
0.0112603539601
-0.0177697371691
0.00534261437133
0.0332660004497
-0.00832347851247
-0.0350915566087
0.0227206666023
-0.0260130483657
-0.0629096478224
-0.0578801706433
-0.0467268750072
0.0513273999095
-0.0417712442577
0.000609078851994
0.0187486764044
0.021999636665
0.0185971688479
-0.0557364821434
-0.0343017578125
-0.0699589848518
-0.021929083392
0.0435668900609
-0.00972161907703
0.0121237048879
-0.0488743633032
0.00118534942158
0.0509239397943
-0.0102703636512
-0.000976552371867
0.0112360995263
-0.0506386123598
-0.0566995367408
-0.062070466578
-0.0240043420345
0.0316192209721
0.0260946173221
0.0325451903045
-0.0271544065326
0.057977322489
-0.0108789661899
-0.0732623413205
-0.061168320477
-0.0197742991149
0.0340513885021
0.0319349132478
0.0246752165258
-0.0425661206245
-0.0334831736982
-0.000937693694141
0.0479743778706
0.118728965521
0.063797198236
-0.0555655956268
0.00861366000026
-0.0248577501625
0.12411711365
0.028918646276
-0.0377005189657
0.0125024309382
-0.0623134151101
-0.0191015191376
0.00803792010993
-0.0176068451256
-0.0123389931396
0.00825443770736
0.018975423649
-0.0284930448979
0.00936808809638
0.0181894656271
0.0728876069188
0.0802958756685
0.000867680530064
0.0150025933981
0.0337107367814
0.0754957795143
0.0278302803636
0.0540927536786
-0.052174590528
-0.0464462712407
-0.0167469959706
0.0590236969292
0.0945570617914
-0.0551257133484
-0.0370774269104
-0.0877580195665
-0.0609875135124
0.00771273765713
-0.0407196395099
0.0528143011034
-0.00322027527727
-0.051600150764
-0.0474232621491
0.0449229255319
-0.0159394070506
0.028996758163
-0.0352802947164
0.0390220731497
-0.0263351332396
0.0360849276185
-0.0151724945754
0.0739980638027
-0.0110059157014
0.0198927577585
-0.0526236891747
0.0261015538126
-0.00177921529394
0.0322087258101
-0.0222362261266
-0.0723527744412
-0.00119808583986
-0.0352452248335
-0.0335499346256
0.0293151438236
0.0149093866348
0.0336510054767
0.0558333434165
0.00324238534085
0.0315660946071
0.0404168851674
0.0262531191111
0.0598174072802
0.0412661582232
-0.0149231189862
-0.0772140175104
-0.0726421773434
0.0139446351677
0.00237721367739
-0.100484773517
-0.0919003114104
-0.0898819714785
-0.0475657694042
0.00741558894515
0.065392807126
-0.0210131295025
0.00989075563848
-0.00219643232413
-0.0321327485144
0.0535912029445
-0.0150955459103
-0.021258123219
0.0479558818042
0.0751603171229
-0.0529936738312
0.0255590490997
-0.0544515624642
-0.0197489168495
0.0708914250135
0.0253957863897
0.0294218268245
-0.0743231922388
-0.0700189843774
-0.0296715591103
0.0733898729086
-0.0242249984294
0.0156385935843
0.0102529637516
-0.043796569109
0.0151441125199
0.0497384779155
0.0555935241282
0.0476238206029
-0.0273677092046
-0.0505209043622
0.033305015415
0.0167522802949
0.038809157908
-0.0772110670805
-0.0448373667896
-0.0412252731621
0.0402155183256
0.0253897365183
-0.0313692130148
0.0354424677789
0.0506897456944
0.0164105482399
0.0212425328791
-0.0749470815063
-0.0484590306878
-0.0582660883665
-0.0309781190008
0.00967526528984
-0.048698194325
-0.0237114541233
-0.0642999336123
-0.000897240650374
-0.0381393879652
0.0262421108782
-0.0463752672076
0.0289609413594
-0.0342961587012
-0.00767577718943
-0.0156265068799
0.0369554385543
0.0411612316966
-0.0455500856042
0.00727698020637
0.04572577402
0.0319057032466
0.0537616163492
0.0184063296765
-0.0191876739264
0.0393503010273
0.0319646820426
0.016927395016
0.00617029890418
-0.0328235961497
-0.035737849772
0.0131841693074
0.010436091572
-0.0579043589532
-0.0106902811676
-0.0104024512693
0.0103820795193
-0.0414323396981
-0.0175032578409
0.0167315099388
-0.0559896230698
0.00661140820011
0.0336665995419
-0.0518969371915
-0.0132051622495
-0.00653094239533
-0.0385607853532
-0.0338749326766
-0.0564455203712
0.0361445434391
0.0115735037252
-0.0472883097827
-0.0453660674393
-0.0213528517634
0.0133721427992
-0.0446935705841
-0.0400350950658
-0.0402578115463
-0.0366163477302
-0.0283904224634
-0.0339576937258
-0.0158633291721
0.00596812460572
-0.0263164695352
-0.0429970249534
-0.0337707288563
0.0294678863138
0.040311075747
-0.013158461079
0.00271646189503
-0.0644138455391
-0.041744004935
0.062774926424
0.0438491180539
0.0463425889611
-0.00669066142291
-0.0270289573818
0.0557675473392
0.027521174401
-0.00432127015665
0.0343479812145
0.00431345449761
-0.0357603505254
0.0365430340171
0.0619631148875
-0.0324409343302
-0.0373512841761
-0.0251613147557
0.0477389469743
0.00398783292621
-0.0500279702246
-0.0416068844497
-0.0366648249328
0.0400274656713
0.00432685529813
0.0384400263429
-0.0332429483533
-0.0458528101444
0.0616825856268
0.0499931722879
-0.0308766253293
-0.0575723089278
0.0140107525513
-0.0099496236071
-0.00018586817896
0.0062114847824
0.0494538098574
-0.02685604617
-0.0517320074141
-0.0483167208731
0.046062361449
0.0386712066829
-0.0360485874116
0.0291521456093
0.04647449404
0.0262138023973
0.0111228134483
0.0269173011184
-0.0123904887587
-0.0122602162883
0.0685295760632
0.00638314755633
0.0126731926575
0.0230357218534
0.0292343683541
0.00575966434553
-0.0563450716436
0.0245006531477
-0.0706310644746
0.0118626896292
0.0538064949214
-0.0340590924025
0.0114935068414
-0.0688273832202
-0.0721631720662
0.0368115156889
-0.0125704100356
-0.00382928969339
-0.0356361679733
0.0300587620586
0.0204409416765
-0.0295933634043
0.0164883825928
-0.0583965554833
-0.0013154996559
-0.0451265983284
0.0191411990672
-0.052840039134
-0.0260387416929
0.0136403581128
-0.00710901385173
-0.0290735084563
-0.0391792170703
0.0224969368428
-0.0469315759838
-0.0213754791766
-0.0479015931487
-0.0444422960281
-0.0362683273852
-0.0326354429126
-0.0357598885894
0.0455234870315
-0.0252064019442
-0.0409144498408
-0.0623233281076
-0.0344583615661
0.0221512634307
-0.054926969111
-0.0357020869851
0.0237776078284
-0.0566270649433
-0.00507212942466
0.0260807648301
-0.0512462407351
-0.0662597343326
-0.0357973314822
0.00939541403204
0.00161054672208
-0.0709519758821
-0.0281234756112
0.00145924417302
-0.0246131233871
-0.00824501365423
0.0258051734418
0.0288019701838
0.0366839729249
