0.0779939442873
-0.0748476460576
0.0208050794899
-0.0190955232829
-0.0128345005214
-0.0283506382257
-0.0785278081894
-0.0357213132083
-0.0571657009423
-0.0433703549206
0.0314881429076
-0.0427491553128
0.0372491851449
0.0138303460553
-0.066921852529
-0.0460598170757
0.123730011284
-0.0583073198795
0.00793681945652
-0.0297632403672
-0.117505736649
-0.0120978197083
0.0418128706515
-0.0493989251554
0.0410400480032
-0.0121295088902
0.0790338739753
-0.133300319314
-0.0302470549941
-0.0345690660179
-0.0505986101925
0.00538711389527
-0.077920652926
0.0566597431898
0.0351465716958
-0.0410287380219
0.101931668818
0.0573087856174
0.0175489988178
0.0247913487256
-0.0455467514694
0.13340190053
-0.0111669190228
-0.00252425228246
0.075755700469
0.0358590111136
0.07719258219
-0.0107916835696
0.0747206136584
0.0371336899698
-0.0616587400436
-0.0192752759904
0.0158179886639
-0.0304472390562
-0.0481062680483
0.00251624523662
-0.0020346341189
0.0143363876268
0.105718806386
0.0201724544168
-0.0467162542045
0.0145469009876
0.0244360789657
0.0695466175675
-0.117065526545
0.0294978320599
0.0944701656699
-0.0613240748644
-0.138609826565
-0.032936450094
-0.0465379878879
-0.0310805272311
0.0406932793558
0.0406911224127
0.0330788120627
0.0102140968665
0.0325435362756
-0.058047272265
-0.0536380596459
-0.0859242230654
-0.0378759354353
0.0187358763069
-0.0576989762485
0.108944416046
-0.0557414293289
0.0118634328246
0.0760052278638
0.0124552613124
-0.0984965935349
-0.0822190493345
0.0914538502693
-0.0243024732918
0.0494868569076
0.0248690322042
0.0033494324889
-0.036869328469
0.0678579211235
0.100598834455
-0.0981823205948
-0.0577131286263
-0.090511597693
0.119661942124
0.0306596066803
0.00848040543497
-0.0130332084373
0.0553267262876
-0.0265804193914
-0.0972013995051
0.0215912163258
-0.0598930753767
0.0554966181517
-0.0501292459667
-0.0173302292824
0.00298600038514
-0.0286919921637
0.11242826283
0.00241888826713
-0.0266643706709
-0.0123385824263
0.0769109129906
0.0181309692562
-0.0449572727084
-0.00862888246775
-0.0535601228476
-0.0624085441232
-0.0592126771808
-0.0281062163413
0.0599757507443
0.0261082220823
0.0368316136301
0.0882639363408
0.0331457555294
0.00589444674551
0.0175902284682
-0.0719873532653
-0.0197562444955
-0.038149934262
0.0405550263822
-0.0582119747996
-0.0669395625591
-0.0669343024492
0.00385755975731
-0.0414468757808
0.0417573302984
-0.0485952757299
-0.112901829183
-0.058838211
-0.00523451482877
0.0978663638234
-0.116402596235
-0.0138175617903
-0.0103424815461
0.124170698225
-0.0566309280694
0.118025623262
-0.0268935784698
0.00807937327772
0.0943184345961
-0.0974942743778
0.0589327290654
0.0170190464705
0.124276511371
-0.0203366819769
0.00950762350112
-0.0736505016685
0.0696654543281
0.0298055745661
0.0298033785075
0.0430049113929
-0.00581287872046
0.0928347334266
-0.0149672264233
0.110337674618
-0.0157145466655
0.0387997254729
-0.0532191358507
-0.125944793224
-0.029606230557
0.0645297393203
-0.0113219479099
0.000792130827904
0.0809859260917
0.036478985101
0.000999324489385
0.0578009448946
0.0361681357026
0.0174780581146
-0.0206462927163
-0.0331823714077
0.0523011274636
-0.049507111311
-0.0152158234268
-0.0249916017056
-0.0404044613242
-0.0192290935665
0.0190446879715
0.016259001568
0.0258822292089
0.0418159663677
-0.00953594222665
-0.0429355800152
0.0311679132283
-0.0420368015766
-0.0274845082313
0.00713354349136
-0.0817623063922
0.025223011151
-0.0837285369635
0.0259091351181
-0.0578683577478
-0.0284835081547
0.0481206737459
-0.0734254941344
-0.000694596383255
0.0246107317507
-0.0576561503112
0.0713163912296
-0.0279316902161
0.0892739519477
0.0537934340537
0.0730658695102
-0.0318351909518
0.107956573367
0.0636107623577
-0.0978058278561
-0.0313835144043
0.0676962286234
-0.0958885103464
-0.070716843009
-0.085220143199
0.035788256675
-0.0248187631369
-0.0302429571748
-0.129927426577
-0.047722492367
-0.0781489089131
-0.0780151262879
-0.0095761846751
0.0273502599448
-0.058007132262
0.00028559792554
0.0945121347904
0.00644163414836
0.0571051500738
0.0107961436734
0.016671622172
-0.0954334586859
0.0540162920952
0.0964639484882
-0.0275481119752
-0.0308962445706
0.0631325095892
0.109901078045
-0.0600595586002
0.0409654974937
0.113853596151
-0.0188879389316
0.0590973608196
-0.103254616261
0.0175711754709
0.0556227751076
0.017408715561
0.0195553936064
-0.0645654797554
-0.0349984243512
0.0732230395079
0.0605488047004
-0.127827167511
-0.0407237298787
-0.00654679583386
-0.0861850306392
0.031575255096
0.0506662540138
0.00816611666232
-0.0363346636295
-0.0116673121229
0.124132938683
-0.03965812549
0.142959728837
0.0602758154273
-0.00603393325582
-0.0348164364696
0.0549196973443
-0.0628823786974
-0.00616685533896
0.0357768349349
-0.0137785347179
0.0240695979446
-0.0493069291115
-0.0187254399061
0.078009866178
0.0179912447929
0.0176463089883
0.0884498134255
-0.110093392432
-0.158722400665
-0.0487783029675
0.0382761135697
0.0363666974008
-0.0286157969385
-0.0254674647003
0.0740195289254
-0.0541526302695
-0.0649457275867
0.0630732253194
0.0191609226167
0.0654693320394
0.0568781159818
-0.0299579594284
0.0122487200424
0.104264684021
0.0763448253274
0.0554811470211
0.0255946516991
-0.0576757267118
-0.0327666662633
0.00336642656475
-0.00358473300003
-0.097285091877
-0.000361565907951
0.0217824243009
-0.00497767329216
0.0401100739837
0.0756573155522
-0.0169277191162
-0.0717078968883
-0.0272044036537
-0.0893467739224
-0.0268219728023
-0.0807880982757
0.0520581007004
0.0385279208422
-0.0252932608128
-0.0845612958074
-0.0365990325809
-0.0396426618099
0.0463519692421
-0.025472836569
0.0832839235663
-0.0318707972765
0.0157354213297
-0.0316142141819
-0.04982759431
-0.0259664542973
-0.00776290846989
-0.110078856349
0.13935777545
-0.0487389080226
-0.0543418303132
-0.0608321093023
0.0957800149918
0.0312703028321
0.107689596713
-0.0278699994087
0.0741961151361
-0.052000015974
-0.102728225291
-0.0661789849401
0.0450384914875
0.0176683049649
0.146569743752
0.0966046154499
-0.0416005700827
-0.0123189203441
-0.0111679770052
0.0513106025755
-0.0163857527077
-0.0240639485419
0.106807179749
0.0309793110937
0.0744322389364
0.0919287800789
-0.0183809902519
-0.10646122694
0.0196595657617
0.0422341115773
-0.0278561115265
0.057238060981
0.00367445498705
0.0916328579187
0.0406396463513
-0.0491790138185
0.0294028650969
-0.0225382111967
0.0498055815697
-0.0149870999157
-0.0964922085404
-0.0110498024151
0.00107699283399
0.0275519955903
0.0613216198981
-0.00318969250657
0.0206778794527
0.0719987154007
0.0725380703807
0.0547986961901
0.0227751582861
-0.0272575411946
0.0496199950576
-0.151393026114
-0.066533125937
-0.00526529503986
-0.0233912020922
-0.0288178212941
0.0288823209703
-0.0691469684243
-0.0722386315465
0.0021105397027
0.0638076141477
0.0470211319625
-0.105886310339
0.0693685859442
0.0364120341837
0.0154692027718
0.0792152509093
-0.0984798595309
-0.0350298583508
0.0790987461805
-0.0353007167578
0.182932347059
0.0669553130865
0.0281146727502
0.0492788664997
0.0204594992101
-0.0799095183611
0.0427969358861
-0.0218031425029
0.0521709173918
-0.174899414182
0.060242921114
-0.0457576811314
0.118161872029
0.0686251074076
-0.0487294606864
-0.100871816278
0.0613370500505
0.0257296003401
0.0342121832073
0.0634762346745
-0.136946558952
0.0182839278132
-0.118300028145
0.0107083274052
0.0109996357933
-0.0209126118571
0.133422210813
-0.0999896228313
0.0318246036768
-0.0529103837907
0.00251212366857
-0.0256373714656
-0.07168148458
-0.0762874409556
-0.0571945756674
0.0431420691311
-0.0905319005251
0.0852919518948
-0.0270627215505
-0.00678927684203
0.0227929484099
0.00854165945202
0.00910683814436
0.0944786965847
0.0514403060079
0.00678661232814
-0.037380900234
-0.00534024555236
0.0359567031264
-0.0231129471213
-0.104683838785
-0.0836529880762
-0.0238453969359
0.0309222564101
0.0605465173721
-0.0767062157393
-0.0510694719851
0.0729599893093
-0.0624357014894
-0.0346261933446
-0.034802723676
0.0466341376305
-0.0523671284318
0.0624396167696
0.023174284026
0.0849286615849
-0.0506137758493
-0.122989535332
-0.0232713520527
0.0254425015301
0.0642284378409
-0.00439356546849
-0.155453443527
0.0229770168662
-0.0599298216403
0.0364865139127
0.0411488115788
-0.0496805757284
-0.0178822111338
-0.00597901828587
-0.0568268150091
0.0784431025386
0.102017760277
0.0336509644985
-0.054555721581
0.0197190176696
-0.0623625218868
-0.0205810926855
0.0287981368601
0.00326323718764
-0.0606281198561
0.0214081704617
0.0718203336
-0.0155488662422
-0.149005442858
0.0157745201141
0.0101239923388
-0.0644106790423
0.0957380384207
-0.0208050068468
-0.0166316404939
0.0193405281752
-0.0579596981406
-0.103706642985
-0.0892116427422
-0.00666898768395
0.0506545715034
-0.0503923222423
0.088116183877
0.0231055226177
0.055721256882
0.00709899747744
0.0513199903071
-0.101518474519
0.0598169565201
-0.113657616079
-0.0276329424232
-0.00185309711378
-0.0632776841521
0.0601052716374
-0.0285917893052
0.0461127012968
0.0275970250368
0.0464986748993
0.0628411993384
-0.0340211726725
-0.0629894807935
0.0439725220203
0.0533016771078
0.0760868489742
0.00378863373771
-0.00596153317019
-0.0118969697505
-0.0756997987628
0.0768461227417
-0.0549239069223
0.0381754599512
-0.0460484735668
-0.0314434207976
-0.090036354959
0.0482282564044
0.0947328358889
-0.0379509367049
-0.00954690203071
0.0580998845398
-0.0754262581468
0.0245413500816
-0.108881689608
-0.0132489493117
0.0377314016223
0.125918895006
0.0230145566165
-0.0665111094713
-0.0286711454391
0.0634900704026
0.0122128333896
-0.0392601974308
-0.0306343883276
-0.079255066812
-0.0359153933823
0.0600395165384
0.0915012136102
-0.122344262898
-0.0391897894442
-0.00800227653235
0.0360938981175
0.0401121973991
0.0087731089443
-0.0373330079019
0.129907876253
0.0805767774582
-0.0382300913334
0.0645346269011
-0.0250628869981
0.0933981612325
0.053623508662
0.00637543993071
-0.0510944873095
-0.0923228338361
0.00877982471138
-0.0973357856274
0.0218820571899
0.00276190252043
-0.0233343001455
0.00817385967821
-0.0084179546684
-0.021308850497
0.0120505830273
-0.00266270921566
-0.000423690333264
0.101288817823
-0.0242512524128
0.0305932126939
-0.0089814318344
-0.00896484963596
0.138180091977
0.0345115847886
0.0640685409307
0.023442350328
-0.0216711871326
-0.0684831514955
0.0292593762279
-0.0207143649459
-0.0636782124639
0.0644252300262
0.0692875087261
-0.0128079410642
-0.0125907659531
-0.0522531978786
-0.0197773743421
0.0336160138249
-0.0753947868943
0.108039572835
0.0115512544289
0.0126487575471
0.0281771272421
-0.00197047833353
-0.00991196278483
0.0363578312099
0.0384976752102
-0.000619655533228
-0.00897990912199
-0.0156014505774
-0.107465073466
0.0888504683971
-6.20462160441e-05
0.0142109515145
0.0681008026004
-0.0299701672047
-0.0843776911497
0.0164254251868
0.0490647740662
0.0223260819912
-0.0855211913586
0.129863813519
-0.057018995285
0.047829374671
0.0311063919216
0.0861579105258
0.0612763054669
-0.0344694405794
0.096959784627
0.107220157981
-0.0011984212324
-0.0167558379471
0.145071193576
-0.164905831218
0.0240988936275
-0.0456183701754
-0.109894491732
-0.0205683987588
0.0812930837274
0.0608607679605
-0.00503077497706
-0.0202664993703
0.0350577533245
-0.0471182316542
-0.0632767751813
0.076155140996
-0.0115602975711
-0.0303619019687
0.0868238806725
0.0202657002956
0.0842856243253
-0.00341266207397
-0.0473410636187
-0.0604572109878
0.0436846092343
-0.0424571111798
-0.0070233354345
-0.108962960541
-0.0199805535376
0.0116674993187
-0.0534951873124
-0.027427604422
0.0905045196414
-0.0344276055694
-0.0342239364982
-0.0203163865954
0.0435635186732
0.0228522233665
0.0758999288082
-0.026129918173
0.062246773392
-0.104069493711
-0.0170249640942
-0.00668763089925
0.0204822607338
-0.0729408860207
0.0949281305075
0.104754336178
-0.0211322735995
-0.0230987668037
0.0839084982872
0.00277880160138
0.0776298269629
0.0834979340434
-0.0080625442788
0.0776620730758
0.0317279808223
-0.0349206738174
-0.0625909045339
-0.0556947700679
0.0273239482194
0.0550028160214
0.0210278052837
-0.0181330982596
0.0325427465141
-0.0820812731981
0.108061343431
0.0220027435571
-0.0546859391034
0.113283544779
0.0265666488558
0.0394099019468
-0.0118486005813
-0.0574374645948
-0.015746159479
-0.0386541225016
-0.0333015732467
-0.0904399752617
0.00817590113729
-0.040827114135
0.0820914432406
0.0175647623837
-0.000749265542254
0.0724201276898
0.0754777491093
0.0192949902266
0.0213623214513
-0.024058541283
0.00960454344749
-0.0900782942772
0.0413611531258
-0.0397059582174
0.04637638852
-0.00538995536044
-0.089759118855
-0.0504444502294
0.0879315584898
0.0406948961318
-0.136369228363
0.19647693634
-0.0673878416419
-0.0248065348715
-0.041693687439
0.00539066037163
-0.0391363687813
-0.0278079193085
-0.00772591866553
0.084193572402
0.181028410792
-0.182788103819
-0.0556864105165
0.088342346251
-0.00279443594627
0.0267946328968
-0.0221412237734
-0.00716776261106
0.0924967005849
-0.0530444383621
-0.0162440147251
-0.0179931037128
-0.0780292898417
-0.0190880745649
0.0190813504159
0.0385929457843
-0.00369046349078
-0.00585615960881
-0.0149882836267
-0.0588499084115
-0.129504993558
0.0495326034725
0.0277478583157
0.0224774535745
0.111871868372
-0.104400679469
-0.0310640949756
-0.10044991225
-0.00476815318689
0.0763549953699
-0.0501195378602
0.0625957921147
0.0743500888348
0.0920914560556
-0.078489407897
-0.0940785706043
-0.0315510220826
-0.0421183407307
0.00533570023254
0.0865203738213
-0.106451369822
0.0163619555533
-0.00392450857908
0.0177631191909
0.0500313825905
-0.0528041608632
0.00321975327097
-0.127330467105
-0.00517791276798
-0.00928012933582
-0.034529581666
0.000176272515091
0.034891590476
0.0977261886001
0.0566140599549
0.0324649065733
0.0248676333576
-0.085538059473
0.0999368280172
0.00252010324039
-0.00808152556419
0.0782246217132
-0.00114906777162
-0.0690400078893
-0.115760207176
0.0540288835764
0.0646855086088
0.0157144293189
-0.0420986190438
0.0792219117284
-0.13621942699
0.0686142519116
0.127279892564
-0.00503692682832
-0.0730840191245
-0.047757551074
-0.13655385375
-0.0235759988427
-0.0535079576075
0.128559693694
0.116076603532
0.0784441232681
0.0142713012174
-0.00759504176676
-0.0976539030671
0.0182738788426
0.0217071101069
-0.0752309784293
0.0522279329598
-0.0106522105634
0.0203400552273
0.0673753544688
0.0980981364846
0.0259885601699
0.00934271607548
0.0587972812355
0.0445281676948
-0.0177455190569
-0.0714704915881
-0.0507766902447
-0.071889936924
0.0845962315798
0.0948373377323
-0.0558050088584
0.016113827005
0.0456308759749
-0.00656786561012
0.0377636663616
0.0800808370113
-0.0173814073205
-0.0140365893021
-0.00936390832067
0.0236242692918
0.126539930701
-0.102703310549
-0.0443827323616
-0.0101244142279
0.103288881481
-0.0729486048222
0.0521274507046
0.0703570917249
0.00985068734735
0.00690360553563
-0.016429707408
-0.0471396483481
0.0318627171218
0.00882190279663
-0.0530121736228
-0.00535110151395
0.0407830551267
0.0143271479756
-0.0333045646548
0.0380516313016
-0.0283847562969
-0.027704494074
0.0380432754755
-0.014718670398
0.024213001132
-0.0371209308505
-0.0775816813111
-0.0507488586009
-0.0541405156255
0.0773576721549
-0.0231826417148
0.057655595243
0.0578694939613
0.0296138916165
0.0810348689556
0.103798821568
0.0100303469226
0.133327320218
-0.0168772879988
-0.172092318535
0.048589348793
0.0151637503877
-0.0625839307904
0.045019749552
-0.0286193806678
-0.123832136393
0.00187682022806
0.00223772157915
0.00359453889541
-0.108913555741
-0.00296223862097
-0.0954409465194
-0.0546939298511
0.0435287766159
0.0524993054569
-0.000317655270919
-0.025397978723
-0.0208835154772
0.0169156882912
-0.056485183537
-0.0825348049402
0.157197505236
-0.0221312530339
-0.0598015114665
0.0678035840392
-0.0262341983616
-0.0159674417228
0.017283860594
-0.0559522695839
-0.00680336495861
-0.0740644931793
0.0117949750274
-0.0453245155513
-0.0420238934457
0.0901867225766
-0.0607418380678
-0.0540275424719
-0.0284205991775
0.0545119941235
0.0705396384001
-0.0147526254877
0.0932892486453
0.0132706193253
0.0501813329756
-0.0335486829281
-0.0380746200681
0.0298740807921
0.00369897438213
0.0473654940724
-0.0352169126272
-0.0491407327354
0.0526326969266
0.0638037323952
-0.0104371514171
0.0398352257907
-0.061363261193
0.0220435783267
0.0553087629378
-0.0734997168183
0.042075086385
-0.0809077993035
-0.149955928326
0.0135965719819
-0.0159369595349
-0.0123578077182
0.0102272238582
-0.0637108832598
-0.00930104684085
-0.0471032895148
0.041923660785
-0.060394179076
-0.026502892375
-0.0542942136526
0.132983341813
-0.0661082714796
0.0866277515888
-0.039794459939
-0.136115938425
0.0142848268151
-0.105242669582
-0.138763025403
-0.00232856743969
-0.0203637927771
-0.0368220210075
-0.0628595426679
-0.131694257259
-0.0325368158519
-0.00634353561327
-0.04923318699
-0.0268293209374
-0.0555042177439
-0.018831403926
-0.0183514486998
0.0509211607277
0.0336905755103
-0.0457477867603
0.035537879914
0.0176529176533
-0.084314391017
0.0457400977612
-0.0899573266506
0.0485170595348
-0.0924297422171
0.178351387382
-0.039867747575
0.00119672040455
0.0354236587882
0.0163446478546
0.00564141245559
0.0108239362016
0.00925229024142
0.0112467473373
-0.128168642521
0.0645850226283
0.10738479346
0.0296161230654
0.0238207634538
0.0220652110875
0.0477540865541
0.0506948642433
0.0512022785842
-0.0497657284141
0.217094823718
0.0584593042731
-0.100522376597
-0.0286894273013
0.00441356468946
-0.00732808094472
-0.0319283157587
-0.115046456456
0.0424738638103
0.0264907795936
-0.109883755445
0.050186663866
-0.0590490028262
-0.0643948242068
-0.110621675849
-0.103571541607
-0.127272680402
0.0719072520733
-0.0527164228261
0.0249024387449
0.193975746632
0.10966655612
0.0339640676975
0.0718045756221
-0.184747621417
-0.0378946326673
0.0521079301834
-0.0139785446227
0.0314436927438
0.000101207231637
0.0461947359145
0.0705594941974
-0.036602191627
-0.0274105295539
-0.112109094858
-0.0930741131306
-0.067183278501
-0.0435546226799
-0.0811124071479
0.0292308423668
0.0376443378627
0.0265176966786
0.0965000614524
0.00211584428325
0.0117393583059
0.0692799389362
-0.0558262132108
0.0763427242637
-0.0485025607049
0.0597848407924
0.0329320766032
0.164988443255
-0.0867062285542
0.00142753380351
-0.0406288653612
-0.0341759286821
-0.0960839390755
0.0269575789571
-0.00577281462029
-0.0350112691522
0.0349324457347
-0.0029987602029
0.0427820421755
-0.0688545778394
-0.0716948956251
-0.0525074191391
-0.093024507165
0.0293298307806
-0.143212795258
-0.121823184192
-0.072583951056
-0.127613335848
-0.112641327083
-0.0283357053995
0.0807975009084
-0.0760385170579
0.0601382106543
0.00450018327683
0.0480264425278
-0.0976284071803
-0.0168462395668
-0.100559972227
0.0669026449323
0.00746775791049
0.0379545390606
-0.0888966470957
0.0357985310256
0.00893731135875
0.0537350922823
0.0211272705346
0.126530393958
0.0278807785362
0.170316636562
-0.0184808317572
-0.0706686004996
-0.0233364272863
0.0392383560538
0.095844976604
-0.0603195093572
-0.129439219832
0.0558377318084
0.0209104511887
0.113452777267
0.065381012857
0.0290966331959
0.0552639104426
0.0210731681436
0.0682863518596
0.0405652038753
-0.0626438632607
0.018211055547
-0.0203121528029
0.0729058086872
-0.0540999062359
-0.0931766405702
-0.0282203778625
-0.0981127843261
-0.0138969197869
-0.0202834215015
0.0145274428651
-0.148281276226
-0.0149329164997
0.0188526138663
0.0998001098633
-0.139448493719
-0.135235562921
0.0533435046673
-0.0139322523028
-0.0501694455743
-0.029382923618
0.155128613114
-0.0415408648551
-0.034469012171
0.0241682007909
-0.0170349944383
0.0145283304155
0.0603599585593
-0.00213109119795
0.0325314253569
0.0369435288012
0.00734323635697
0.054384727031
-0.0652817040682
-0.00663111172616
0.0553817674518
0.078468978405
0.0259444378316
-0.0937845036387
-0.0176564846188
0.100276522338
0.0663665607572
0.0109809311107
0.0706678405404
0.0632032379508
0.0550535731018
-0.110719390213
-0.104213349521
0.00830889120698
0.141180276871
0.0356986559927
0.0135068744421
-0.104149580002
-0.0643232539296
0.175137341022
0.0758465528488
0.0640596747398
0.0605155453086
-0.0167895592749
-0.101319104433
0.0527871996164
0.0970119908452
0.0284903142601
-0.0511354915798
0.0175435207784
-0.0597623437643
-0.0537836514413
-0.0316412709653
-0.0968475341797
-0.0673319324851
0.200965955853
-0.013617457822
-0.0953484773636
-0.0483239106834
0.10218244046
0.112178780138
0.0903231501579
-0.11222063005
0.0218911245465
-0.019148202613
0.11548884213
0.114543043077
-0.059735711664
0.0960919111967
0.0939810052514
-0.0312194004655
-0.000199832633371
0.0262967832386
0.0224309675395
0.127791076899
-0.0983900204301
-0.082182392478
-0.116144679487
0.016605572775
0.101279839873
0.0207749996334
-0.0388944931328
0.0938662365079
-0.0266088582575
-0.106717094779
-0.0617905780673
0.017575122416
0.0275832600892
-0.00521508650854
0.015656368807
-0.0711521878839
-0.00849615316838
-0.0772286728024
0.0110478745773
-0.015183892101
0.0495426878333
0.152428641915
-0.0487495362759
-0.0620692335069
0.22172524035
0.0466939024627
0.0324258431792
0.144926711917
0.0151311969385
-0.0367015339434
0.0547279380262
-0.0060355248861
-0.0730513334274
0.0485375598073
0.146508395672
-0.104315713048
0.0356468744576
-0.00285971676931
-0.0949817299843
-0.0198305100203
-0.0472011938691
-0.0196279454976
0.00387782067992
0.0190426651388
-0.102262534201
-0.0642802789807
0.152790352702
-0.0489292852581
0.0561542734504
-0.10110680759
-0.169218987226
-0.0330901555717
0.0260199867189
0.035456892103
-0.0802377387881
-0.0751133188605
0.0222579464316
0.0659288987517
-0.0261408165097
0.0406253896654
0.138403847814
-0.161738544703
-0.0501383468509
0.143654733896
0.00253449031152
0.0252795796841
-0.0723043456674
0.108829289675
-0.00203252234496
0.0786722376943
0.0723010152578
0.0362306274474
-0.0549026727676
-0.0703087747097
0.0636102035642
0.00442432006821
0.0137269375846
-0.0664809271693
0.0618219040334
0.0737128034234
0.0374997854233
-0.0398378334939
0.0754316747189
-0.0324826687574
0.0763710513711
0.0520316325128
0.108810678124
-0.0173007398844
0.0731614455581
0.109841033816
0.147986888885
0.135745406151
-0.0695353522897
0.0131487203762
-0.0280036721379
-0.0320885777473
-0.144588604569
0.146522775292
-0.017691988498
0.0336767360568
0.0607524029911
0.133271127939
0.0698461383581
0.0848489701748
0.107675991952
0.0591472499073
-0.000778235669713
-0.00600977195427
-0.0875571444631
-0.0896757096052
0.133794397116
-0.0296732019633
-0.00828387960792
0.0885273367167
-0.0460091270506
-0.138396546245
0.183583661914
-0.0875873193145
0.0412384010851
-0.0490077286959
-0.0320327989757
-0.123614743352
0.154696896672
-0.0222818162292
0.0682484358549
0.0362745784223
-0.0473697371781
-0.0603199861944
0.0302377138287
-0.0406026430428
-0.0854187384248
0.0365331061184
-0.00325824413449
0.0142054744065
-0.013962527737
-0.0550029836595
0.00918073486537
-0.0439184717834
0.000877046550158
-0.0553816817701
0.00735195213929
0.137995839119
0.0405505001545
0.0327236056328
0.0320055894554
0.0687736794353
-0.0075120292604
0.0130119156092
0.144648909569
-0.0977895855904
-0.0209620017558
-0.0272500552237
-0.0647035390139
-0.0246412176639
-0.0143476352096
0.0302628930658
0.16311506927
-0.100477769971
0.049078900367
-0.0443304739892
-0.0429411679506
0.0857247412205
-0.0603266470134
-0.00435613002628
-0.108400300145
-0.105421036482
-0.0420609898865
-0.00485990243033
0.134567081928
-0.0511542260647
0.128835380077
-0.0774878486991
-0.046714130789
0.0273049753159
-0.0991101264954
0.0138945505023
0.109894767404
-0.00528645329177
-0.188149020076
-0.024753658101
-0.0683155208826
-0.0476407036185
-0.0118776075542
0.0470526814461
-0.115165442228
-0.128149136901
0.0325515009463
-0.113870725036
0.0644376948476
-0.12872248888
-0.066111035645
-0.0375708602369
0.0141965877265
-0.0324460305274
0.0718167424202
0.0947844535112
0.0817351415753
0.0561318993568
0.0298518054187
-0.123175725341
0.025651678443
-0.128085270524
0.0310185384005
-0.0269610602409
0.109928630292
0.0513907447457
-0.0814050212502
-0.00516695808619
0.0339044183493
0.0776584222913
0.0652804374695
0.0351911410689
0.0727368295193
0.011060888879
-0.0837017595768
0.0182935595512
0.0804141536355
-0.0831651762128
0.029666306451
-0.116188973188
0.065104201436
0.0279500335455
0.0126075716689
0.0346080176532
-0.0936449542642
0.0992816016078
-0.144541248679
-0.0667459368706
-0.0520754083991
-0.00140663131606
0.0675212368369
0.0549890398979
0.100641600788
-0.0334115773439
-0.00218453444541
0.102529630065
0.0156192937866
0.0973463505507
-0.0419567897916
0.184739202261
-0.0896384567022
-0.0773833692074
0.159404024482
0.000634881202132
-0.036443259567
-0.0413245521486
0.0557500571012
-0.0940067470074
-0.0198117662221
-0.0772640109062
-0.0402488484979
-0.0205133836716
0.067880757153
0.0431412607431
0.0772020891309
0.147872209549
-0.0939721465111
0.0207864362746
-0.0356679782271
0.0389627404511
0.0683653950691
0.0558369830251
-0.0880724042654
0.0384536087513
-0.0425360798836
0.0595703944564
-0.0962748154998
0.119083359838
0.0257534924895
0.0460631400347
-0.0530120506883
-0.0203870628029
-0.0169887412339
-0.0289852600545
0.120625250041
-0.0612251423299
0.13014087081
-0.0707661658525
-0.0117474123836
0.0876510962844
-0.0193751659244
-0.0232582669705
-0.00132446305361
0.00995246507227
0.0390306599438
-0.0507464036345
-0.0676059648395
-0.0396581813693
0.00848618615419
-0.0766283646226
0.136239618063
0.0953385010362
-0.116296336055
-0.0266111735255
-0.0311261229217
-0.00696405395865
0.0182602051646
-0.0371986217797
-0.0110345417634
-0.0185555163771
-0.123752817512
0.0805127248168
0.0689878612757
0.049414832145
-0.0962210968137
0.0408776476979
0.103941194713
-0.0760967805982
-0.00759003404528
-0.115630254149
-0.0911250859499
-0.00399711821228
0.018151588738
-0.047638438642
-0.0416667237878
0.00541493995115
-0.124841861427
0.0592257753015
0.125316917896
-0.0288792904466
0.0188271068037
-0.100797556341
-0.0405289232731
0.0192843880504
0.0519005320966
0.0916139855981
0.022096959874
-0.0931888744235
-0.0482250377536
-0.0161075778306
-0.0601365044713
0.0638322681189
0.0122589170933
0.18399527669
-0.0123791303486
-0.14786735177
0.0486331507564
0.233386784792
0.110353350639
-0.0317178145051
0.0267356764525
-0.118603035808
-0.0566007643938
-0.0461871773005
0.0480976440012
0.0437188819051
-0.0647499114275
0.043095909059
0.00498908059672
0.0727713629603
-0.00554501451552
-0.0070412629284
0.110974259675
-0.0699558183551
0.114231295884
0.00276324758306
-0.0213629994541
0.00603668298572
0.00952216051519
-0.103913389146
-0.112373478711
-0.0294219944626
2.85358237306e-05
0.0203058831394
0.0389192551374
-0.0142687186599
0.0816102996469
-0.119479328394
0.0677422657609
0.0189941972494
-0.0535613484681
-0.09793972224
0.0581069625914
-0.0725389569998
-0.0264209769666
-0.0598331578076
0.072949655354
0.134415015578
-0.12494648993
0.102138437331
0.0233851280063
-0.00295308977365
0.249685615301
0.0657350048423
-0.0158456098288
0.0385853759944
-0.0343393944204
-0.0568469576538
-0.0643103867769
-0.0203636605293
-0.0295279864222
0.0891766771674
0.0287563670427
0.0559816509485
-0.0686305090785
-0.0285509191453
-0.10917121917
0.0043132128194
0.0723886340857
0.0253405924886
-0.0749428197742
-0.0710640251637
-0.0302555579692
-0.067709967494
-0.0280535854399
-0.0316571108997
0.0681039392948
-0.00843488797545
-0.111058585346
-0.145668387413
-0.0201894808561
-0.0181483104825
0.108618587255
0.00907897297293
0.158777520061
0.0906416401267
0.193023309112
-0.00928697548807
-0.0357669107616
0.071341753006
0.113451182842
0.0451026037335
-0.0501387380064
0.0671902745962
0.00425497721881
-0.0106929959729
-0.0485647358
-0.0977640599012
-0.0702909007668
-0.0090309754014
-0.0802062228322
-0.10737515986
-0.0414796508849
-0.0288102757186
-0.0379904396832
-0.0291885770857
-0.0208496414125
0.0511220544577
-0.0526869520545
-0.0158373452723
-0.0128707960248
-0.0487846061587
-0.147346183658
-0.00195030856412
-0.039747916162
-0.162630930543
0.0239290688187
0.0463724024594
-0.0785541236401
0.127967461944
-0.0428694486618
-0.0264608021826
-0.0303512439132
0.0158300176263
0.0206595212221
0.132406949997
-0.0987849086523
-0.0653930082917
0.0263399034739
-0.0245051253587
0.0182116981596
-0.0725185573101
-0.0269582252949
-0.0844308882952
-0.0346639975905
0.0444626063108
0.00449883844703
-0.0299460273236
-0.0765724554658
0.141741797328
-0.0308397784829
0.056770041585
0.0478061288595
-0.048405405134
0.0494191423059
0.100616432726
0.0701446533203
-0.0633781477809
-0.0169244408607
-0.16259393096
-0.0584186464548
0.0408851355314
-0.119597427547
0.208646550775
-0.0629879385233
-0.00137682002969
0.0336915627122
0.0271023269743
-0.0443161539733
-0.132950112224
0.0896326601505
-0.0220061689615
-0.0144515801221
0.00300466315821
0.0356873422861
0.119587443769
0.0302080884576
-0.0878535211086
0.00689114630222
-0.0571337714791
-0.0225426424295
-0.00278079439886
0.158696353436
-0.0846072807908
0.0584862604737
0.049993250519
-0.0116704264656
-0.0998395681381
0.0432840883732
0.024294519797
-0.0145138660446
-0.0253976564854
0.0915330797434
-0.0159845836461
0.0654328912497
0.0194733310491
0.0912094935775
-0.0220930445939
-0.124538056552
0.0350155942142
-0.0414344891906
0.0477444380522
-0.00686654821038
-0.0327475257218
-0.100219093263
0.0531625859439
-0.142365574837
0.0155155211687
-0.069348745048
-0.00244119786657
-0.0139661794528
-0.0151880728081
-0.054716438055
-0.0425846576691
-0.075227431953
-0.00763005437329
0.0345406495035
0.115842938423
-0.0369192548096
-0.000870524323545
0.0603417977691
-0.117465682328
-0.0544563904405
0.00981165654957
-0.0745686665177
-0.0462242215872
-0.0433182679117
-0.0855650156736
-0.0356276594102
-0.10369052738
-0.130966961384
0.0401060171425
0.0217842236161
0.0115921404213
0.105275958776
0.123617500067
0.031296543777
-0.0853248611093
0.0797196775675
0.0988539084792
-0.0102678034455
-0.0115208579227
-0.00246462388895
-0.0787428542972
-0.035431008786
-0.0497447364032
0.0556455776095
-0.0781097635627
-0.00946955010295
-0.00264379032888
-0.0940744355321
-0.0325357317924
-0.0417461208999
0.0890854299068
-0.02225208655
0.0432172305882
-0.0414085350931
0.0438730306923
-0.154154419899
0.0778690055013
0.0140296965837
0.0649294480681
-0.0358957573771
-0.0539131984115
-0.00763152306899
-0.074777841568
0.113605558872
-0.0722226500511
-0.13822068274
-0.00888225715607
-0.0244379024953
-0.0815914645791
-0.010574337095
-0.0536062754691
0.120473951101
-0.0381747893989
-0.0512563586235
-0.00578014971688
-0.10007597506
-0.0607951357961
0.0836081802845
0.0105733806267
-0.109983749688
-0.0960647016764
0.178064450622
-0.0165921505541
0.0143762733787
-0.137010633945
-0.00631322618574
-0.0296169985086
-0.129654422402
0.0777424126863
-0.07412981987
0.00870048627257
-0.0438509099185
0.122766576707
-0.0953579246998
-0.0526816882193
-0.0725352689624
0.00337703130208
-0.0836675316095
0.0408643297851
-0.0554223805666
0.0258663333952
0.0158343780786
0.0061376360245
0.00952805485576
-0.0164911076427
0.00820946879685
-0.0772771984339
-0.00189321185462
-0.0604563206434
0.0709943324327
-0.0570533201098
0.10577339679
-0.000394253904233
-0.0252993423492
0.163800314069
0.174605712295
-0.0653251186013
-0.0233548711985
0.0125947110355
-0.0103920958936
-0.15446138382
0.0685647204518
-0.0908600986004
0.0323632434011
0.00240008952096
-0.0231849197298
0.0269434377551
-0.050591673702
-0.00366029841825
-0.0182970259339
-0.0137373907492
0.0229941438884
0.188357681036
0.0227683577687
0.0359338335693
0.107723250985
-0.0102026769891
0.15976780653
-0.0727909654379
-0.0677579119802
0.052641518414
-0.0415621325374
-0.0235212575644
-0.0294732302427
-0.0482890419662
-0.0984082892537
0.029903665185
-0.0741138383746
-0.00769211119041
0.0339781008661
0.0667029321194
0.0097626009956
-0.10128300637
0.0470035150647
-0.135707691312
0.152375325561
-0.0378955900669
-0.0922835841775
0.0205899737775
0.0453778207302
0.0217668395489
0.0314322076738
0.0263137537986
0.124994240701
-0.0470398552716
0.159299686551
0.0972543209791
-0.0206252969801
0.0116541609168
0.0896679088473
-0.074296079576
0.140693187714
0.101012073457
-0.0680496841669
-0.116407424212
-0.0314516462386
0.0164340455085
0.208384990692
-0.00378257920966
-0.0217266213149
0.144880965352
0.0127258617431
0.0793528333306
-0.0459791906178
0.0351853072643
-0.0700660794973
-0.0230319611728
0.0808837413788
0.12004814297
0.0785126015544
-0.0542645528913
0.178873538971
-0.0725055113435
-0.0819842964411
-0.0916200205684
-0.129305630922
-0.17075394094
-0.0409766510129
-0.177324965596
-0.0603033974767
-0.0178000051528
0.154496192932
0.0804670155048
-0.0589659772813
-0.10557076335
0.0802947804332
-0.0713884606957
-0.1065203771
0.0289246477187
-0.119733817875
-0.0590286441147
0.0195157490671
0.0228553619236
0.0372149907053
0.159181624651
0.0496699772775
-0.0797144472599
0.00928083900362
-0.0783532261848
0.0601482801139
-0.0834077745676
0.0465622022748
-0.0683265030384
-0.0461759008467
0.134898558259
0.0408619344234
-0.035101108253
0.0299238245934
0.0268952455372
0.0215769931674
-0.140607953072
0.00552172679454
0.00280386162922
0.147133395076
0.00412957184017
0.0327868312597
0.0651223659515
0.0681316927075
-0.076083637774
-0.00396083155647
0.0352290533483
0.101598359644
0.0546989962459
0.0690608397126
0.0326472446322
-0.0301329493523
-0.0672070756555
0.0615127980709
-0.052708633244
-0.00922047719359
-0.0222076866776
-0.0575984120369
-0.0767732262611
0.124005869031
0.103033214808
-0.0324813649058
-0.0695006549358
-0.0124280145392
0.0600974075496
0.0026326442603
0.0836149454117
0.0870344117284
-0.0100093400106
-0.0202697142959
0.0206249281764
-0.0426600910723
-0.0532301552594
-0.112939037383
0.0965477153659
0.0463416464627
-0.013084679842
0.0581730529666
0.00170193845406
0.0908736884594
-0.013972110115
-0.012282977812
0.0149710644037
-0.0873369723558
0.0072886319831
-0.103466071188
-0.0927765965462
0.0253222938627
-0.0532470196486
0.0907467752695
-0.0658910796046
0.0580549947917
0.0316054038703
-0.00371708651073
0.069830454886
-0.0218667015433
0.0392158217728
-0.0664261355996
0.0783430859447
0.109843932092
-0.00466579850763
-0.0755276083946
0.0604405067861
0.0732529833913
-0.0809768512845
-0.151680842042
-0.0196856576949
-0.0988283231854
0.109388917685
-0.14969868958
0.0793515220284
-0.0305537693202
0.0041571049951
-0.0286526717246
0.114274941385
0.04114754498
-0.114954128861
-0.0158543977886
0.0219963248819
0.0328115001321
-0.105739586055
-0.046994369477
0.0824856907129
0.0436535701156
-0.00169360695872
-0.00929768476635
0.0331662930548
-0.0136337410659
-0.0494776442647
0.0159441232681
-0.0272814948112
-0.112667940557
0.0568174757063
-0.0346760749817
0.0511109977961
0.0155763039365
0.0202157646418
-0.0728742480278
-0.0533998124301
0.137461721897
-0.0500653758645
-0.0274242218584
-0.0590883232653
0.139965027571
-0.0171684771776
-0.013040356338
0.0599819459021
-0.0777912512422
0.0959385931492
0.0252269096673
0.0732677280903
0.0371014252305
0.0371996872127
-0.0579607896507
0.0625033527613
-0.0372958704829
-0.00639905175194
0.0619104616344
-0.0411041267216
-0.0387969054282
-0.112049460411
0.0600153952837
-0.13958889246
0.066925957799
-0.0500394664705
0.00273023662157
-0.00423542875797
-0.0546995811164
0.0570051148534
0.032732706517
0.0326254926622
-0.136927694082
0.10446087271
0.0284587405622
-0.131661012769
-0.0105801299214
-0.0759342983365
0.000598248618189
-0.0280449688435
0.131520748138
0.0123419817537
-0.0294924788177
-0.0579628944397
0.0519216358662
-0.00864127092063
-0.0420954860747
0.0879440531135
0.0828315615654
0.0131107447669
-0.0227782428265
0.0433707274497
-0.0124542489648
-0.0418569669127
0.0156006310135
0.022265823558
-0.0631166771054
-0.113370932639
-0.088960967958
-0.0929159894586
-0.0954954624176
-0.0348877646029
-0.0322275683284
-0.0497572124004
-0.0416594184935
-0.170548647642
-0.0540506541729
-0.0348002053797
-0.15676087141
0.0362674854696
-0.127930447459
-0.089547239244
0.00408139778301
0.0616268366575
0.0241481158882
0.0296758953482
-0.0233759637922
0.0266115628183
-0.032522790134
-0.0313395522535
0.0778210535645
0.021163187921
0.0109007321298
0.0143339829519
0.0430382117629
-0.0120324995369
0.0360047072172
-0.0479648448527
-0.0909410491586
-0.121641308069
-0.0960243865848
0.0889017879963
0.0659141018987
-0.122238904238
-0.0668373182416
0.013592411764
-0.037908103317
-0.0589009709656
0.115804828703
-0.139015540481
0.021885054186
0.0452959388494
-0.134905532002
0.000442325253971
0.0979999303818
-0.00338374334387
0.0878611728549
-0.0718843713403
-0.0519627891481
-0.101218365133
0.0738048478961
-0.0504264347255
0.01582034491
0.0611525401473
0.00206467579119
0.0536707006395
-0.10442828387
0.103714711964
-0.032493378967
0.0116915609688
-0.050331197679
-0.0317294336855
-0.187510475516
0.0260983835906
0.0291817523539
0.0861006006598
0.0163656305522
-0.0921223461628
0.0563460476696
-0.135854363441
-0.0385100841522
-0.00308729149401
0.131128355861
-0.116422154009
0.121499344707
0.009925625287
0.00673995353281
0.0750933140516
0.0373096838593
-0.0338707268238
0.0059782541357
0.000724462559447
0.024914380163
-0.00470533361658
0.0912834331393
0.0503378808498
-0.0731349214911
-0.0279454961419
-0.129019483924
-0.0481747835875
-0.0910497456789
0.121410131454
0.017141526565
0.0889283567667
-0.00291792489588
0.0604081824422
-0.0859585255384
-0.164464995265
-0.0740711763501
-0.0216563381255
-0.0642650350928
0.144815832376
-0.000837094034068
-0.115941479802
-0.0800265744328
-0.219088554382
0.0546875633299
0.0450557470322
0.103935450315
0.0386828705668
-0.0118153747171
-0.230997562408
0.00807543471456
-0.0621082000434
0.0141953248531
0.0383965224028
0.112369671464
0.0277760792524
-0.0940473079681
-0.0759078264236
-0.0488761663437
-0.00499177677557
0.0834057629108
0.0500964149833
0.105552405119
0.0474806204438
0.0708033293486
0.0416083447635
0.127383604646
0.20087300241
-0.119804657996
-0.0594112761319
-0.0810200721025
0.0357192568481
-0.0157828759402
0.0862810835242
0.0729502663016
0.143997058272
-0.0148553941399
-0.047511909157
0.0121663399041
0.0434650368989
-0.0077047990635
0.0130769601092
-0.0492441132665
0.0151732144877
0.0394637025893
0.0094305453822
-0.0550708733499
0.069362193346
-0.130885630846
-0.0497539490461
-0.0867198705673
-0.0960793048143
0.131853103638
0.0909348800778
-0.0699861347675
-0.0351854935288
-0.0120910350233
-0.0646381825209
0.0545634701848
-0.0224103890359
0.0734141990542
-0.0859831348062
0.030169095844
0.0262991264462
0.0565944500268
0.0503673739731
0.10266700387
0.0100014247
0.0240215100348
0.0209096278995
-0.0125391334295
0.130769595504
0.0847407206893
-0.0226088650525
-0.0851196199656
-0.00169176177587
0.0195792969316
-0.0386946126819
0.00500412937254
-0.047867551446
-0.0575066246092
0.0149993076921
0.00955490395427
-0.0338515862823
-0.0619394779205
-0.0248744022101
-0.0260189250112
0.0676128566265
-0.0485120825469
0.101643808186
-0.0646129995584
-0.0226478092372
-0.0773832723498
-0.00477281119674
0.12264085561
0.112800307572
-0.118264064193
-0.00115865678526
-0.0704158619046
-0.0967621058226
0.0802242159843
0.0512981377542
-0.0546734184027
-0.129801243544
0.0195485819131
0.140055403113
-0.00932539254427
-0.0144291399047
0.028306433931
0.0816393122077
-0.007272135932
0.0295213777572
0.00743511598557
-0.0220397226512
0.0346953719854
0.0228547938168
-0.0114568220451
-0.0402150787413
-0.0978055149317
-0.00213089725003
-0.0256346091628
0.0661812871695
0.0225995145738
-0.109892912209
-0.00221877475269
0.148846074939
-0.174686744809
0.0157883092761
0.194018289447
0.13827060163
-0.0257915724069
-0.110611654818
0.0679587498307
0.0271435063332
-0.0682525187731
0.10151900351
0.0629646927118
-0.040536314249
0.0535394363105
0.0404285043478
-0.0505865626037
0.0312476344407
-0.0717838853598
-0.0288035329431
0.129854395986
0.0642516314983
0.124344706535
0.0207217205316
-0.00114152545575
-0.0367969125509
0.0330886393785
0.0566478259861
-0.0564186908305
-0.0138107994571
-0.0470285080373
-0.160308986902
-0.0319852977991
-0.0387237928808
-0.10442943126
0.00148906023242
-0.160242080688
0.072034701705
-0.200932756066
-0.0160038806498
-0.025538796559
-0.0181721560657
0.216382712126
0.117645733058
-0.0689853280783
-0.0184666272253
-0.0693805813789
0.0287870336324
0.118554294109
-0.0742780566216
0.0370532758534
0.0559982359409
-0.114596098661
0.0429635941982
0.036178637296
0.0730471089482
0.126472875476
0.0024321381934
0.0629738196731
-0.0672161504626
0.0696397051215
-0.192368328571
0.0534777343273
0.027856213972
0.0535914301872
0.123420722783
0.03721094504
-0.0240392629057
0.0495831929147
0.103615500033
-0.081922493875
-0.00610456662253
0.0208257958293
0.00247524539009
-0.0416458286345
0.0159335527569
-0.034711997956
0.025418356061
0.120315700769
0.0409380756319
-0.0348098389804
0.0337113887072
-0.0262854192406
-0.0330462493002
0.0609231293201
0.0988913401961
-0.00780865224078
-0.0488944761455
-0.00457921437919
-0.0913032367826
-0.0704252645373
0.0553408190608
0.0900035500526
0.0119544006884
-0.0158567912877
-0.124671034515
-0.0691848099232
0.022367073223
0.0541490092874
0.0326634161174
0.0618510991335
-0.0294953975827
-0.0746804103255
0.0372991748154
0.039093606174
0.0589005500078
-0.0204283259809
-0.00513767916709
0.0392888560891
-0.0199005678296
0.0458614006639
0.151256084442
0.0458053760231
-0.0300852116197
-0.0337425544858
0.0700276568532
0.0233865026385
0.158405840397
0.0705673694611
0.0116568077356
-0.0736168026924
0.0655739158392
-0.0464162901044
-0.0535852536559
-0.0556498207152
0.053918197751
0.10419870913
-0.0370531417429
0.00607849098742
0.0416518189013
0.0884608626366
0.0812332034111
-0.0287965461612
0.00828920025378
0.0330071933568
0.0444332882762
-0.0349338203669
0.046317383647
-0.0408856533468
-0.0387089662254
-0.0219841618091
-0.039217799902
0.0724422559142
0.0543208383024
0.0737629234791
-0.0112744681537
0.10903056711
-0.0415867641568
-0.152358263731
-0.0371535681188
-0.182179167867
-0.0758772194386
-0.0775205343962
-0.0623369701207
0.0773700326681
-0.0998289883137
0.000170719387825
-0.0418827906251
0.118025220931
-0.0690188184381
0.0481916666031
-0.0227481406182
0.037938605994
-0.125597327948
-0.0756028294563
0.00308951898478
0.013566236943
-0.053637996316
0.119380533695
0.089011631906
0.0102934120223
-0.100986137986
0.0170756336302
0.0411424525082
0.0422378219664
0.132007211447
0.0729766488075
-0.0138434739783
-0.0111739560962
0.0472500249743
-0.0342242568731
-0.0375267788768
-0.0881914943457
0.0255839731544
0.0541314966977
0.0833543390036
0.0814323797822
-0.0408946089447
0.0134959984571
-0.120836049318
-0.00711056776345
0.102502480149
-0.00887490343302
0.00964476075023
-0.00470181088895
-0.0443704798818
0.0707061588764
0.0655045211315
0.0345029719174
0.0362318195403
-0.0114493910223
0.0232687294483
0.0712100863457
0.020036926493
0.0291250105947
-0.0951422899961
-0.0586868152022
-0.130752250552
0.0919799953699
0.00492388149723
0.053003732115
-0.108269989491
0.217815309763
0.0231012776494
0.0540570318699
-0.0873275697231
0.0671427249908
-0.0638559907675
0.055816821754
-0.0296200104058
-0.0590200647712
-0.137594133615
0.0332866087556
-0.070723079145
0.000935799907893
0.00763072678819
-0.0753810554743
-0.0725219845772
0.0629185214639
-0.106146126986
-0.0402789451182
0.074656330049
-0.0914412140846
0.018407870084
-0.115113601089
0.144806042314
0.0115116694942
0.0741218775511
0.0415284857154
0.0651386082172
0.144861921668
-0.0808868780732
0.029872611165
0.00730458833277
-0.0786381736398
-0.0372727364302
0.0143296383321
-0.00563244847581
0.0562648028135
-0.181132286787
-0.0209160298109
-0.0240573976189
0.10983324796
0.0148870041594
-0.0791161507368
0.0483898892999
-0.117029123008
0.0454207994044
0.00694755278528
0.0326696559787
0.0553641431034
-0.0111668575555
-0.0741633623838
0.100150428712
-0.0797837525606
-0.0594350025058
-0.062236905098
0.0133235240355
0.00331637333147
-0.0827806740999
0.0336639471352
-0.0433088690042
-0.00250475574285
0.0326261483133
0.034564845264
-0.0351261273026
-0.0424225106835
-0.00502922711894
0.0273181945086
0.16738909483
0.0859815254807
-0.0505487844348
0.0358771830797
0.102820403874
0.0915059670806
0.0848215669394
-0.104413941503
-0.112051256001
0.0653683468699
-0.0196003951132
0.0498912259936
0.00394339673221
-0.00291305524297
0.0601396039128
-0.139222085476
-0.0159122757614
0.147723644972
-0.0271459985524
-0.0513690710068
0.00588868092746
0.06566324085
0.109559521079
0.122401334345
-0.018750840798
-0.078000575304
-0.0169991832227
0.0965376719832
-0.0628010109067
-0.0158581379801
-0.0422329157591
0.00260301749222
0.144584208727
-0.0352318994701
0.0826530903578
0.139784708619
0.0598449893296
-0.0569159500301
-0.0376792140305
-0.0327877178788
-0.0679048672318
-0.0243698637933
0.00210214569233
0.0112796267495
0.178365856409
0.0206943713129
-0.0375040732324
0.0816214010119
0.0422969013453
0.000811023521237
-0.102453768253
0.0468883998692
-0.0327520556748
-0.0271682925522
-0.00181772769429
0.0187160298228
-0.00798944011331
-0.0306006446481
-0.0779986232519
-0.0118020232767
0.059532482177
0.0439431145787
0.0862703025341
0.0828569456935
-0.0127157773823
0.0695192143321
-0.0421552956104
0.00976324174553
0.0337185971439
-0.0688568130136
0.0139194754884
-0.0259418655187
0.133526608348
-0.16446223855
0.0588531643152
-0.0176105797291
0.0170957557857
-0.00119636475574
-0.0228200796992
-0.0238578338176
-0.209512993693
0.160304754972
0.0672652795911
-0.177180498838
0.045260194689
-0.000795856816694
-0.105820842087
-0.146537110209
-0.0625082179904
0.0568258799613
-0.0497725829482
-0.0299396626651
0.0752440392971
0.0784953609109
-0.0422712750733
0.000316783320159
0.0643828511238
-0.0676541030407
0.0848918557167
-0.116004511714
0.012734987773
0.0617952644825
0.0461250245571
-0.0586861111224
0.056797850877
0.00521504320204
0.0115534504876
-0.0398769117892
-0.039831392467
-0.0479577146471
0.010878957808
0.00927809812129
0.0173425897956
-0.116875037551
0.107369259
0.0372963249683
0.139429792762
0.0195862352848
-0.00941693317145
-0.132964372635
0.0583294257522
-0.033596470952
0.00171066937037
-0.054791841656
0.0122974738479
-0.0742888376117
0.0241663288325
0.0762856379151
-0.129553556442
0.185384899378
-0.0349799394608
-0.105038635433
0.050979513675
-0.155055016279
0.00463463366032
-0.0570689514279
0.0645157620311
0.0240633711219
0.00245005777106
0.0724975839257
-0.0994720831513
-0.0765267387033
-0.0155750447884
-0.0311479009688
0.0367697738111
0.0312719680369
-0.0364395529032
0.00408182060346
-0.108817107975
-0.0811333656311
0.0490411408246
0.046599779278
0.0125119481236
-0.0610130950809
-0.0776368975639
0.0727419555187
-0.0554365888238
-0.0976982936263
-0.0572200156748
0.0200922451913
0.0506227016449
-0.083072707057
0.111385211349
0.0426764413714
0.000533817743417
-0.167847827077
-0.0294792354107
-0.0429895780981
0.0147495437413
-0.0014352821745
-0.0208320785314
0.0976439118385
0.0911476463079
0.0594495385885
0.0241024177521
0.156413272023
-0.0171097591519
0.0650643631816
-0.0395764447749
0.0265745464712
-0.177281677723
0.0548638254404
0.00272477651015
-0.170731961727
-0.0416649617255
-0.0262493919581
-0.128009721637
-0.0854230523109
0.0305722355843
0.032998688519
-0.060990665108
0.0656718686223
0.0940650179982
0.000327692832798
0.0568468123674
-0.00226631318219
-0.034162517637
0.0399646051228
-0.031388156116
0.0544372983277
0.0772422552109
0.0193653851748
-0.0226441007107
-0.0763294696808
0.0124605922028
0.0319758877158
0.0703487768769
-0.049312826246
0.101773932576
-0.0172370951623
-0.0369803421199
0.0209522414953
0.085490450263
-0.0797097235918
-0.0741280242801
-0.134905084968
-0.0280071087182
0.00900918524712
-0.0945469588041
0.0397507362068
0.0830724313855
-0.0277525447309
-0.136756524444
0.13227045536
-0.104064278305
0.0242308508605
-0.0940068885684
0.0243253726512
0.0289960578084
0.0429753623903
-0.0688003972173
0.017197502777
-0.0614379644394
-0.0651676878333
0.0789161622524
-0.0950867459178
-0.0453455634415
-0.0328191891313
0.100056700408
-0.0952766612172
-0.0222332496196
0.0263444371521
0.0425400398672
-0.0682198479772
-0.016815667972
0.0573524013162
0.0327153764665
0.0417088456452
-0.0539253726602
0.0890922695398
-0.00771045079455
0.029551550746
0.0672582238913
-0.148242533207
0.0577171966434
-0.0152976792306
-0.0416566506028
0.195498019457
-0.0642376318574
0.170695990324
0.0585040040314
0.0195757932961
-0.017587415874
0.180317282677
0.00195639464073
-0.0303239412606
0.0866733565927
-0.00579829188064
-0.0921001732349
0.0173504650593
0.202132821083
0.143668845296
0.0341831035912
-0.106053240597
-0.0333938151598
0.0418060906231
0.00830549094826
-0.143512517214
0.0744125917554
-0.117631942034
0.0693994686007
0.038795594126
-0.0140547575429
-0.0169813204557
-0.09167470783
-0.0658524632454
0.0110397646204
-0.0257697626948
-0.0998437926173
-0.00916080083698
-0.0123699046671
0.063897036016
0.0698381960392
0.120415382087
0.120501197875
0.0854348316789
0.0386680215597
0.0596600621939
0.168143138289
-0.0312485955656
-0.0784135237336
0.0790897682309
-0.0165600702167
0.123916707933
0.012079465203
0.1665468961
-0.0743692368269
-0.0366476513445
-0.0100678103045
0.107927523553
-0.117296271026
0.0633956491947
0.00938993692398
-0.0552252568305
-0.094755962491
-0.0470414124429
0.055840793997
-0.0340339541435
-0.0508459173143
0.0333433635533
0.028559371829
-0.12049690634
-0.0346147827804
-0.0778914391994
-0.00323504186235
0.0354359745979
0.153507381678
-0.0465208701789
-0.0461068190634
0.0424267686903
-0.012128515169
0.0749973803759
0.0500073544681
-0.0791116729379
0.009117920883
-0.0504533275962
0.0605384111404
0.0572481974959
0.0332022383809
0.0233258511871
0.0328161939979
-0.0531064234674
-0.108445331454
-0.0614187158644
-0.00406142883003
0.0132063180208
0.0746637582779
-0.0159891434014
-0.0351671054959
-0.089587032795
-0.110500358045
-0.0754412487149
0.0277790781111
0.0276498235762
0.0322743244469
-0.16195769608
-0.0451624579728
-0.0686869621277
-0.00421195011586
0.0388490818441
-0.0116576235741
0.0359018519521
-0.085064701736
-0.0427671335638
-0.0743811950088
-0.0906930044293
0.0842687040567
-0.13466951251
-0.0200880207121
-0.11192446202
-0.106146089733
-0.0515895411372
0.00617137411609
-0.0524704605341
-0.0376049205661
-0.0886005014181
0.0168270003051
-0.0888068079948
-0.0054890261963
-0.0340631082654
0.0202450361103
-0.0726433098316
0.0494099408388
0.0140097364783
0.0877838805318
-0.0415017940104
0.0373970083892
-0.0202034898102
0.00693045509979
-0.0839282125235
0.101648673415
0.150046825409
0.0400354377925
-0.0757797881961
-0.00491960207
0.0222503487021
0.0507682561874
0.0121611049399
0.13655385375
0.0188947878778
-0.00157877337188
0.0888025611639
0.0877694115043
-0.00914863031358
-0.16258661449
0.143975958228
-0.0211693719029
-0.0432168394327
-0.0480671823025
0.0994050949812
-0.120986349881
-0.0112637700513
-0.132643654943
0.0172241199762
0.0860708877444
-0.0481018610299
-0.0351380594075
-0.0282495468855
0.0494093969464
-0.0760957449675
0.00992361549288
-0.0373838692904
-0.0175114553422
-0.0606522448361
-0.123685419559
0.00457508070394
-0.0437927097082
0.0408207587898
-0.11008361727
-0.0434518978
-0.060525432229
0.00357807357796
-0.0545579977334
0.089399330318
0.0332631021738
0.0275368038565
0.0381462834775
-0.0510079748929
0.0387032330036
-0.00593392318115
-0.121822953224
0.106513522565
-0.107419647276
0.00728746782988
-0.111267060041
-0.0114215025678
0.0745863616467
0.0592069029808
-0.0998045802116
0.0906573757529
0.0610561855137
-0.0232628639787
0.0367720201612
-0.0922593101859
-0.0691373944283
0.00148369011004
-0.042122900486
-0.0704729929566
-0.123293742537
-0.108881227672
-0.0659561753273
-0.0855270177126
0.0177143123001
-0.00662559457123
-0.0391365587711
-0.0781561434269
0.034699395299
0.0714462995529
0.0742707177997
-0.00646158540621
-0.0454402379692
0.0313006192446
-0.0519622787833
0.0256501305848
-0.00175670208409
-0.057815566659
0.0537534616888
-0.0996114388108
0.0510250069201
-0.0342785716057
0.0215605981648
0.0249664057046
-0.0685263946652
0.0347376540303
0.0268081501126
-0.0603499002755
0.0343274772167
0.0569650419056
-0.0866786390543
-0.00274291215464
-0.0445638969541
-0.0583982877433
0.0824487358332
-0.0954104214907
-0.00319212232716
0.0337282791734
-0.0060225892812
0.0387504287064
-0.0884330868721
-0.126335889101
-0.033566378057
-0.0418803207576
-0.0223726984113
-0.0681533515453
-0.0221367236227
0.148324072361
0.0590268298984
0.127064496279
-0.0187362786382
-0.0118039958179
-0.0165508594364
0.128386735916
-0.0223823748529
0.00484339054674
-0.0436486154795
-0.0558574162424
-0.0652136802673
-0.0823843553662
-0.00348041509278
-0.0435438975692
0.000858554674778
-0.0220965649933
0.020892765373
0.0201984718442
-0.0586566738784
-0.102414816618
-0.0309529285878
-0.0388023331761
0.0105326306075
-0.0719622820616
-0.0308722741902
0.0197025183588
0.0428675971925
-0.0823071599007
0.0326790697873
0.0514385066926
-0.0708690434694
0.0370903238654
-0.0315181463957
0.0232739560306
0.0317877344787
-0.0409660860896
0.136789426208
-0.0243315547705
-0.123252384365
0.0218712799251
-0.0465767383575
-0.055409155786
-0.0830438062549
-0.0573832429945
0.0860944986343
0.0971663147211
0.0634712055326
0.00253536528908
-0.0491464696825
-0.00380468089134
-0.0602736286819
0.0664590671659
-0.0519183799624
0.00454977806658
-0.0484123975039
-0.0760580077767
-0.0827018916607
-0.0193784926087
0.0510585457087
-0.00293426355347
0.0387509949505
-0.0371498577297
0.0280381944031
-0.00638385815546
0.0193145573139
0.194382324815
-0.016376927495
0.00258272653446
-0.04276451841
0.074563510716
0.0220279861242
0.00219214707613
0.0492308661342
-0.0759998559952
-0.167705848813
-0.0503966584802
-0.00817396305501
0.0201657246798
0.0122456997633
0.18086861074
-0.179937317967
-0.0944730937481
0.0941132456064
-0.097605265677
0.0179907735437
0.0188366658986
-0.0532173924148
-0.0948089435697
0.0472829341888
-0.0190750956535
0.00142295239493
0.00472357356921
0.0159415155649
0.0340418331325
0.0976758599281
-0.11543391645
0.0560707710683
-0.0803830847144
-0.0488661527634
0.0611806474626
0.094279743731
0.0432225354016
0.0381528958678
-0.0624602399766
-0.0401535183191
0.0327052138746
-0.000456417386886
-0.0458892583847
0.161281481385
0.0509730577469
0.025704389438
0.0907632187009
-0.0969247892499
0.045194838196
-0.00967220589519
0.0295140966773
0.0191556587815
0.00605946267024
0.00987003277987
0.0327792316675
-0.0650740042329
0.0275609251112
0.062103766948
0.160731256008
0.0102420067415
-0.0899208560586
0.0540002137423
-0.106836207211
-0.119507908821
0.0646838098764
0.0789394006133
0.0209592841566
-0.0715733617544
0.0349083505571
0.0488222315907
0.0553777627647
-0.043915245682
-0.017609955743
0.0465403534472
0.0650013461709
0.00389970792457
-0.00779304932803
-0.132712393999
-0.0116531159729
-0.0339709818363
-0.0183490235358
0.160257428885
-0.0629740282893
0.0291757751256
-0.0326541140676
0.0697181373835
0.0178147926927
-0.0915614813566
-0.0600274540484
-0.00705679738894
-0.0803013071418
-0.0677537247539
0.0784084647894
0.0190207082778
-0.0821577236056
0.041318975389
-0.0804102271795
-0.0430334545672
0.0716357752681
-0.0782094076276
0.0144412163645
0.0294321775436
-0.067677013576
-0.00674686394632
0.101350694895
-0.0559531785548
-0.0151307890192
-0.0404133461416
0.122628435493
-0.158362224698
0.119847118855
0.0526155047119
-0.0424358993769
0.0770275965333
0.069096237421
-0.0130206029862
0.112237036228
-0.00865813251585
0.176339790225
0.00183606985956
-0.0372404567897
-0.0959687307477
-0.0165306180716
-0.109968140721
-0.0996980145574
-0.0772357583046
0.185301974416
0.00166325177997
-0.00628289300948
-0.0112583609298
-0.0360088050365
0.0508202984929
0.172407656908
0.0753096342087
0.0193888340145
-0.137017533183
-0.00903017446399
0.0653787404299
-0.0564749501646
-0.0379040054977
-0.0465889759362
-0.060816116631
-0.0675821453333
0.00956930313259
-0.036032024771
0.0657901316881
-0.0135535271838
-0.0136902220547
-0.047335665673
0.0693005695939
0.0200820825994
0.0359704978764
-0.0818836092949
0.126518413424
-0.0621619708836
0.110942721367
0.030772190541
0.0473131947219
0.0292103979737
-0.0464459620416
-0.0458502173424
-0.0454046055675
0.0429617911577
0.0243682898581
-0.09620346874
0.0461531579494
-0.106379188597
0.013435728848
-0.0657832548022
0.0138992723078
0.0699705630541
-0.0834987983108
0.0879440531135
0.0189322996885
0.0334422774613
0.0452833846211
0.076259419322
-0.0328130833805
-0.0493029020727
-0.00107904081233
-0.0631204396486
-0.0602052733302
0.0513816699386
0.0635418146849
-0.103158980608
0.0443255379796
0.138401061296
0.0129619799554
0.133004099131
-0.0233012232929
-0.0351449362934
-0.0913063511252
-0.0981595516205
-0.0933949351311
-0.0119295790792
-0.0215026512742
-0.0575416348875
-0.0511863492429
-0.0272236354649
0.08720382303
-0.100414045155
-0.00923194456846
0.0109033053741
-0.0873382762074
-0.0467316880822
0.006180731114
0.0252550113946
-0.0162009000778
-0.115356020629
0.0805311799049
0.166183367372
0.00138104520738
-0.000932778115384
-0.114940293133
-0.0162367410958
0.0275287665427
-0.032529015094
-0.0080346558243
-0.149720951915
0.140063226223
0.0271076709032
-0.0754100978374
-0.0351811051369
-0.0637248158455
-0.065107613802
-0.000172587766428
-0.0762696638703
0.0985520407557
-0.0287112407386
0.00433850754052
-0.0877873823047
0.00631986698136
-0.0120973763987
0.0893352776766
0.0747239589691
0.0324500016868
-0.0729791596532
0.028094869107
-0.0826029926538
-0.0446713641286
-0.0853389501572
-0.00119568489026
0.0877642929554
0.00603396538645
0.0045032449998
-0.0234578792006
0.0721691176295
0.0038764225319
0.108762577176
0.0495101548731
-0.0374769382179
-0.00199371040799
0.011450198479
-0.0374168865383
0.0151122938842
-0.167693778872
-0.0231074914336
0.0333729945123
-0.0416597314179
0.0815403610468
-0.0225294157863
0.026229524985
0.100972034037
-0.0302621908486
-0.0552871637046
-0.0976198017597
-0.0351467616856
0.0912571623921
0.060149371624
-0.0870907828212
0.0653837248683
-0.142837643623
0.0134414732456
-0.00851837638766
0.0437811017036
-0.0408556684852
-0.0540501102805
-0.0236769653857
-0.00968146789819
0.0658919066191
0.00619067717344
0.067081131041
0.0612520612776
0.0533053465188
-0.0778040066361
0.0146184787154
-0.0360474027693
-0.0520856007934
-0.0644469112158
-0.0430785119534
-0.0154447564855
0.0604142658412
0.0608169063926
0.0936867967248
0.162900611758
0.0279388148338
-0.0137180909514
0.0243890658021
-0.0204624831676
-0.0211582109332
0.0418207347393
0.0755155459046
0.124061062932
-0.163618341088
-0.0474861264229
-0.0711191147566
-0.0814185142517
0.0695732012391
-0.0439895987511
-0.0399173535407
-0.0587057061493
0.0311656259
0.0756334960461
-0.0642051547766
0.0806924402714
-0.0193512998521
0.00447706971318
0.0732219591737
0.0423878133297
0.0658380612731
-0.0586691051722
-0.121927067637
0.137018159032
-0.0766708254814
-0.0121575472876
-0.0761474221945
-0.00258701643907
0.114110141993
-0.0486020259559
-0.0381360203028
-0.174186512828
-0.0239159725606
0.00842162594199
0.133351832628
-0.000276090111583
-0.121000289917
0.0614886432886
0.00398424919695
-0.0259294901043
0.021417401731
0.00878492556512
0.115328237414
-0.021753622219
0.029899334535
0.0135144535452
-0.048533461988
0.119713619351
0.108888201416
0.0402546525002
0.00856377929449
-0.0018023540033
-0.0977107435465
0.0733278989792
0.0461679324508
-0.00937396287918
0.0666343644261
-0.0687555894256
-0.037077140063
0.00621329760179
-0.11460930109
-0.051924072206
0.179570674896
-0.0770787149668
0.0247222390026
0.0136950621381
-0.064268797636
0.00520476093516
0.030548594892
-0.0477481260896
0.0680739358068
0.0865769982338
0.0434530079365
0.0158243160695
-0.112157523632
0.0364343822002
-0.109817057848
-0.0336624644697
0.0441270694137
-0.0873784720898
0.100994467735
0.0833273679018
0.0147151015699
0.0382793582976
-0.00782541651279
0.0579191446304
-0.100319042802
0.101944677532
0.0340895801783
0.00970706809312
0.040218744427
-0.0129972230643
0.0383183099329
0.0589537918568
-0.0195143781602
-0.0483815446496
-0.0703286454082
-0.0617711804807
0.0990958064795
0.0195138677955
0.118359617889
0.0467264167964
-0.0302101951092
0.0965102165937
0.0304078236222
0.062326207757
-0.00221549277194
0.0856503024697
-0.0357540622354
0.116677395999
0.0675813853741
0.0108034219593
-0.061627663672
-0.181601166725
0.0609931983054
-0.116378046572
-0.0715352892876
-0.0703026205301
0.081655561924
-0.0798800289631
0.105022244155
0.00138877739664
-0.0846905484796
0.181051701307
0.0381807610393
0.0383581407368
0.120080687106
0.00443130824715
-0.0247389469296
0.164343744516
-0.020354134962
-0.0117243705317
-0.0143127543852
-0.10754211247
0.0751991644502
-0.0791853964329
-0.089206084609
-0.0782598778605
0.11542852968
-0.0369933992624
0.0356797277927
-0.0521113350987
-0.00595077918842
0.0344133265316
0.0387211330235
-0.0327309556305
-0.000559841457289
-0.0592650510371
0.0725002586842
-0.047440379858
0.0698055177927
0.0348739512265
-0.0913288518786
0.119487166405
0.0577218942344
0.0350039117038
0.0810392051935
0.0844557359815
0.0184838008136
0.19428499043
0.0446360856295
0.0131827667356
-0.0536675564945
0.0311339851469
-0.135969743133
-0.0983064323664
0.0265252627432
0.0655370354652
-0.0258048530668
-0.0780078694224
0.0099181542173
-0.0450719483197
-0.00410448061302
0.0476727858186
-0.0670341402292
0.0601934157312
0.0462577193975
0.083765424788
0.0141659872606
0.00249730842188
0.0267465692014
-0.0944036319852
-0.0355705395341
0.0676482394338
-0.0798986628652
-0.0894377678633
-0.0516465939581
0.20251776278
-0.0336298495531
-0.103484652936
0.0077959545888
-0.00269768550061
0.00203509861603
0.0535063818097
0.0764990821481
-0.0703061670065
0.135555818677
-0.0835619866848
0.156349286437
-0.0738031044602
0.0120722800493
-0.103210940957
-0.0387734472752
-0.0982406884432
-0.150569975376
0.00855538528413
-0.0159460343421
0.0571275986731
-0.058158505708
0.00215253932402
0.110191091895
-0.0280936472118
0.01581954211
0.0626261755824
0.0299673825502
0.0924511179328
-0.00314652896486
0.0489387027919
-0.00804555974901
-0.0171612873673
0.0157419648021
-0.0133864236996
0.0941319018602
0.0198313910514
-0.0616256482899
0.00171991134994
-0.037423979491
0.1445235461
0.0989313498139
0.111093915999
-0.0660945028067
0.123762071133
0.0984624102712
-0.0249791722745
-0.145843401551
0.0359069295228
-0.0603554919362
0.0338092073798
0.00999924074858
0.0262624677271
-0.0137644056231
0.000997553695925
-0.0734093338251
0.0826871469617
-0.067981235683
-0.0417031832039
-0.0828795805573
0.163133084774
0.148162797093
0.0814121067524
0.0755046457052
-0.0536990314722
0.0430656895041
0.0399491265416
-0.0149158202112
0.0143756922334
0.0383134111762
-0.0260561257601
0.109365642071
-0.0561053231359
0.087731435895
-0.0373154804111
-0.0167951267213
-0.00507532944903
-0.0793871954083
0.0493747629225
-0.0966874882579
0.0829103067517
-0.0650078877807
-0.0951281264424
0.0223540253937
-0.0747837871313
-0.021345263347
-0.0628368109465
-0.0527650043368
-0.121791265905
-0.0400158464909
0.129992187023
0.0461633652449
0.030718781054
-0.0372916422784
0.00328260380775
0.0688481107354
-0.0192765612155
0.0157351922244
-0.0176066290587
-0.0174947455525
0.0566530562937
-0.0663945898414
-0.0202101115137
0.134944960475
0.124538704753
-0.0813705250621
0.0117718353868
0.0584255233407
-0.122799381614
0.0485930070281
0.130271777511
-0.12444781512
-0.0487938560545
0.00174905825406
-0.0167905483395
-0.00541958538815
-0.0577101968229
0.0732179656625
-0.125615984201
0.104024507105
0.0351948216558
0.036000970751
0.0954304710031
0.0673510059714
-0.0184868182987
0.0550425387919
0.0645949393511
-0.0432385951281
-0.121204547584
0.0697555541992
-0.00992962904274
0.0877049192786
-0.0166867729276
-0.0631333813071
0.06194575876
-0.0886053815484
-0.0817179605365
0.0320213250816
0.0305264592171
0.0920282453299
-0.186250045896
0.0125815197825
0.0672790557146
0.0555537231266
-0.032881911844
-0.0294798873365
-0.0724981576204
-0.046360258013
0.1162821576
0.000932202790864
0.0515367463231
-0.0498571395874
0.0673461705446
0.00637814914808
-0.0196580290794
-0.0475486591458
-0.0229800958186
0.0390721261501
-0.0527583137155
0.0155341876671
-0.0594180710614
-0.0135635463521
0.0556932017207
-0.0582817420363
0.0754558518529
0.062512896955
-0.0120092760772
-0.00868258159608
-0.0614015422761
0.00112788390834
-0.0122767407447
-0.0163407064974
-0.0283896345645
-0.0639532282948
0.0610040687025
-0.112210974097
-0.0255496390164
-0.291693657637
0.0671399906278
0.0103063331917
-0.0572017244995
0.0274137053639
-0.0199423879385
0.0567353516817
-0.042683750391
-0.0332098193467
-0.0985879525542
-0.0123759955168
-0.0686626583338
0.000554753583856
-0.142187103629
0.0554545037448
0.112422890961
0.0118838427588
0.00403785798699
0.0761526748538
0.0214725919068
-0.120169095695
0.0327932946384
-0.0210686568171
-0.043201610446
0.0929072126746
-0.0969098508358
-0.0800049602985
0.0225534290075
-0.0703256577253
0.136675074697
0.00126004614867
-0.055010214448
-0.0469798818231
0.13006965816
-0.111950300634
-0.11439614743
-0.0234334263951
0.0231631882489
0.0391157343984
-0.016061367467
0.0297395009547
-0.10637421906
0.0447519831359
0.140002682805
0.00636888900772
0.0322339236736
0.0881907194853
-0.0736928209662
0.101270020008
0.0267393365502
0.0502077415586
-0.0993924885988
0.0856778919697
-0.0049776500091
0.0485549420118
-0.0697079002857
0.0675677210093
-0.00607776176184
0.0826117396355
0.0418905802071
0.123746648431
0.0595080778003
-0.0153041426092
0.0576060712337
-0.0303399972618
-0.0796322897077
-0.122632704675
-0.138672724366
-0.0475012473762
0.0279296562076
-0.0812288299203
0.0523615255952
-0.09771361202
0.0310925971717
0.0657855421305
-0.063285946846
0.121487952769
0.0671007782221
-0.0524159632623
0.0947566777468
0.0390097014606
0.101967684925
0.0410882160068
-0.0123620005324
0.0833748430014
-0.109324499965
0.0633144825697
0.0427080988884
0.0580938979983
0.0585276260972
0.0951656252146
-0.0356874577701
0.148792803288
-0.0424701534212
-0.0659596547484
-0.0651767924428
-0.0345755107701
-0.0474837459624
-0.145957022905
-0.0283578131348
0.0152783226222
0.0231734402478
-0.0657075792551
0.0383434966207
-0.0345391519368
0.0552365854383
-0.0300100594759
0.136730849743
0.092861354351
-0.0256687626243
-0.0593561865389
-0.0871261805296
-0.067700304091
0.0706802755594
0.13393470645
-0.0395809486508
0.0275233462453
0.0169334802777
-0.0203501340002
-0.0193231943995
0.0476018004119
0.103646315634
0.0595469996333
0.0721697807312
0.0887082964182
-0.048281557858
-0.008385874331
-0.0456958189607
0.0783851593733
-0.0346310250461
-0.153837308288
-0.00814196839929
-0.109996952116
0.0566865801811
0.00896062795073
0.123433239758
0.0967262759805
-0.00720514543355
-0.0824435651302
-0.00886892899871
0.108443655074
-0.155225753784
0.0619978569448
-0.0438959747553
0.0166556816548
0.0806590616703
-0.123652331531
8.65578040248e-05
0.0539722293615
-0.171249091625
0.120762892067
-0.0286415889859
0.145829916
-0.0400623306632
-0.0285977739841
0.0268929600716
0.0587302707136
0.0672971233726
0.0049274051562
0.0775274410844
0.0548324175179
-0.0140344342217
-0.0170420464128
0.0587146356702
-0.138397455215
0.105330437422
-0.102015584707
0.174747779965
0.00154546217527
0.0657239258289
-0.0203560125083
0.015912361443
-0.00768127897754
0.0907300785184
-0.0238724257797
-0.0604841858149
-0.0204647295177
-0.0282050296664
0.0853613466024
-0.0430463030934
0.0767683237791
0.005353896413
0.0583059005439
-0.00524194072932
-0.0236127171665
0.117668002844
0.129963934422
-0.0876940190792
-0.0578266642988
-0.011125058867
0.00398019747809
-0.0592605434358
-0.0230040550232
0.00206432095729
0.0576450638473
-0.12750980258
0.173697531223
-0.0917048975825
-0.0132206389681
0.0664484724402
0.0669420212507
-0.194656938314
-0.034047242254
-0.00411275727674
0.0191040597856
-0.0502452813089
-0.0203515961766
-0.0793339386582
0.159408420324
-0.0636592656374
-0.0502696447074
-0.0586186014116
-0.0184062868357
-0.05187946558
0.109353072941
-0.0507498830557
0.0416859202087
0.0627617239952
-0.0471396222711
0.0614578910172
0.0781738087535
0.0231854673475
0.0233626496047
0.0604748986661
-0.0847230628133
-0.077212266624
-0.100982949138
-0.106283731759
0.0549514889717
-0.0713642239571
-0.0608975253999
0.0539163984358
-0.115440629423
-0.013405457139
-0.18462523818
-0.0368345342577
0.0868578925729
0.0442868806422
0.0265860203654
-0.0198848377913
0.146587982774
0.124679639935
-0.0874678641558
-0.0569886825979
-0.0937551781535
0.0358628109097
0.0620788224041
-0.00697829574347
-0.032333612442
0.10099619627
0.0842715501785
0.0830406695604
-0.0698161795735
0.0805884152651
0.0667172521353
0.0201919674873
-0.0427186712623
0.0543101206422
0.0582204498351
0.0818882957101
-0.0681703239679
-0.061319347471
-0.0535474829376
0.0985544249415
-0.0030413090717
-0.00622711190954
-0.0453306138515
-0.00425662053749
0.0605473704636
0.113750770688
0.00308005488478
0.0147411087528
0.00878490600735
-0.0656450465322
-0.0270484760404
-0.0617169700563
-0.00785232894123
0.15368078649
-0.0832101255655
0.0234072804451
0.0546829216182
-0.0406100824475
-0.0456686094403
0.0287056919187
-0.00616037612781
0.0502842776477
0.0484332218766
0.0788374617696
0.023975552991
-0.0186176262796
0.198091477156
0.0555672198534
-0.0365804582834
-0.0816816836596
0.0711982622743
0.0180604606867
-0.0441696718335
-0.0893056094646
-0.0911273956299
-0.144470587373
-0.0488787330687
-0.0211311206222
-0.0266467090696
-0.113626778126
0.0451294742525
-0.0319943651557
-0.00166720419656
0.102058365941
0.164518564939
0.0194540545344
-0.0710873454809
0.028457917273
0.0384057760239
-0.0318038873374
0.0777910500765
0.0886614918709
-0.0150838587433
-0.048856895417
-0.069487221539
-0.032005880028
-0.0180919598788
0.0512813292444
0.000768265686929
-0.0924465283751
0.09144115448
-0.0405951328576
-0.0014993341174
0.121074803174
-0.136847630143
-0.0815849527717
-0.00135377480183
0.0257579758763
0.00702044833452
-0.00370204681531
0.0885453373194
-0.0522060096264
-0.123406484723
0.133677721024
-0.117674194276
0.0616768524051
0.116347923875
-0.0500462986529
-0.114269785583
-0.0777741521597
-0.0736243873835
-0.0791304334998
-0.0279939323664
-0.158490374684
-0.0582747273147
-0.0785814076662
0.0161449182779
-0.103070750833
0.0747812464833
0.0525764897466
0.0264983456582
0.0358782447875
0.0153187736869
0.0511402413249
0.0342937409878
0.103708140552
0.0685496479273
-0.00255552120507
-0.0953064188361
0.021500274539
-0.0452272854745
-0.0339891761541
0.00113298813812
-0.0645977109671
-0.078358143568
0.143320888281
-0.0710759758949
-0.0359548442066
0.105501718819
0.0887535661459
0.0169716980308
-0.0196761172265
0.0822013318539
-0.0788719803095
-0.0204735007137
-0.0970740392804
0.0316047929227
0.0141394175589
-0.147792309523
0.0377551950514
-0.0990117862821
-0.00220663892105
-0.0412238650024
0.0496879443526
0.0278293844312
0.0643168836832
0.0461712479591
-0.00688638258725
-0.0813275128603
0.00391645310447
-0.0665453821421
0.0796131938696
0.0776320770383
-0.067144729197
-0.128084972501
0.0523565225303
0.203817784786
0.0319917947054
-0.0136973392218
-0.0715251713991
0.000809527758975
-0.000241721761995
0.100535400212
-0.0244866479188
0.153379976749
-0.0587430261075
0.0212555732578
0.0240825582296
0.0315978527069
-0.0923293083906
-0.114559963346
-0.0443702228367
-0.0971769914031
-0.0190383307636
-0.000684385071509
0.0516440011561
-0.0412533096969
0.0125751253217
0.0191822163761
-0.06688708812
0.0172351002693
-0.0194389689714
0.0759189799428
-0.0266102068126
-0.0463933460414
-0.105587609112
0.091117836535
0.0101860212162
-0.105993956327
0.00566543824971
-0.0349573642015
-0.0455291569233
0.0484716780484
0.00981040857732
-0.0372528992593
0.123487964272
-0.12354593724
-0.0383833833039
-0.0543479248881
-0.00672747846693
-0.0781802237034
-0.0548329725862
0.0735191851854
-0.02918641828
-0.03880950436
0.0471416823566
-0.130068436265
-0.0563508681953
-0.105373159051
0.0633411854506
0.0410586185753
0.13481977582
-0.0276757590473
0.000615246302914
0.0156429503113
0.0887221172452
-0.0987592786551
-0.00804341584444
0.108899243176
-0.0870256349444
-0.0397684946656
-0.0301687996835
0.0219165366143
0.0372444055974
-0.123424984515
-0.118948489428
0.0168125294149
-0.104939624667
-0.0930211767554
0.108395852149
-0.00351126585156
0.0188283678144
0.0325418822467
0.0102970898151
0.0497847981751
0.0706504434347
-0.028191709891
0.025974182412
-0.113059021533
-0.105632796884
0.065588414669
-0.0320949666202
-0.0682007819414
-0.0256150048226
0.0875476524234
0.0884754210711
0.124676682055
-0.163581371307
0.0457840301096
-0.0349241010845
0.0224979110062
0.040631711483
-0.0291680637747
-0.00790590792894
0.0984189808369
-0.0250500179827
0.11233188957
-0.0298777222633
-0.0793325975537
-0.0857965648174
0.028639851138
0.110338918865
0.118548169732
0.0598262734711
0.000394274276914
0.0380838289857
-0.000390221830457
0.104981280863
0.125175923109
-0.0353920012712
-0.0850777029991
-0.0424970127642
0.139111965895
0.0687623172998
-0.0766059160233
-0.000643419858534
-0.0778878480196
-0.104690439999
-0.0289801470935
0.0165335182101
-0.0411387234926
0.152647346258
-0.060732588172
0.0377883166075
0.0237552095205
-0.0620815530419
0.0114032495767
0.0298005975783
-0.0285245105624
-0.097171895206
0.176155507565
0.194930672646
-0.127506732941
-0.152363449335
0.0190763510764
0.00206058216281
0.0663410276175
0.0596527829766
0.112583972514
-0.0190722383559
0.0432795770466
-0.0725458115339
0.00487266061828
-0.0635713338852
-0.0836838334799
-0.137997165322
0.0594677627087
0.0810757651925
-0.0549114346504
-0.0348985493183
0.0971552506089
0.0180347897112
-0.0911895558238
-0.118349999189
-0.0850288271904
0.0214647874236
-0.0292616654187
-0.0566172078252
0.0220834761858
0.0931083485484
-0.00793350953609
-0.108421340585
0.118365362287
0.0411175601184
0.0414485894144
-0.0325683429837
0.0623061805964
0.0289448648691
0.135932281613
-0.0307427272201
0.0792698860168
-0.00803073029965
-0.0493803024292
-0.000678588985465
0.0199249107391
0.00844914186746
-0.00114582618698
-0.179498642683
0.0560872070491
-0.0989594608545
-0.0270258933306
0.0901825129986
0.0850245207548
0.0884736552835
0.023660691455
0.0193067118526
-0.044683996588
-0.040030926466
-0.144736021757
0.0230663884431
0.0815675929189
0.0258835386485
0.064342610538
-0.107271075249
0.0392023026943
-0.0875800773501
0.0763862505555
-0.00286524137482
-0.0795533582568
0.0547252930701
-0.0995617285371
-0.121494822204
0.0977832376957
-0.042876470834
0.149476766586
0.179729759693
0.0370826646686
0.0211713947356
-0.0754136890173
-0.125522375107
0.0819376930594
0.0869356021285
0.0910938456655
-0.0696768686175
-0.11154139787
-0.0799186900258
0.0096409637481
-0.0648898258805
-0.0534556247294
0.190508812666
0.101562067866
0.0563338920474
0.0663705095649
-0.149051651359
0.075403958559
-0.112252242863
0.0759530290961
-0.101230487227
0.0153369577602
0.116759121418
0.0244828294963
0.175306841731
0.123181827366
0.0698764771223
-0.0055449209176
-0.0715837851167
0.014126050286
0.0499457642436
-0.0687605217099
0.0774351656437
-0.0741680413485
0.104170419276
-0.158724665642
-0.0774042531848
0.0602490901947
0.0678468570113
-0.0692815110087
0.115993089974
0.108595244586
0.113185696304
0.00274962815456
0.0333833433688
-0.111362911761
-0.0615663379431
0.110324129462
0.03838031739
0.109794139862
-0.0514081455767
0.0757877454162
-0.14457975328
-0.134310886264
-0.011854108423
-0.0146228643134
-0.103329442441
-0.113588057458
-0.00986783578992
0.0313728451729
-0.0550288558006
0.142252892256
-0.11044421047
0.0126869631931
0.0191785562783
0.0947284027934
-0.099820882082
0.00691042281687
0.0523275956511
0.000371915462893
0.0361515879631
-0.0116824172437
-0.053860347718
-0.0557598099113
-0.194929599762
0.0135442139581
-0.02300773561
-0.0490038767457
-0.0609297975898
0.0816886350513
0.0265052430332
0.0731275230646
0.0560793578625
0.0322804413736
0.00907471217215
-0.0724244564772
0.0728925615549
0.00772723648697
-0.0856619179249
-0.0745622813702
0.236535459757
0.0461670868099
0.0269374419004
0.0881749540567
0.0349907651544
0.00553714111447
-0.0385854952037
-0.0404063276947
0.0581513345242
0.145665422082
-0.0620772726834
0.0489005409181
-0.0278912708163
0.00213480810635
0.0172365643084
-0.0833332613111
-0.0822546184063
0.0845307484269
-0.0483913198113
0.117417894304
-0.0682435855269
-0.209222182631
-0.0203481148928
0.0541843809187
-0.04962105304
0.0809440687299
0.0204025078565
0.00572481099516
-0.114715851843
-0.0290498565882
0.0816702321172
0.0893646627665
0.132134288549
-0.174416974187
-0.0588233247399
0.0144781414419
0.0218238942325
-0.0314457938075
0.00521470000967
0.0479578785598
-0.0272810645401
-0.0491009317338
0.18907558918
-0.0113280089572
0.0714601874352
0.0917568057775
-0.0259899180382
-0.038811493665
0.0389163829386
-0.0481927320361
-0.0416098460555
0.0307811833918
-0.0106297312304
0.0195908807218
-0.023785924539
-0.020920349285
-0.0181079972535
-0.139182165265
-0.0593499280512
0.0805118605494
0.0469826646149
-0.07076177001
-0.0197353046387
0.0172011684626
-0.156491741538
0.145339533687
-0.0710981041193
0.0221333596855
0.0139099480584
0.0790706053376
-0.0597562268376
0.0628142133355
0.0198297761381
-0.0172170419246
-0.0241689290851
-0.0182696916163
0.00132019619923
0.0913361981511
0.0743930265307
0.0109853520989
-0.00331265805289
0.00481728836894
-0.013652196154
0.03847213462
0.0244639087468
-0.0580331385136
0.108909495175
0.0487772412598
-0.0853574424982
-0.0049570761621
0.0545050650835
-0.141335263848
0.14666710794
0.0108346911147
-0.160179853439
0.0179295297712
-0.0571347214282
0.0538751408458
-0.0603584051132
0.00525458296761
-0.122342579067
0.0509033352137
0.0457790531218
-0.0224502068013
0.0970247983932
0.0387888401747
-0.0198231823742
-0.0263028107584
-0.0339085236192
0.0206974186003
-0.0835060551763
-0.036420032382
0.0619281791151
-0.0636283308268
-0.110284715891
-0.199746340513
0.0114650391042
-0.143363952637
-0.0643672794104
0.0571358427405
0.0178537629545
0.0452125146985
-0.125660344958
-0.039341494441
-0.0990654304624
-0.0801327601075
-0.0598628111184
0.159254834056
-0.070122025907
0.0423155277967
0.00060721905902
-0.0763690248132
0.0686609297991
-0.00298275146633
-1.73209737113e-05
-0.0172428991646
-0.15665499866
0.110698364675
0.0738215371966
0.1275793612
-0.0396656803787
0.0496935099363
0.0677334442735
0.0370305478573
0.0758631303906
0.144217848778
-0.039954893291
0.0695383921266
0.012954806909
-0.0404002405703
-0.115934863687
0.0995669960976
0.00929309055209
0.142543047667
0.0069195209071
0.0307736061513
-0.083758726716
0.0217761341482
-0.088798314333
0.0411730706692
0.124393858016
0.0444261096418
-0.0700444057584
-0.0677658692002
0.0849256366491
-0.000885614193976
-0.0146482139826
0.135427996516
-0.136666744947
0.160265564919
-0.0104660466313
0.0994309931993
-0.0247039869428
0.00807359162718
-0.0102323722094
-0.0315016582608
0.0714982822537
0.0599453151226
-0.100303508341
0.0326471328735
-0.0324510298669
-0.00986308790743
-0.142719879746
0.103927530348
-0.128383740783
-0.0571371056139
0.047809869051
0.0589621439576
0.0355903320014
-0.0423733815551
0.059966377914
0.0925853326917
-0.0519320070744
0.0154281584546
0.00825531221926
-0.0184945557266
0.0286926105618
-0.0790640935302
0.0821226164699
-0.0827593058348
0.00941526796669
-0.149064525962
-0.0461197420955
-0.0343580618501
-0.0103652244434
0.174308568239
-0.0400078259408
-0.0503501407802
0.0792299285531
-0.083015166223
-0.0315394289792
-0.0212145317346
0.0660708248615
0.140247896314
0.0896494016051
0.00160315306857
-0.0465824902058
-0.110421530902
0.0284453965724
0.213812664151
-0.075959764421
-0.0206614676863
0.0677609294653
-0.109859220684
-0.0443889312446
0.0507460236549
-0.221258163452
0.0680199638009
-0.262174874544
-0.120788745582
0.128738567233
-0.0570780560374
-0.090000025928
0.0747141316533
0.0794910937548
0.00133895385079
0.0111466106027
-0.0403139591217
-0.0200895164162
0.0139334183186
0.123099721968
-0.0277027785778
-0.031255222857
0.154601871967
-0.172509878874
0.0997212380171
0.0515629127622
0.0149664878845
-0.115490302444
-0.0477614626288
0.0151523258537
0.178299814463
-0.0136726377532
0.0314509123564
-0.0166587922722
0.0010841502808
0.029236594215
-0.0636076405644
0.066667303443
0.11544880271
-0.0336745604873
0.0720826759934
-0.0121179129928
-0.0969309508801
-0.0484873205423
0.0816040709615
-0.0807165205479
-0.074789956212
-0.0384688861668
0.000554259575438
0.000579353363719
0.0154160875827
-0.0529515407979
0.0613511130214
-0.0478843078017
-0.057846032083
-0.115359313786
-0.0424299053848
-0.145967379212
-0.030658794567
0.0380678363144
0.0274623539299
-0.10718536377
0.0592010170221
0.0901016369462
-0.110758446157
0.0529216900468
-0.0700146406889
-0.0405551753938
-0.146604761481
-0.0189477000386
-0.182933986187
-0.00737554812804
0.0225881766528
-0.0413135699928
0.064364053309
-0.0679894387722
0.124122224748
-6.23413579888e-05
-0.0889907181263
0.00216031842865
0.0648045837879
-0.00530327064916
-0.0121203176677
0.0273371338844
0.0880950689316
-0.0985853374004
-0.0558078996837
-0.0835908427835
-0.0533986352384
-0.0033033946529
-0.107928492129
-0.0490491203964
0.0585388466716
-0.0977210849524
0.0226529520005
-0.0588598549366
-0.0248181261122
-0.00894725415856
-0.0129815470427
-0.0409753620625
0.0906891971827
-0.0123816076666
-0.0750662982464
-0.000670143112075
0.0862790122628
0.0280628185719
-0.053210567683
0.103013977408
-0.0399362370372
-0.0743689537048
0.0818296223879
-0.0704806372523
0.00269413040951
0.114591479301
0.0103037441149
-0.0157801695168
-0.0556407049298
0.0428630486131
0.0349688157439
-0.00955124851316
0.0116669731215
0.0708266943693
0.0992262065411
-0.139084026217
-0.0837187841535
-0.064051873982
0.0172373950481
-0.00855483021587
0.106276452541
0.0451574847102
0.127312660217
-0.0320455990732
0.0692938491702
0.0501574426889
-0.128796607256
-0.00193772453349
-0.0756944417953
-0.0352959744632
0.0139165343717
-0.035773716867
-0.0289857704192
-0.0998099818826
0.0289282966405
-0.0649408102036
0.072358995676
-0.0804689973593
-0.0293740406632
0.0448112599552
-0.126093760133
-0.0649591833353
-0.0373413078487
0.041269633919
-0.0400071628392
0.0892824679613
-0.0462925322354
-0.125124156475
0.016340913251
-0.198297306895
-0.0809989720583
-0.0369788594544
-0.116142190993
0.0364935509861
-0.0360514782369
0.0787861868739
0.0410958491266
-0.0827938765287
0.0111283482984
-0.012796798721
0.0411035045981
-0.0850789695978
0.0704794377089
0.0213608704507
0.0408984459937
0.0198630075902
-0.0698399171233
-0.0080233020708
0.00928054470569
0.0326012633741
-0.180896088481
